solver_type L2R_L2LOSS_SVC_DUAL
nr_class 76
label 0 1 10 11 12 13 14 15 16 17 18 19 2 20 21 22 23 24 25 26 27 28 29 3 30 31 32 33 34 35 36 37 38 39 4 40 41 42 43 44 45 46 47 48 49 5 50 51 52 53 54 55 56 57 58 59 6 60 61 62 63 64 65 66 67 68 69 7 70 71 72 73 74 75 8 9
nr_feature 600
bias -1
w
-0.0007119969796612595 0.01034799551305499 -0.01480857344903725 0.0008167541573806471 -0.0227990325678419 -0.00524428817029302 0.02828466160325988 0.0188715245821186 0.005858636223156129 -0.02223474035273587 -0.002723968194762275 0.03218984226074952 -0.03017406176776812 -0.002648104574763391 -0.01434222499790441 0.005701823123190124 0.008667481191973577 -0.001016199633049138 0.005677697091323835 -0.01125762600655571 -0.003941286155461316 -0.0163499500777584 -0.04306273802927179 -0.01769626630669948 -0.002419581333698811 -0.03558668198158344 -0.03428669507298431 0.01135305937749947 0.04115544956645729 -0.006521491452508332 0.002699207076358825 -0.04863786362332606 0.003509079489540824 -0.04778480705594342 -0.02733698951627793 0.003519752132622809 -0.0004211909091417138 0.01804142332408225 -0.004742130304670767 -0.01001833942534305 -0.002791326991971059 -0.02550250367414883 0.008159651047576566 0.009402295392012223 -0.01056268765251786 -0.02084035107790897 -0.01097673333703686 -0.01087619956201213 0.002699747607484861 -0.001479193543582655 -0.000790199902343846 -0.003956758739147046 -0.0107547582906121 -0.04595606187519716 0.01301327054917891 -0.01723895261589197 -0.07516021639374453 -0.01984706889067818 -0.01643442869332404 -0.03117033669398884 -0.001202139978115849 -0.02979190194086718 -0.01568975261903603 -0.03476288863207756 -0.01603979707329847 -0.02101409730659551 -0.03083954685795178 0.01851157061719967 -0.001992298175101156 -0.03160114870967226 0.0008886589826128398 -0.01067109930824856 -0.01710760205820489 -0.01563833554889943 -0.01187330145359897 -0.01245469835806169 
-0.1064351431744741 -0.1721018444283504 -0.07431625286323933 -0.009520169178102233 -0.07508490862749324 -0.001301005377434407 -0.07655590854215719 -0.1102090959733447 -0.1215388714437936 -0.02917599398966294 -0.1215722947502057 -0.01774930925847619 -0.2667142304421256 -0.09305892332610694 -0.05676119991635607 -0.14671801373108 -0.1657919745204947 -0.1644562578552369 -0.06002581916821349 -0.08721138365224125 0.02122341453570909 0.08691524409232264 -0.05064510253976356 -0.04543553172468801 -0.004338607396271522 -0.124589282071776 0.02625236484710706 0.0318293088715455 -0.03537167564203584 -0.07640337157762421 -0.1546701237945099 0.048337909640737 -0.107644959351293 -0.0861766743208949 -0.1117383383761747 -0.05673224257901613 0.01197353625498321 -0.01256475163416491 -0.0407346168872657 0.003247507102316601 0.005303573745016631 -0.1347246926856847 0.05725144409068375 -0.07713963011337989 -0.04201273035131262 -0.09334649323952722 -0.10410583302544 -0.04976919052483852 -0.06036147072177362 -0.07691073413925512 -0.02729925690674352 -0.05258145620832659 -0.004514805403352903 -0.04120108488825736 -0.01190149353861895 -0.003112242931329307 -0.06231203763658828 -0.06937332378577729 0.03487842664393001 -0.06693875354298204 -0.06511574368781638 -0.09931630770061499 -0.04810332956575728 -0.05177317657732482 -0.02712298014757951 -0.06336358813823194 -0.06225672687978621 0.0178750050310537 -0.02735729792405643 -0.01593529075272287 -0.02426489787594366 -0.06765512509207454 -0.005635987347005568 -0.09191078865073733 -0.2322680253208823 -0.05019646756124994 
-0.01188538555704499 -0.04649292580545388 -0.01793943411527199 -0.008195460517866907 -0.0225163019103435 0.004738698238663431 0.01653274086742083 -0.02675737642351708 0.04294729235395845 -0.06438681872783168 -0.001990979717447078 0.1322630659845828 -0.07770778698570904 0.1187815247510726 0.003051983347664679 0.01718909328378794 0.02313762910921454 -0.05555512965301587 0.04496010892347897 -0.02729322921597648 0.03105570173687437 -0.01460409450247532 -0.03503832013561919 -0.04276264563979306 0.00176227024863288 -0.01432357726087267 -0.07102885366196533 0.03634685892404733 0.03335374900108127 0.0133307166107331 -0.0005156602309347344 -0.008035165067379774 0.01166507345972774 -0.06165150289540999 -0.01611197077161222 -0.0417830535202111 -0.03755582047388301 -0.004393871735176113 -0.02801502673071508 -0.0236815420083136 -0.04194311552828627 -0.02006149941663349 0.03805019699078581 0.0004856292035162547 -0.04501354301983386 -0.0462240764231261 -0.0397680842952612 -0.00996027960114171 -0.0429928438418775 0.03672133238326954 -0.0311509017685525 0.01714990587109391 -0.009482987158380828 -0.08124134249380809 -0.0362347008267868 -0.01545415291859836 -0.02423235822181966 0.01303609126618582 -0.05665085123033135 -0.03995235919244822 -0.03681568002492021 -0.1240404970728455 -0.01337641634757884 -0.04851823034933941 -0.01668838133786892 -0.01781626499434658 -0.02182877089118564 -0.004288357849546026 -0.01359354113896047 -0.0210726863184589 -0.00498660130306358 0.01412481770719122 -0.02412984220980247 -0.01191809578414397 -0.04021476297672182 -0.1022529112172098 
-0.1606638428265519 0.1618652108103829 0.00927048549155794 0.1478056287921529 0.08866409050728037 -0.03559177971322156 0.03816540240975894 -0.1196301155444074 -0.1132919181954825 -0.1629894818236093 -0.1788699133770495 0.09993383203433301 -0.1158997959924445 -0.1597147311318173 0.03300324367870996 -0.01664037068679358 -0.2897650376353943 0.01236705678580765 0.01587527089940006 -0.1449329377390137 0.02706425654797647 0.03475289126124133 -0.07433050668359198 -0.0806773431772046 0.01006915102697895 0.0528081938833624 0.1744760092626954 0.01640227893635729 -0.02890348111220824 -0.1742527793933107 -0.1647275304663432 0.07932408687256549 -0.04684313526184215 0.1831006909008878 -0.02625622085159763 0.1641247204858546 0.009953459696969664 -0.03866242769806643 0.07366170162139324 0.2507085256519641 0.1538836386938016 -0.1874216054076199 0.03918199916332932 -0.04748491067862157 -0.2169499083124775 -0.04002066408327183 -0.173236247746926 0.09910510156086148 -0.1916063303209628 -0.1100207353423783 -0.1707829625703924 -0.1092143196723275 -0.04592262218831127 -0.1700776378102403 -0.03674864020723882 0.1246156311414337 -0.2278776881983197 0.1596350082610818 -0.1035338310485499 0.04724971858814619 -0.1306090666899238 -0.06319923788751224 -0.03282483697600908 -0.08808750841310631 0.002131735504317574 -0.08013662803877532 -0.0782982763641796 0.109906917949347 0.1057856658467732 -0.05406826592132396 -0.01319228012446036 -0.04682264501987288 0.0557498434089313 0.007305958880692329 0.05322856198288187 -0.1022999683455065 
-0.01003989263983818 0.08241319014427141 -0.002058912283772487 -0.00459893930613059 -0.03263087207810912 -0.007751868893750144 0.02347706816237891 0.09614331479915286 -0.1105475934380611 0.04617384312087629 0.0005463586273133179 0.04120537744178719 0.01055141836148216 -0.08336450132449173 -0.01459078046088032 -0.0004592914555773435 0.01075830853987882 0.03671598734076019 -0.03262562140959171 -0.003174570735683241 -0.03130570616364979 -0.01843071439732043 -0.05025480039716664 0.003597560455180644 0.02882799775233661 -0.05270935680123125 -0.01565648191442955 -0.03170547189639921 -0.01997431376907894 -0.004573854816568254 0.01931463650630587 -0.09003016209148004 0.008903862676068955 -0.02599295879376147 -0.03363998579590464 0.01279200010129075 0.08112397717792674 -0.04477880819199163 -0.01674880722459635 0.03098424503336026 0.0306411478137943 0.02139832818031334 -0.0340238227942976 -0.007531404259728502 -0.03202312326869054 -0.01039247353251438 0.04529883659622967 -0.004438758374650519 0.05715945792000765 -0.04637284197706026 0.007746094296820042 -0.009215380529297632 -0.003463157153895806 0.005030750067318124 0.08327317302435906 -0.02735920396305359 -0.131303036796337 -0.110153149191211 -0.004456722720587577 -0.002136587683893103 0.01092732659629622 0.08905918953297715 -0.01568689019323687 -0.02240862263534155 -0.01729914267154302 -0.02148474589751256 -0.03723881816434407 0.03682750219975101 0.005166319902685132 -0.03620429123812948 0.009213509533078057 -0.009336591061157121 -0.01246358093037581 0.008431815708026164 0.02076683929224221 0.07685209935647042 
-0.1383627977955652 -0.1870740008549781 -0.1622660969818009 -0.1284542514727285 -0.1430478450299069 0.1542844934749589 -0.1356613216230804 -0.2892641640658921 0.006868581500327395 -0.00842763687944246 -0.06795011896693305 0.2514325109288213 -0.1162954171415185 -0.02868299282297126 0.2811091112051744 -0.01830149344422565 -0.03393768190752296 -0.1503763422081742 -0.05360002295882235 0.02391481641067375 0.0111588896781529 0.1494979323841456 -0.04371692866243006 0.06174051771041653 0.07643207608364321 0.1614430571297749 0.07534071406506576 -0.02262010322871658 0.1129516359841689 -0.002579395161141089 -0.0546985941690533 -0.04844173943705973 0.009743900335416486 -0.0174437015554036 -0.1185611355798807 -0.04386998716783452 -0.02586114150668599 -0.1313193995046501 -0.1573524016013384 0.1251702032635219 -0.1381137343127843 -0.1360351242808089 -0.03363374895566973 -0.1535545225062671 -0.06105987980092568 0.007070473746930466 -0.04078142557869113 0.02218574551388337 0.0913341143665841 0.1010088490574062 0.07213833487871948 -0.2160962555203239 0.02836905524152401 0.2167454391236193 -0.006514965201060569 0.1039146575290112 -0.1112337501441713 0.04754713316096728 -0.1313739039335239 0.02593853510610561 0.03384583072433357 0.1767215077048659 -0.0121456921702943 -0.01141132424719491 0.005939515318482642 -0.07017149787927209 -0.008112306601436699 -0.2965907981493332 -0.07619539424091856 -0.1136210532840936 -0.03868046544611271 -0.02649239213375455 0.02676839252054023 -0.1981589035800579 -0.1639432947691077 -0.1398858127211275 
0.004805677039170424 -0.1299991638595892 0.001497983430853444 -0.006315497083389472 -0.01406477802883312 -0.08783213409610517 0.06302912671908764 -0.02502337216825089 0.0121654378356353 -0.06806784288662814 0.005140037063095591 0.005043145661643267 -0.03339568903379093 -0.04267755454178222 0.03953306620339438 -0.0294562639526266 0.009531982961145555 0.001335033585507269 -0.08881500550659331 -0.02178376424138653 0.022390141483123 -0.01166984280615405 -0.03274693593950531 -0.05272978209105705 -0.1322977616015056 0.04034650439684719 -0.03244366364200835 0.09352815091573667 0.08026992960619643 -0.05644824332400848 -0.01044492545463235 -0.03569281466044482 -0.02624449924374181 -0.1274483294016361 0.03470006894463948 -0.09354645931067557 -0.07949354406111121 0.09581348206154058 0.02400854419150156 -0.001128300140438813 -0.07062281723566061 -0.005469310501818454 -0.002403279695869995 -0.002537159522536709 0.06847125346044743 -0.1259258740534891 -0.006922831966330294 -0.06441827400572035 0.04566421683451125 0.05398932681405399 -0.05921955041262089 0.002358660593361537 0.02302274806865587 -0.08581647112617535 0.03197679080455437 -0.04059595015958609 -0.1427921281230492 0.1350719084413957 0.01907201206466594 -0.003533400269956149 0.03121188910119091 -0.05498270941376608 0.003904883515883367 -0.05808365909230744 -0.01236316339573768 -0.02294475236229555 -0.04483023064188568 0.1048298249618026 -0.0002199024820450231 -0.02579193687380718 0.007068228857299122 -0.01845971216867915 -0.0274738990098065 -0.08273187408497286 -0.1148736078588711 -0.08508223011203922 
-0.1383089265849468 -0.39591661390718 0.01578896403092699 0.01086608620915304 -0.1334971001248217 -0.01224688843514125 -0.04043808890221076 -0.01113646437594083 -0.2197025225388561 0.07067376785659091 -0.03939553117835645 0.1488885563575349 -0.0476275963319583 -0.100524249503906 -0.2242808499504268 -0.0959704527355848 -0.09668970513893084 -0.4237778611810607 -0.08694992854134949 -0.001819144195046735 0.09041949892102445 -0.01210024139016619 -0.04737262999830533 -0.2131548101974392 0.07741320878799657 -0.2150039361281293 -0.09776395606689782 -0.01025832559346349 -0.04991388548627835 0.0690132511012965 -0.225509852548537 0.1301808151240539 -0.09284707392345371 -0.09604057052007346 -0.1088499778147702 -0.08532552984603491 0.1121638886994084 0.1775945824933959 -0.1481979785499373 -0.06298631372022044 -0.02113113305597005 -0.02482544165198298 0.1243835290988082 -0.01928174452166573 0.0840286965697926 -0.002491341133284706 -0.1730243813539411 0.02933821610866727 -0.1888054369105764 -0.04171611819231258 -0.04169472670897068 0.05659667510745293 0.1401934463656879 0.05654897609577333 0.0333327618646317 0.01160003338272228 0.17935597729957 -0.1519918729014919 0.1362705555467408 -0.1050190326171723 0.0468596720351831 -0.1519355399152236 0.007854300751578582 -0.06510499771079721 -0.06320294653259682 -0.03296151392457142 -0.06533202881180254 0.09221729853562902 -0.1024396889437065 0.03274756186164667 0.001031777846230213 -0.1006946535344273 -0.1030287714449091 -0.01309209911982873 -0.392877715362638 0.09386828687445975 
0.01232027837027222 0.14980064923539 -0.04245301479400283 0.02100158775462568 -0.02255481278708131 0.0646303875520179 0.004018036704761991 0.02727138114897779 0.07704187863238732 -0.003421380034518236 -0.01294121804266694 -0.04970587376465342 -0.01814186421695748 0.0004228927384230352 -0.0872995389059382 0.03514103112377058 -0.009223572832788142 0.01140329199928728 0.0990954708202931 0.007900797235759141 -0.03818749146534441 -0.02042430409752439 -0.05456335412842464 0.02277291400248624 0.09935692592602408 -0.09456165138267623 -0.0196969347975854 -0.05398519786691285 0.06588408287633103 0.02288890059796873 0.00303003913059318 -0.05781289019936587 0.02232898215481161 0.03476639316028752 -0.09464314244697758 0.136110227260714 0.03934014966276683 0.02936901801917458 -0.003446810738868908 -0.04308114829239058 0.07782631203566592 -0.101639734903473 0.03062264245634221 0.04830424504325474 -0.0308904607190779 0.09778555646130641 -0.04918972350068908 0.03404878817834146 -0.04519542412853093 -0.05263772852049724 0.07446661722058107 -0.02306973778009432 -0.05020673066219585 -0.02483614508334074 -0.02437602924176345 0.01164319076863523 0.0009822770795729304 -0.1257375203126122 -0.03670382043821237 -0.08248781564851855 -0.01488595879112421 -0.02709567100615486 -0.03619577415877713 -0.01056607423549609 -0.01745387207199574 -0.02335240811254885 -0.01989455435512591 -0.06629152872454125 0.0007582883857417701 -0.04524790756908727 -0.007741435000187463 -0.02887279825646762 -0.004650180296950283 0.02184245557714102 0.09431185854641513 0.06072141214227003 
0.004264353382019743 -0.09114317298722577 -0.2257841173203303 -0.04597499287586265 -0.2229744770656686 -0.1728909233957223 -0.08466722122734904 0.04497948728259209 -0.06953930741094465 0.2431712743210162 -0.1747039054195123 -0.1303131589169825 -0.1280071235385291 -0.01337115180330337 -0.2859797862967897 -0.2932834646115092 -0.0241592100502758 -0.1015049667943877 0.0883518515822716 -0.2004798157802016 -0.02440548857405282 0.1624490193605024 -0.0157960094698971 0.054922407590004 -0.01567734803958528 -0.4224408206238316 0.0845275003513903 0.1357443392749759 0.08212678794587384 -0.09341678843248813 -0.1606279131584635 0.08896184887013715 -0.1039331987798199 -0.3590636951779949 -0.09285589431850619 -0.1184215242275933 -0.001926104799298912 0.1197297082036158 0.1418535735221255 -0.3019234838396795 -0.02353507449279481 -0.1067827286661956 0.05548283632574251 -0.02235366007660981 0.02702905453714442 -0.2904811982977099 0.006375045512007513 0.05684081018460357 -0.02233427115576125 -0.1116312273501951 0.09886019712232555 0.1283072684922124 -0.02900072142030536 -0.1468498256685966 -0.03760773095381365 -0.2427618757842081 0.149573148594773 0.1276790825147553 0.2800470737170476 -0.183316637974143 -0.09004390790076122 -0.1466722213893614 -0.02944600607819021 0.02748319836124407 -0.03417849328269468 -0.04749222650887746 -0.09253128809948642 0.2312895376725682 -0.03953401040012639 0.04713031445745784 -0.02153659885635432 -0.03374951974355591 -0.04030497126723432 -0.2173925297289616 -0.2055013035199196 -0.004894824439983469 
-0.02131521596744549 -0.01602239374988499 -0.04069775927242096 -0.001850191952287214 -0.05826183211600293 -0.06521874124316059 -0.1042443815995546 -0.09251597064174723 -0.01023724400636768 -0.0317854926937319 -0.03410202748248625 0.4067820267675205 0.02866764453191662 -0.04240664727518315 -0.00715352818206785 0.08604909629457748 -0.04935897403912735 -0.07910491634430367 0.04534414100445768 0.01127435765287135 0.01621070573222053 -0.0240541777919538 -0.03179444769418913 -0.02792789146689313 0.03937532324766974 0.02878148801708002 -0.08970055991037793 -0.01761454725304187 0.01856059250323915 0.01485603877263069 -0.002925045255937436 0.1072068100705022 0.02193867860777999 -0.07386752625012416 -0.06592899200221157 -0.1808189581578766 -0.1255702318883638 0.01539860189555407 -0.07257696395682266 -0.1447936108741315 -0.003121946014286589 0.02958749619925261 0.004944579683220921 0.03204041728620582 -0.1644994261116347 -0.03254357376513662 0.03724655901079881 0.03089545298572934 -0.1184550307863574 -0.03458578572335339 -0.06895527785976342 0.03378464619507561 -0.060753621543466 -0.08435746554490511 -0.09145659574760522 -0.04295912377895352 -0.009428985345016693 -0.18887876853676 -0.230499728220972 -0.01198003259222448 0.01216418683349956 -0.005544374336605201 -0.01667164253089933 -0.02152845242375213 -0.03123814600672559 -0.009828749441059156 -0.02857515632119257 -0.1078140435406948 -0.04840247803572598 -0.01582578896378051 0.008228612559046134 -0.005219194146056564 -0.02224117368375878 -0.165896493662635 -0.07579491154766579 -0.1701441286384077 
-0.05482764387145021 -0.2008903481248817 0.184158216550494 -0.1173901615880156 -0.1044166772954451 0.05642431200388576 0.01795632441102285 0.02654006256020025 -0.266412688947539 -0.5092446613593136 0.09272215012004341 0.1830151730787096 -0.5258881974158671 -0.08096985806769205 -0.0887621924677026 -0.02147585299052567 0.3309237675581179 0.1961810729910698 -0.1800842230218673 -0.07806510970114476 0.06631427599719179 0.03305759328979972 -0.02765229148312126 -0.03361157590887868 0.1346421330007472 -0.04700095680859293 0.2196504571744672 0.1208378845515784 0.0619692481416432 -0.1949412128429555 -0.07181097358256418 -0.09357167513293389 -0.1049184057160254 0.2063030562185515 -0.1759963336477436 0.4922769700802562 -0.3049760451379189 -0.2325799302089572 0.1924861959637632 0.1551054491366351 0.2371172233225881 -0.1945847433426009 -0.1061904668292445 -0.1868794112668894 -0.2210088186612866 -0.2608453583526476 -0.1831626544654271 0.5105782063558685 0.09294095947269604 0.1682740818175022 -0.02657157339147688 0.1983782236635143 -0.019782688424888 -0.3049685386737308 0.03071153525280996 0.04219192098401943 -0.3970754788477853 0.07921695542478456 0.1048275833599734 -0.01962676704270227 -0.2863934667975787 0.07510879574512742 -0.00311819405471359 0.001196777459680507 0.0556225119737364 0.006975450048732771 -0.05348211225521699 0.4115085340546317 0.1566271318336119 -0.1156805943568574 0.08221429671693614 0.09291870211487419 0.02049872295195227 -0.007808963773550385 0.1078308010547807 -0.01860433029458313 
-0.01545648414052556 -0.09467123049184816 -0.02112313824626704 -0.003980017453541734 0.07338205305852326 0.06213703503016705 0.2527535997248363 0.05717191301720714 0.04111270259596241 -0.02337702358186728 0.04855933510853292 -0.1653800147619122 -0.08820862190496415 0.1130449628522735 0.02367066902533174 -0.0452251383863585 -0.01099178472344583 -0.01745020431570478 0.03527074736302968 -0.08216635742991553 0.0129606313801861 0.01794609647013347 -0.0404278111617877 -0.01505528816752016 0.04795284296482434 -0.01599372445284105 0.03334560737275248 0.04013111015338935 0.0001037914456216418 -0.02441240232642534 -0.01994729244570612 -0.2149086586940573 0.01363963943737624 0.01803675248769071 -0.003208625392679044 0.1770718892235348 0.1168008867624594 0.07574988487552228 0.07344165417491556 -0.01932263319967039 -0.1192225891437084 -0.01705635702488741 0.08542454498341659 -0.06427150329773035 0.0154940591291139 -0.1215877683974131 -0.06014175554262677 -0.01105492848183688 0.06725452782724427 0.07824758365650648 0.02141120132101656 0.1509647427383225 0.01435262522049289 -0.1281193259703805 -0.02826144530937264 -0.006115275832812224 0.121691594949748 0.0930559070211861 -0.004863503626765806 -0.02495118041442343 -0.06312713735454195 -0.1699661810022504 -0.005671215418550974 -0.05802809616131768 -0.00245651156810395 -0.02843869328333613 -0.02085020941562884 0.04500895804155133 0.01864164382965488 -0.02400786777071791 -0.003981668803536863 0.005301613462709057 -0.02003197197617441 0.2109552096720267 -0.07109596377880681 -0.08274588366374364 
-0.1188050583674672 0.2914857145905971 0.2633132803319706 -0.05562953890525339 0.06954517915709142 -0.04496714715447933 -0.007292035988204536 -0.4295245837151125 0.6775212912872907 -0.2305973359402881 -0.2891597423053803 0.07460081596852525 -0.01631498791204389 -0.2056895834429831 -0.04481447678209174 0.2500239596432666 -0.06099451042177834 0.168866182919042 0.1544926146855901 -0.2198918011654091 -0.2127811943050837 0.08195160693407812 -0.04442643762362385 -0.1841798214423434 -0.03629254019124892 0.4516105462682044 0.1548097809427486 -0.03533724506687069 0.2116335080316577 -0.1370307148963682 -0.2034252758031365 0.1584152414958215 0.02375880698035942 0.2521885030378278 0.05986913634253017 -0.06522395738174505 -0.3200982145206562 0.1712399103321349 0.03229595747429122 -0.5270749488407359 0.4001510359223621 -0.06945326207540462 0.1746130228141669 0.08016069054529297 0.1149386438470775 0.1246717971811466 0.3058383326296533 0.3879473837278607 0.1165088197848189 -0.1468880667344699 -0.1496289522710979 -0.04788256670825396 -0.4692420049878825 -0.2456749783131984 -0.1350045897481254 0.1509586804077051 -0.3636877989007468 0.4170073004554141 0.04280273400114795 -0.05466947813273541 0.2305131622198976 0.304447684112214 -0.09625628057480969 -0.09496230602318624 0.0318802299663949 -0.0122820893147524 -0.02724858472198397 0.1787716567209707 0.03143390914269841 -0.04318115179462572 -0.03125782197737053 -0.02926544830702501 -0.04291026051145103 -0.03799458624010681 -0.2086217594145821 0.1008574301981668 
-0.01250510521774976 0.118356265725193 0.06303475037252973 -0.006358514919801779 -0.1094769534752537 -0.02662716577394719 0.07865352480864396 0.009512579673233009 -0.01707159547508143 -0.02076310533572404 -0.05684647828579791 0.004777952472800247 -0.04166216642576363 -0.02305491344138632 0.09430497501813966 -0.1023501635518694 0.07517766640298214 0.0562559130115594 -0.04792339188796638 -0.02222353692978907 -0.009127728217948241 -0.05029515752594823 -0.06160653949873243 -0.0613822941655622 -0.07606347538430582 0.02817734715511132 -0.08825802606448217 -0.01584518547241211 0.09799413578475072 0.06461180758903246 0.01916328791471474 -0.008604596647021441 -0.02479237165371168 -0.04421768188805986 -0.003275398126035192 -0.01379472653566973 0.08598076780149049 -0.07418038222914432 -0.08207701869472053 0.1232429804546109 0.1575612277949373 -0.01076517077101211 -0.07738081717309246 0.07872646621627941 0.07348703935012574 0.09620808870325757 0.07465239164870505 0.07626011188135035 0.003129277565779534 -0.01160837438536543 0.02335712204549546 -0.08447216379213701 -0.03478979772737523 0.1293938415991127 0.09919401180503461 0.009064699021745802 -0.2087934231701797 -0.1413815767419883 0.02074401846751344 0.08893255303303517 0.05029626219003038 0.2300758124264203 -0.006073022941090412 -0.005554305947567388 -0.02348544931425051 -0.004075424457565646 -0.03427516431459469 0.09149144811927501 -0.006411994103930785 -0.008344411136473558 0.006043295233284077 -0.02998463875719278 -0.01508164905766308 -0.06110769558644876 0.1424089156705566 0.1623504486244582 
-0.08226721357873694 -0.113312363227725 -0.08475486056575372 -0.1261595424374611 -0.3133625459959411 0.1765436994060714 -0.551051072476037 -0.1712173135743265 0.2248209826097181 -0.3350745397426045 -0.02631763633175666 0.10680744036926 -0.1616129607220247 -0.09809642366146737 0.1754015160624655 0.05685550600499015 -0.3542431854841347 -0.1226275128692652 0.1368990082809189 -0.1856648693497887 0.06796323891128321 -0.01655360210704459 -0.05511155245098361 0.190525380467258 -0.2022154503568454 0.5683651925798873 -0.09650426994719666 -0.08240243736797141 0.2460213407219921 0.1052256142530271 -0.146503934140599 0.09492493217279042 -0.04602207957573579 0.005434434272676581 0.06565672080302221 -0.2907860678642995 -0.135476624491757 -0.04321203055424824 0.01718129382481659 -0.1651705180460457 0.2226444324051834 -0.1633698166310756 -0.09738307956936602 -0.3074478676032218 0.2284489778950061 0.04305787064500168 0.3433575062724425 -0.2420502498682032 -0.2034907912390226 0.1732939193074811 -0.3300164906593262 0.09773513424054303 -0.1233657609955859 0.5239834733318524 -0.0639685255290456 0.3533254857333239 -0.4749781184490124 0.09480802986349628 0.07081207490901875 -0.1903764000662325 -0.1100211850870987 0.5304015880948555 -0.04271219563421849 0.01668403483522025 0.005286303917549508 -0.001136945348635544 0.05636628272286506 0.01843700457862409 -0.1100438354298017 0.04218981967028303 -0.05063032613186446 -0.05912295566963419 -0.008918184679234232 -0.2109747986974594 -0.1896918304430492 0.1417366164877878 
0.02143725820959259 0.05139770560118112 -0.06026221007386948 0.01647223825445721 0.07350247854001221 0.02087367670478059 -0.00997404722020161 0.1291268135257089 -0.2373247845973685 0.1364092146208346 0.01841298993726536 0.1226641210638061 -0.1182772885401212 0.07733959679332123 -0.09803807855117304 0.134324235075545 0.1021434322115421 0.0005972532204442442 -0.02504626397508693 -0.01573629309603519 -0.03890932286558359 -0.01626680597296121 -0.03782716542939973 0.02864174219107121 -0.005479634126198989 -0.1575957450429234 -0.01065424267876971 -0.01675495870333916 -0.0492771288748758 0.005897076226556612 0.02791484050333813 0.05126713747900725 0.0162033054672633 -0.06245062488048128 -0.045199392630915 -0.01587137106778315 0.001411450531224051 -0.1905188939248318 -0.002291254138674636 0.02643029287413956 -0.04522522875846973 0.1622779003040158 -0.07074873025657692 -0.0207256412094234 -0.07529809515156646 -0.1007232021148847 0.04330417354972684 -0.06092733341506407 0.1380182394423593 -0.03359885388414449 -0.001565691461443008 -0.02188622315075011 0.0751064360802938 -0.08006382276750107 0.05631356615895877 -0.02892387773979333 -0.1952709169737203 -0.00254201072027829 0.007181715663880512 -0.0877459756592166 0.01980908844106292 -0.01903172975158392 -0.02679885534284067 -0.04692695067325819 -0.0105245867864561 -0.03484645594586657 -0.03293725298059591 -0.009923468109854025 0.02000397943470425 -0.04785246001358531 0.01212316139222125 -0.006606840574553961 -0.009859011055436849 -0.006791523895664812 0.07700689916269715 0.04057899454395145 
-0.1058902812019526 -0.1724449905931997 -0.1013477635526127 -0.05498275076175013 0.04560548587746183 -0.1797203846497111 -0.2897416893809165 -0.1068098190520036 -0.1995932806141579 -0.1693694987847789 0.02718377439221355 0.1358760054711914 -0.132091632419178 -0.1833209814553618 0.4691119064059191 -0.1403327310950489 -0.1189172122320987 -0.06127790924741016 0.0001045253853233059 -0.02878713778251501 0.1485946585880331 0.04307120463817601 0.001000571936061828 0.24218852682434 0.4569718497972359 0.1199714857827076 0.09749747217643896 0.09408866176374155 0.3826235065619764 0.004856693806283019 0.04880457913411176 -0.07445870765148162 -0.03905020435050845 0.08231085503085613 -0.26292180219562 0.2219070253401266 -0.1635371899729172 0.3598501797310199 0.09955654893208991 -0.06118600715590847 0.07107711698059092 -0.09345064085882303 -0.03592042205634206 -0.1599091949039213 -0.1561140781478713 -0.06438043162413383 0.03538506682177835 -0.00746540013654707 0.3047137694058732 -0.02819094178813168 -0.1283690871187881 -0.0367771001187718 0.1655950238451938 0.1834078400513406 0.3353238117491409 0.07690496314552164 -0.176102935715642 0.1291490341806072 -0.04487263026578728 -0.007046027894973125 0.3418717113950639 -0.2117619870175954 -0.08505148645203749 0.0630791345648043 0.05332381714874133 -0.07526391162946541 0.05321537734786812 -0.2644542754270625 0.04367154542690228 0.009637389562927961 0.05715371765981843 0.0830585000702011 0.0199618083271337 0.07353601586577335 -0.6159706892561624 -0.2219739803361936 
-0.01913844883960727 0.1888279113056578 -0.02868623246858446 -0.02345153305945262 -0.1363513677388158 -0.04111184036178069 0.04728511737886439 -0.08181244704995935 0.1215151850199737 -0.07302136301342191 -0.0258929799617669 0.1650715734184152 -0.06784208502885046 0.03257663536482314 -0.02306814713100984 -0.0423363068248812 -0.05266786189941062 -0.07668741997217796 0.03534348384636075 0.0379835983896131 0.03292487009716078 -0.01424763310679984 -0.0233309043815201 -0.06022004834347569 -0.03904800730905193 0.08195238233453808 0.001867349820066094 0.05137262103279861 -0.06515564304390754 -0.02293061919029519 0.01904111989643971 0.05067589530733935 -0.04773507128796729 -0.05742849792094615 -0.1640391893550323 -0.1278417616377835 -0.1096420552017246 0.1147892893073436 -0.09565938071648281 -0.2366844516473402 -0.05079164658529285 -0.05917660751036626 0.02184131677909334 -0.01068947722741604 -0.1418332487634881 -0.05915992603409107 -0.03375977011128294 -0.1249895702193365 -0.1566124195360417 -0.004616188638321138 -0.03804950868572096 -0.0473725191422281 -0.1689291701314262 -0.09039042103124464 0.04198543754918093 -0.05108321850676228 -0.002609622972705093 0.1229999930582157 0.05732313500586894 -0.09850310656519593 -0.02835224754832402 -0.03017305088970303 -0.006103226655373528 -0.04303509343034521 -0.02103434813266927 -0.006318959105695229 -0.04043781967580648 -0.1146096219526407 -0.01784994627037061 -0.02981829890312876 -0.006761044466407375 0.0353611858545226 -0.02945954748329768 -0.2073088425055483 -0.04952423288581153 -0.03594576041504796 
-0.1261242617081507 0.2291098106028937 -0.0693541497213683 0.111323783004882 0.2714164570129077 -0.0928213481711655 0.329838568414761 0.2123267879760457 -0.3244785631427735 0.004803887872164734 -0.0120220795134038 0.07929350914467617 0.08095221287310472 -0.2652532217711188 -0.04107985293212681 -0.2314810970594743 -0.3825135354259992 0.1333638730585584 -0.2435797607517434 0.00285131573575823 0.1450306469157689 -0.06241884860046228 -0.07540692945590226 -0.04412592772564249 0.03722809673971055 0.2221413529104549 0.03111655667715111 0.05181448378910284 -0.05684378552623935 -0.1807681313430268 -0.2105850407240691 0.1557181560607035 0.02136297478032054 0.03371534522236792 -0.3573537076144723 0.1540202570320925 0.135155441628204 -0.1125609427568897 0.1545805611361273 0.3260423884207866 0.1360610527511098 -0.2350958128653415 0.1624539244841991 -0.0859984095825819 -0.3571208942115615 -0.2988648328848424 -0.388183652724801 -0.07818895233440976 -0.5784521574433004 -0.2761645023798359 -0.1034558451897978 -0.03045900081869504 0.1411538472568329 -0.1058302670883269 0.2542076911074849 0.1787538710484236 -0.2477074027654123 0.1432951693175348 -0.6153579527648302 0.04084770419451127 -0.2653680137169327 -0.1368860302142974 0.003141183243427408 0.04972773134390734 0.02022605617018027 -0.1744330251013153 -0.09727952489522131 0.05756166980653957 0.1722344225680358 0.02251596188612379 -0.03154182586503357 -0.02740574601904887 0.1485685295099274 0.08433167272773283 0.1696527412091003 -0.0740662244926852 
0.002615296460884375 -0.2572331816373963 0.01323790078486888 -0.008599075282936717 0.03866566987093354 0.09054455941849691 -0.1760004173852544 0.04158909041849682 0.02324618923799357 -0.1162148677008663 -0.02985151959635821 0.1166464473133034 -0.198116714178731 0.3470938235143865 0.004843184813693 0.06604544342877855 0.1790351634348598 -0.04305624079667365 0.07351929079728277 -0.08323150484761223 0.05933477168155853 -0.03466641853508915 -0.04546295488368103 -0.07064418210138126 -0.004868642864320899 -0.08802033634614156 -0.2254988079796196 0.02765583122330425 0.1762103625094744 0.08487711163896201 -0.001346956090632029 0.001323308989273778 0.0597554285979412 -0.09605420490973092 0.1701083020547454 -0.04903523705409042 -0.04288388278825583 -0.2182305330569314 -0.03074229508910652 0.2803559918986206 0.001155844932641643 -0.05455551290181655 0.05722441500644166 0.04427570811082419 0.09629165620243221 0.0272107570460707 -0.08673970692282861 0.03563150345181112 0.04326390090398012 0.1047472705625337 -0.03065283468289706 -0.06876445017294873 0.1675893485875376 -0.05079023226950083 -0.09121362226864242 0.0392191967337676 -0.1828226774879005 0.02969503145117208 -0.08308159039576159 -0.02367215976133619 -0.0566247852979065 -0.2709827466453781 -0.02229987900233975 -0.0723122452705367 -0.01047239951652762 -0.02632755262193503 0.003845436784558531 0.1122158480220627 -0.008557039378472839 -0.01503940020391403 -0.01512139095819366 0.01989905658451303 -0.02413369776624145 0.1326952043407747 0.02823604440224656 -0.1274398130725101 
-0.180422508786446 0.0726924240995028 -0.1946334682053213 0.3249993684206923 0.2079414068489977 0.02195296119183498 0.3551828289099617 -0.108848632998824 -0.09181492726127634 -0.1271259236902707 -0.3438135553242425 -0.4550005203834354 0.2089882425820267 -0.1771446644191707 0.2943659401851518 0.003265088546829761 -0.2463805061395196 -0.09952154359520303 0.1535565741785978 -0.2549347946148116 0.07686439515634463 0.1088839131866392 -0.04421532990203279 0.0256657112974989 -0.246034833618627 -0.07755839955911369 0.1946500512820538 0.03790691033641827 -0.03276246977537912 -0.007387432720269359 -0.1371936817243315 0.07338221063258599 -0.05660055710116917 0.2830098318577733 0.2143732324542846 0.06648567175818239 0.4711924344455734 -0.05695786543179045 0.1418865643918028 0.1629179545759516 0.1420699873302899 0.01851654970601382 -0.206009359135265 0.3324821956860386 -0.05210283875017067 -0.02712777596983077 -0.370339028728973 -0.03512411320687785 -0.01778038730841806 -0.06847066413498716 -0.3170694209049436 0.05559500991604176 0.1275410794481559 0.05697641319351914 -0.01877597544663164 0.1483234039029568 -0.09855049610173013 0.503354706666916 -0.1828108178581608 0.1559819558467731 0.0966337699074378 0.08620922882395535 -0.05014837273378771 -0.1154817791109195 -0.02512771861833585 -0.05514329573164589 -0.07042347466823944 -0.1127135414275419 0.000757105742263308 -0.1385429599021989 -0.07921456966896309 -0.08841229607309664 -0.02373924990732327 0.2592796006590663 0.4680058911126179 -0.2844927203600918 
-0.01797884434178936 0.06454085884857065 0.01316975965989869 -0.01453550461563861 -0.01596107097379439 -0.1881732461165357 0.08293934964710267 0.08595092709508799 0.02062916718657154 0.05456536400614717 0.05416782399390029 -0.00364137622889548 0.1592379905886067 -0.2666896852504485 0.08458761184983268 -0.04310532541741932 -0.072441601969845 0.08403516760036431 -0.01863853486317718 0.1063928700809272 -0.07516407613997285 0.008451782490956477 -0.06306347045503737 0.05113053399471945 0.06078376659291589 -0.2122532190590483 0.00143674346004895 0.01178289557838208 -0.1024905602693565 -0.03759096712782332 -0.01348357631492427 -0.1797049644210254 -0.03468308469557042 -0.06538236737281861 -0.1065881839496429 -0.1175445916866957 0.2403055782221231 0.02031027987285919 0.07864880660394034 -0.05571656712089081 0.07884839573846542 0.01625604351732461 -0.06063571450282115 -0.05795121172649875 -0.1005489405750753 -0.01255825573867925 0.0194661803651946 0.04934691874546092 0.04874813710227405 -0.09524564086445024 0.0366210783279791 0.04172576187976403 0.03407581167843996 -0.03609597502615147 0.135845339115113 -0.07484093997640527 -0.2494061808978804 -0.09558631538013739 0.1424176330729431 0.1100174050535072 -0.03538251409259055 0.2875368255738733 0.01605791871451821 0.004208671728420329 -0.03510136400470322 -0.0370996503326334 -0.03432779018053165 0.0822563139762711 0.02232113571325976 -0.02547980401091348 0.02939839051448384 0.0002633133636480152 -0.008911912309830518 0.07183130233432608 0.0769288816763176 0.05932219895170169 
-0.141216436208935 -0.003344953235066732 -0.2252131172733363 -0.08143106535067389 -0.1228796317830255 0.3640343850753646 0.08525355279903131 -0.1517478585535474 -0.01641572154934249 0.1979363099873763 -0.06536911389899432 -0.07476016988623592 0.2505850461264904 0.04699357600883626 0.4135789711474709 0.03775571062025494 0.1044476722167269 -0.2361988086446669 -0.03656639967933161 0.04382622235579048 0.03335634956337542 0.2415194109340186 -0.08084539235856351 0.01756373899896906 -0.07620515913830957 -0.2467829806425411 0.3652106784500004 -0.01362493769094244 0.09638515220174436 0.005102826026688961 -0.04884861417417687 0.0499795422301865 -0.03005659445723941 -0.04135104461276021 0.1641944165780198 -0.1510980630948595 0.2013621930287706 -0.4074296382439611 -0.1341358129762159 0.4350195296195592 -0.1969032549341651 0.13425812815933 -0.2757566770549233 0.1821058685087503 -0.5266553842250625 -0.002825841647301647 -0.0621028860735738 0.3424380234115235 0.1571409960533003 0.2568350754450239 0.2869223482305858 -0.2508820492240517 0.3743724663373754 0.194830720922451 0.08365010954471382 0.110079313972607 -0.06057118449023595 -0.3377171143870024 -0.138856596713378 0.3225972718991804 -0.1541015256088307 0.2458715752500542 0.05731971425283966 -0.0780063258190538 0.01119605732540497 -0.00121044590938517 -0.02557051110299199 -0.5007888721387546 -0.1048389559662703 -0.1250568657601749 -0.07767929149731173 -0.05719399626697593 -0.05382949582740328 -0.1438927082619959 -0.2196421137559168 -0.144334687511118 
-0.02333594286020435 0.08240036269670194 -0.02620104199791256 -0.003085598250794889 -0.06648859282283304 0.1530166035625276 -0.01626793196349314 0.1221878932323927 -0.1896430513171402 0.01440745806156318 0.006578218258786996 0.05157538412992438 0.02761035683834923 -0.1283249099210831 -0.1357671806690942 0.01303368615451226 -0.03867768846325569 -0.003213865377216713 -0.05203988227224299 -0.08277154481498915 0.00401997687086393 -0.02021236289864038 -0.03735255474405133 -0.009852179411017821 0.08859782183153535 0.07409925555242128 0.02977515354622801 -0.06868372644866194 -0.01568566154989859 -0.06109004417760534 0.04328319790166493 -0.1995324904391126 0.08030153193886985 0.008998668320824776 0.02178747526753059 0.1595525515712482 -0.01642511512204372 0.02534135078042229 -0.07167792736477952 0.05528999324610557 -0.07045561602740971 -0.04627071911997125 0.06416772102082878 -0.016268551284126 -0.03256478954292775 -0.02987303513003897 0.03173047902201821 -0.04581107477349961 0.02628137671943013 -0.03898470623624056 -0.03166762331408182 0.04203272333901232 -0.06150233116756735 0.03072095042122751 0.05387121057000329 -0.01755615406119266 0.07481529676824442 -0.1989513913228989 -0.1640734332568851 -0.1296823323689326 -0.001014816202909408 -0.1546814746700664 -0.04004760936250108 -0.04019288676805625 -0.0005609729004340267 -0.01291037169046946 -0.04675182678171829 0.02918692663739281 -0.0141024847685196 -0.06336362131748745 -0.01218729496147946 -0.000276319890697654 -0.01543520510015598 0.02928069076041068 -0.1952278747423439 0.05555742159080038 
-0.1232096576784325 -0.1795656201762128 -0.1552464017979798 -0.08456043130315342 0.1658608118500979 -0.2446999755285526 -0.09519552622118131 -0.2557008299334501 -0.1792860718439004 0.003578230119525004 0.03202330684621792 0.1501835582494126 0.03758567904616521 -0.08619209140128975 0.1591012886505244 -0.0737172712781953 0.3037982829776883 -0.08461651251876028 -0.1920446430954853 0.1291892428741289 -0.09644056487433239 0.1427717608836619 0.05377624629254837 0.003871274320356198 -0.01097965455845068 -0.01394032559183292 -0.3352958979836789 -0.03187578452704187 0.01338177335866375 0.06018781705498334 -0.1074958015741052 -0.1346338826854598 0.1228450069945536 0.2905805214943285 -0.4366753934749605 0.1864583054215278 -0.004862252982685355 -0.06767518281004817 0.0318277026494437 0.04133077011966015 -0.2281079806365582 -0.2688329937653522 0.1297361353946562 -0.3498375326918715 0.1687665226884818 0.05653803786878366 -0.06941644865566243 -0.001512376818034034 0.3055617057778807 0.2138053718981277 0.06897190967149396 -0.2287927082301452 0.02014118172076211 0.3970099745191556 0.1291224436308018 -0.08720755043890074 -0.03734795615852584 0.3874391164064917 -0.287866038118454 0.0433556038019054 0.2316213051590104 0.1239315780687371 0.02806750249727492 0.02766744974005445 0.07076709525467001 -0.03242994560161531 -0.0002180146296599652 -0.2659761319699643 -0.1466220989802421 -0.2006195968300272 -0.05255358555516721 0.007858886899636118 0.08630419597077478 -0.1374573277000714 0.2191191715295315 -0.2549107824622339 
0.01365643088912586 0.1677046433763378 -0.002726579223747207 0.03094566157525244 0.08332236714055123 -0.1479879817898109 -0.03691922285235363 0.1435899495916137 -0.03959471945329074 -0.01525530174486192 0.05118303767488229 -0.01205863680771055 -0.02649517975442635 0.1110194168595508 -0.04766736669814469 -0.08780677961006939 -0.06014949050869251 0.03338845120372315 0.06194858134865111 0.03058590021260952 0.01902480909805327 -0.01094589049285658 -0.02659120319566381 0.0255211712728763 -0.1198636855777722 0.1088125187726693 -0.03566429199567231 0.1132085233182032 0.155132545398518 -0.009139953218419336 0.03818601916153772 -0.1267788507772975 -0.1213820540614735 -0.1131179144679752 -0.037041273486148 -0.175172725589675 -0.02443409781723128 0.167179993905287 0.0880090626529752 -0.2019292438038607 0.1055479027365925 -0.09019968723360704 -0.07135355044608507 -0.0722495791472086 -0.02385289969915737 -0.04857294395886196 0.1193860123308921 -0.1406033525114788 -0.1796753227437014 -0.01524932043664876 -0.05500840019753195 -0.01271668312296075 0.05157105904318796 -0.2132801212029659 0.06477747603102911 -0.1031255530509999 -0.1792307652368582 -0.05798387220568294 0.04373678039486464 -0.07165707855056672 0.07642707078203813 -0.08575147439758946 0.03977479035935557 -0.02779838780472186 -0.03579277283302135 -0.01905785152942634 -0.04724099131612754 0.005953690481684573 0.03374282774110234 -0.04855517922085128 0.01003693802334507 -0.002825672868191146 -0.0301986140421716 -0.1850578157234333 0.0722794191827601 -0.01341973886402468 
-0.04328713054773898 0.1336680128219157 -0.06843845985536649 0.08558674695400803 0.1202157431529479 -0.1070865932278574 0.1074722149201591 -0.1676053657264041 0.1489976176547736 0.04964710416328384 -0.2745678340988999 0.170108704917461 0.2784595427363135 -0.04375602557082524 -0.02787208431525477 -0.1293381050215149 -0.3987863344958372 -0.1954081952776803 -0.2579642206178393 0.2404592613245216 0.1864216847819295 -0.05995779756828405 -0.10583698368071 -0.3017563949488048 -0.1333736431191292 -0.1944639604125072 -0.07323122912089998 0.0129864757366404 -0.04655383416957321 -0.2015715772917918 -0.2414044334510618 0.1147446325971554 -0.08095592657436453 0.0101772895873965 -0.2085585831543342 0.04428579482778774 0.1543930148292567 0.05691316670506109 -0.2332407547037554 0.2535625889613066 -0.08903214023751206 0.1046502866312219 0.1116298711704358 -0.05868893601644248 0.1604324362667835 -0.1596068693232822 -0.3357743192704643 -0.414509723677117 -0.192200677940734 -0.1437756570017752 -0.1711374707994076 -0.05965870380900766 -0.2535750149879895 0.1297512405955562 -0.0806540089793822 -0.1611181802570347 0.2118111807972194 0.2858292121175867 -0.2488760017902901 0.3335756548751538 0.1343670675507452 -0.09959205703894862 0.09976988606051951 -0.0819167740094132 -0.04993702508577307 -0.1758153307934204 0.05102104545120979 0.03703939515574253 -0.1506545738459837 0.1761591154946887 -0.05511854483645795 -0.03366751258501445 -0.09670690507833231 0.05661124067564614 -0.1747258911343358 0.03985589583256362 
-0.007214090363442582 -0.2755876648654139 0.02632288434123046 -0.007108178322801802 -0.1701815536417886 -0.02541634571231293 0.02230411465079055 -0.3005041544452127 0.0928102027650644 -0.07394083401980643 0.102891795218848 0.1322110654957951 0.02805077956306098 -0.04656881096107658 0.05834185781810563 0.03660025964662338 0.06018928265090591 -0.1414430286667456 -0.05624461980429146 -0.05372777139964343 0.05611684799683498 -0.03109291465232967 -0.03610065445622517 -0.1300511557871198 -0.1370224043922226 -0.06356457749700437 -0.1231068936427754 0.04530580392009789 -0.02473903132314532 -0.03018814416394156 -0.02822631057239022 0.1247653892612041 0.08865118255019576 -0.1921894866890078 0.05850017347011507 -0.03698540922486452 -0.1444198536717624 0.06676471203137717 -0.09302709972582311 0.2061409510542603 -0.001468641843241118 0.0184118396344484 0.1050791947195909 0.1024014533246101 0.09317651222513139 -0.1383643978730212 -0.1202182327059012 0.2048701250267727 0.1012975541299054 0.1072598363874353 -0.09585313889158971 -0.03232668821781883 0.1085644627199922 0.06555619409900082 -0.01532298818386124 0.006702089484961539 -0.2513762733269347 0.1829238556929225 -0.01622492478379783 -0.01153712539226407 -0.08050267377806232 -0.03848205436980039 -0.03021802379493556 -0.09202937085324382 0.002401135529785611 -0.02384809023055897 -0.03800448449731102 0.2922130490300167 -0.02816305105577155 -0.008993250718580753 -0.01288330510560996 -0.03364417838415214 -0.02525445949350922 -0.01900724749023253 -0.0260876054658718 -0.1225796346502869 
-0.3138105540312756 -0.08568507413239608 -0.07283290300880321 0.01509316004893792 0.04812979644063894 -0.1091763111764705 0.243938076398829 0.2640336772798361 0.1989439091814476 0.08958545975420815 0.328573802940776 0.4712001541226784 -0.1161493110276588 -0.2467159704069381 -0.1960618585165528 0.2889972124948057 -0.2050335328929115 -0.4792053609388586 -0.03698411580992852 0.121892133277118 0.08547606465860581 0.104393057491896 -0.05046850857853402 -0.1256363773180932 0.1846776344383817 -0.3942252330434927 0.02163608624131223 -0.04548882038896129 -0.09242731849516431 -0.1140245513803435 -0.1897750619267191 -0.09186571206295482 -0.06499134351278342 0.4293967419552541 -0.1596624922120986 0.2059056299860412 0.2032128135333137 0.2122541604299862 0.01850097130353787 -0.05531547733510057 0.2387554947409918 0.06950923185889904 -0.02379917868114339 -0.05917847558111058 -0.1861191014360296 -0.1216478333099637 0.1003960977655607 -0.3792929967074103 0.01241810692053055 0.09528421961459491 -0.0459321742125693 0.2922026661198559 -0.2201020847790493 0.3896185247310554 0.0701747282070256 0.03882776005782971 0.4542592971728572 -0.2233833478396459 0.07143399531655238 -0.1973080986292663 -0.1186093956981201 -0.3141026985299773 0.03758711353693558 -0.1199933580766499 -0.0442897765929972 -0.03700691226929818 -0.1237571990084043 0.1202222748345312 -0.1125675978892797 -0.07322156128882169 -0.02327996226179871 -0.130808942332643 -0.1463378563719814 0.05934467677588554 0.3413635976863461 0.003231764163485786 
-0.03616818350014837 -0.02635562576649088 -0.01226125553007538 -0.03418335732281283 0.1340549232570401 -0.03840666432971316 -0.06174028042789637 0.09595237636063365 -0.07510970570859595 0.08668003047704205 -0.1384245761123029 -0.04306014093891954 -0.06604480554724801 0.02304488682763824 -0.06436022558484959 0.004235606674259183 0.05065869335157236 0.1215120395065827 -0.06780494983518638 0.108771018134925 -0.06405739741137975 0.01560294154147907 -0.06263385721714138 0.07453614667914801 0.3214997049796555 0.03483478597917496 -0.07760343412149558 0.02909603857456853 -0.1030197281884241 -0.08900515481318957 -0.03021705655368186 -0.09857411321574772 0.08248119596536285 0.09676972843884747 -0.1652673182179112 -0.08361291480431107 0.09334743579180285 0.03666095683406723 -0.007224336994108247 -0.1579395988297831 -0.1131899016300509 -0.1763547402662091 -0.0795335661949218 -0.09564351687959807 -0.1203791922463276 0.1035951674267434 0.004952754050079133 -0.1489640365039836 -0.05152129137151108 -0.131685989934807 0.06118778731944003 -0.007063740238856263 -0.1924266304773445 -0.0895530114635594 0.08112616354173234 0.01413367248682818 -0.003937597030420561 -0.1426265916357142 -0.07884039892561545 -0.0764826236615158 -0.008195678517618606 0.02879251599184183 -0.003742848664831929 0.03034996975112179 -0.0287597878762462 -0.02623075220957802 -0.005319552077363036 -0.1076562012223956 0.008368129280717371 -0.03679330211209475 0.002039934496390203 0.001531003758784619 0.009042588511204829 0.06202247700092601 0.05327675459661668 0.02241706859165907 
-0.1518594938524634 -0.105647285172156 -0.3098603880416931 -0.1597504041209692 -0.1883698859970512 0.1348055848725397 0.01735852067600642 -0.1636764445055312 0.1145692345380267 0.6345875651890708 0.0392895603914006 0.05170581856694203 -0.1160849482180062 0.046006126136558 -0.003721106614700917 -0.2996928766713816 0.2363430176748551 -0.1016040627079481 -0.04671062176957327 -0.09507629477569035 0.02690941684762572 0.2989240232756536 -0.0756635477108648 0.2595156558836307 0.2000225785032135 -0.2368521453761461 0.07044684934687734 -0.006149169444632195 -0.1535993039646127 -0.005250571487820517 -0.07317396221698154 0.1515922098874358 -0.0532344516240914 -0.005890086434343642 -0.009766845782977825 -0.06337518954518627 -0.1393602866265116 -0.02446682462745773 -0.09956978250313059 -0.03484934273176012 -0.2346217145978219 0.05835480599616361 -0.1279496041773685 -0.2770372475689015 0.1362501310658517 -0.3483641129742112 0.1261964613547211 -0.0389791580503147 0.01205506914765631 -0.1425863356433139 0.3432415351667157 0.161216080468916 -0.08541378277187561 0.1031116526177279 0.1374206651359371 -0.1985257834070662 0.120636697995116 -0.06780879495814979 -0.3586946746288033 -0.1054840295009945 0.3143409072176905 -0.0431546483416798 0.08733816378009245 -0.09277211507170943 -0.07130773295135086 -0.06378779120737886 -0.1248316509244566 0.3388295501129994 0.005698129403202106 -0.137642945432888 -0.03766822317097528 -0.1124361645515654 -0.04008933153374752 -0.04895587018428077 0.0005428127452923033 0.0729062458764974 
0.02866159900294995 0.2663046872879018 -0.0666200330914809 0.01325198410833655 -0.176671339595698 0.09072823191237042 0.1415717488242742 0.1467027482331547 0.08341290227888469 -0.108812016730291 0.007986119676981051 -0.05983135611206924 0.03989914446104776 -0.1464858070202182 -0.1340120721526167 0.001797065975445003 -0.05350886523968546 -0.02871699889074581 0.0764761165890139 -0.04686086656184581 -0.02236290555063544 -0.03446437111040499 -0.04806317190379311 -0.0003730296782427919 0.02069658235878095 -0.160113100000119 0.05854944730826585 -0.1308727853749573 0.1546849268838363 0.04563254824229894 0.05233528048909946 -0.1181072995385666 -0.02070549269595781 -0.03730983366877476 0.01732033042211232 0.1992894883278234 0.04450462535728546 0.06427005640343117 -0.01050255019484752 0.08224898056233371 0.04951147667667838 -0.1059571803866432 0.1671066449823683 0.106357595102856 0.1077007344390601 0.05522033343834248 -0.1146419080727121 -0.01473322216951296 0.1242293100671858 0.01519610379019949 0.03733206998018369 -0.02288279648494734 0.04314089082740224 0.08038496368639009 -0.01738194753012743 -0.01737823911280635 0.1293517092515301 -0.0177148342676841 0.00350645198176151 -0.08120758840460045 -0.01826389577571199 -0.0731634017604773 -0.08227441672286935 -0.05795569624974188 -0.003513162750905769 -0.02373986336291623 -0.04475929289967572 -0.09675154031090126 0.00664241539771967 -0.05722718834519332 0.0002590423853654306 -0.05500541071370575 -0.01072049350477924 -0.04451943530520866 -0.09378577048657004 0.06857444027927359 
0.02397783905035247 -0.1515669152589653 -0.1810451605257794 0.09776639340705416 0.1368203548057361 -0.2989185416208365 -0.1168414690459223 0.1773513432833061 0.2721675191063606 -0.008230627539519662 -0.2256142855517005 0.03631163157465168 0.2659972777701362 0.1472495744695199 -0.080860873155208 -0.0731704075538033 -0.01401487600947232 -0.06286138686151491 0.01230030469858183 -0.03677846201771911 -0.1931897971052554 0.1836932129953745 -0.001675134018971384 0.01401513852849069 -0.3335379439198606 -0.273150597163752 0.001984401335327297 0.008979967302780214 -0.1048648060960192 0.1464045140134805 -0.2226565239848584 -0.01138312798673896 -0.05975754500998393 0.107167664232231 -0.03859819443072958 0.01396549434699011 -0.2227534581106724 -0.07452396410813887 -0.2113087471947533 -0.3241252877169622 -0.01429595503771347 -0.1208830153163705 0.1069197810197482 0.02958461203913947 0.2956291830407088 0.123124328765023 -0.07963356535039767 -0.03895653063537702 0.1727491535621012 0.1268925546279535 0.03605350814959287 -0.03353339114460587 -0.07055322633414791 -0.0369067398641736 -0.127591959278431 -0.284868596963426 0.1121714550959869 -0.1989902690197103 -0.3143523393369118 -0.02572000173655154 -0.2684322210161466 0.04374577715589192 0.002513864660839988 0.06804116637986368 -0.1399400879192836 -0.01787858563049707 -0.03230718047156021 0.1616483430943965 0.01151500898099166 0.03900344430453744 -0.03062900442484397 0.0006110599294273656 0.1120695433926789 -0.04734059748979484 -0.1719018244578509 -0.3195533556278391 
0.06439418075952477 -0.2101591852637558 0.01603447301556626 -0.0313018239886925 0.1683614490114358 0.04877876173117723 -0.02820624277381932 -0.0404327372592914 0.001904980181939531 -0.1318885937901805 0.001449037905993682 -0.1755592103559465 -0.0335614882698447 -0.07169398619516065 0.009356239241279766 -0.1020983268523089 -0.005016183778531518 0.1219468841327545 -0.09975243154103085 -0.002864623361622984 0.06196436735547564 -0.008770551413343193 -0.02889107452729128 -0.007350045898977423 -0.1470803906732664 -0.2223319389821576 -0.009518253803041582 0.07150845367187809 0.2265597043499306 -0.07205536733699604 0.006348504560987082 -0.1873440887932663 -0.1568489290434921 -0.2153143371256943 0.04022361492177839 0.01284834764320985 0.1156743569830571 0.05729880397713781 0.07754975029684992 -0.01860505557097351 0.02000620521014324 -0.01409244159084913 -0.1367963100331538 0.02332423877565895 0.2220566002278371 -0.1814917630974023 0.0864750362336508 0.06293560409321994 -0.0322294957602258 0.1496201976521561 -0.02835532222323252 -0.03022355133330077 0.1519953564034776 -0.1883601469870742 0.004666012897455134 -0.1725109793229153 -0.1195476804889775 -0.05217259908187279 0.02729442635964158 0.08225962135515541 0.05473036139864862 -0.2283558113972784 -0.01014884697232352 -0.02696198159108893 -0.0117877313352427 -0.03546335291023955 -0.03699713455219583 -0.03960230325473883 0.01018049200227532 -0.04794524123423807 0.0009054379813512408 -0.008032164539128353 -0.01372240124449933 0.0416030740923112 -0.2742359091432518 -0.07190761016687869 
-0.04291732306208723 -0.3353386105993559 0.09304723872273826 -0.0745124899904475 -0.061615723029347 0.1197170309493859 0.1532259753900853 -0.3409797552406777 -0.03858873436365762 0.04132767376731351 -0.05402213531212869 -0.2126802451938178 0.2222265412423571 0.1242968009022326 -0.126910421163524 -0.1594135131210787 0.2791655307594201 -0.1251403660802115 -0.2304675181011257 0.086414284716075 0.05499790983962449 0.0273811598180231 -0.06040822965574603 -0.1553690189622718 -0.06454288894863719 -0.03660168634936722 -0.1760824578303612 0.1471111569746561 0.07613529241066282 0.01858180475645623 -0.1612489184512643 0.3048803421495752 0.1762588821806261 0.002384319640951248 -0.2313156156546146 -0.1860083116232622 0.1737296080739642 0.2341206821569308 -0.01010206652017544 -0.2098361789669691 -0.4320070281228072 -0.1155491579548941 0.1245974778016377 0.113860311464892 0.1905802797998671 0.02260985588347456 -0.1857401652916016 0.1780709970907803 0.1501430052559855 0.08339370964851435 -0.03649283217522299 0.4159162138454312 0.5897851049452104 0.1906275889020541 -0.3657145470184045 0.01606933048138956 0.1787962788494494 -0.2655551481551617 -0.10085508445131 0.0412233943794678 0.5072170111717639 0.3049498529815137 -0.05852386637707986 -0.06960754582071964 0.01056611196072854 0.07401153674707908 -0.06314114667199698 -0.09786376967261293 0.01805763252366021 -0.05101075861177003 -0.01355192957109704 -0.0545805751685801 -0.01404072554833242 0.07894520446119525 0.1334863799319904 0.2626676514530514 
-0.06338111541896653 -0.1266058032790378 -0.04393252140042213 -0.02074100359655864 -0.2493806934102796 -0.1991574461337567 0.2960139718805857 -0.04022537461455961 -0.008379340508278503 -0.07022984943830161 -0.003011941466297784 0.01686178464348602 -0.1129538933410424 -0.04161838246108572 0.1140630815056695 0.03306116205177832 0.02755325948974629 -0.05910079338787535 -0.1384366008986155 -0.0426738578627667 -0.0340307944795063 0.002145743115900948 -0.03667928138006128 -0.0793309464282027 -0.1447331684511765 0.372547818655068 0.04552946700600397 0.1573298014094397 -0.04345736892699084 -0.08266396890849409 -0.04859816096017666 0.06823556435915142 0.09157016845945153 0.03719493440374279 0.07019728785502187 -0.1894896039242491 -0.1764455266404451 0.2692884720509602 -0.06304160205215763 0.0826674347552878 -0.2378817125517121 0.05027973974755111 0.08604988350315924 -0.1268982650940488 -0.102770850586915 -0.1111085061751013 -0.1426664710879083 -0.2562522508261477 0.1944482097058925 -0.04639339944339437 -0.07227543208938393 0.1184116903179465 -0.2283690422201266 -0.02843272553212414 0.03593811070553193 0.08962908707522947 -0.04166943788747107 0.3520470967221924 -0.03789014014256108 -0.05223444146623345 -0.01298293664220481 0.07615684222543012 0.006139878420160849 -0.08756182928382829 -0.008232964972287172 -0.01276094983762996 -0.05774600533257958 0.2143933487379975 -0.01711282872612739 -0.000510151038149046 0.02717899695429187 -0.02392058835254356 -0.03477612533708751 -0.1679682865894643 -0.1635154940503862 -0.1322906325232445 
-0.1936133467367879 -0.1978256830641098 0.2012424959230521 -0.09367275240713537 -0.5297585739263252 0.05669738558022462 0.19856964393153 0.38176927075327 -0.309687497896184 0.02165534802100525 -0.01109834405168182 0.5493306283369354 -0.1174534905012202 -0.2241050626807934 -0.2099686637864442 -0.221055859506328 0.01223734923002082 -0.4556470724726447 0.03716845567445289 -0.005717252323669128 -0.2078087702868333 -0.09219651321588923 0.06211981256290933 0.007309263574893042 -0.04716298252569328 -0.02753166545760672 0.09396168820427611 0.09714392646544535 0.01268601539970222 0.2061226913006113 -0.2144934413337108 0.3147707514481091 0.06976327295391921 0.219640316418181 0.1473999419863037 -0.09745040684290451 -0.1305263866829636 -0.1320835423610981 0.05927666603204603 -0.4287406641680003 0.1352909046911521 -0.2194604076478528 -0.1814992979775086 0.1220054305554752 0.2759035282593061 0.2006218489057978 -0.0545223193212205 0.6701053651659226 -0.3029114731389399 0.04702101704414803 0.08353581256023461 -0.3328533304424782 -0.2418764434050942 -0.04112499572957475 0.4290964878741384 0.1254108538882914 0.1283921168790082 -0.05670935614876203 0.2656566806862248 -0.3867496795701431 -0.1432182319787343 -0.09690257219467652 -0.1168020917442678 0.06275787396311373 -0.07429687755744405 -0.03629979402345555 -0.05689548462036122 -0.02825118282081695 -0.004265888828292492 -0.005329296945881121 0.06936632115908711 -0.1001893342066786 -0.02612583336313515 0.1311141007008331 -0.2041940092182955 0.08830744801030624 
-0.0222406718395441 0.04123567170482941 0.0242465955109874 0.1113304081111052 0.2009930226393401 0.1712681674623911 -0.2089586574911848 0.009310627425473547 -0.04513247952434972 0.1184662875448988 -0.04926694605645958 0.1268333294587559 0.005766980547229318 0.125613348586074 -0.1069347639917952 0.1281316834849787 0.09429678370516936 -0.06462783445219107 0.06140561437412736 0.02494074939512309 -0.000827427470176598 -0.02539268158809353 -0.06619437314707299 -0.01660469223721825 0.2416775263044261 -0.07590229039232334 -0.06571828996378396 -0.007142023653185675 -0.1120751691648388 0.04932629156559204 -0.005627494377242139 -0.04182777403563955 0.2026322098763344 0.130829591800847 -0.1798844645398987 0.04311972679662667 -0.01410886753889829 0.06636722307176632 -0.1320328552478099 -0.04662831596520705 0.09302528030439951 -0.07732281208392737 0.04763823805907985 -0.002404493846404278 0.02084401428585867 0.256912404723711 0.1097641825467251 0.1939073224780528 -0.1722428180674881 -0.08221777579087471 0.1369448462327783 -0.05738079744314941 0.03603995255722657 0.01794893083314157 -0.1072028490231192 0.06191140533455877 -0.01182399023931949 -0.2074171531244703 -0.1988359366681268 -0.1513629321284922 0.05506636457924906 0.1282951151793438 -0.01302661331563554 0.03119613796409726 -0.01103749615068509 -0.01354392891150373 0.01611990324323693 -0.250422039718871 0.002557013530543849 -0.02947981227109308 -0.02899012825193565 -0.02003810686245495 -0.002462351487882656 0.02445594360689548 0.2077131806433968 0.09073713058821069 
-0.1450613211579367 0.05504351452039081 -0.1758945599086103 0.05949340571562599 0.1450673808752098 0.02516333695175698 -0.1912673575109017 0.0034176519384629 -0.2361717615889727 0.2816859786383698 -0.1031453062271468 -0.3574967384215769 -0.1997893850661336 -0.1098226838361533 -0.218339715855436 -0.3836183412334255 -0.0238800498652589 -0.0888473032319656 0.2423704573776014 -0.2059503972277408 -0.07312389619084901 -0.02937367890377953 0.05517968392050599 0.08308977377928956 0.2106855047720156 -0.06878067458679954 0.116460234588812 0.2831654861254461 0.1224606085246182 -0.205597168981549 -0.09602340423908164 0.2588075101850248 -0.01258628609111841 -0.3181743503187716 -0.005401354528041504 -0.124301162015255 0.3880585622350227 0.2465886405698899 0.2089363314794445 -0.3824430924413722 0.1060572755973371 -0.1827476331608338 -0.1395761370449939 -0.03055321936585825 -0.1301626086598533 -0.4905544920952186 0.02214580111905014 0.09434522091704621 0.4087075612798249 -0.08543014436810704 0.04897825780113558 0.08097201790073413 -0.04306749875847508 -0.2115851026088803 0.1938526615979296 -0.1337609274755809 0.009698459700369318 0.4972345285647012 0.7178659978374946 -0.1938106149504022 0.0723799727980641 0.008641137742785533 -0.04302466989959383 0.07983343382168738 -0.08696498775635228 0.005432252689644423 0.01371840835568212 0.1179354472413616 -0.04867279093288229 -0.006316394952709315 0.003983935283744327 -0.09397555685858976 -0.03433582801086023 -0.238334638423627 0.2504547893443989 0.33352941954975 
0.05750742624933795 0.2883320645601035 -0.0924957082907121 -0.02871073875305593 -0.245018123456363 -0.003488754799201041 0.1392522061929825 -0.03922392705368678 0.2861791025714711 -0.1091228184206179 0.02860583073051144 -0.2042842051006377 -0.006327055724982166 -0.03390882181755445 -0.02398276776720805 -0.0009486835090479844 -0.09949934433673983 0.06265978419417716 0.1915295868588115 -0.04449219448570815 -0.08652485455020928 -0.03574326444351752 -0.04041898760313587 0.04593679100276588 -0.05311714771873982 -0.2164944957601247 0.06906722967015799 -0.1256471988741238 0.2896511035629129 0.08380796702456027 -0.001195317492802182 -0.006468439731281367 -0.1468465490271695 -0.0729545663082506 -0.03864596440158836 0.3170249233390009 0.06480807923377542 -0.06128364504303855 0.1583547840774904 -0.07767136060793663 0.1415201401563443 -0.05549396664608079 -0.009134725963405792 0.180627240009843 -0.09627242106522695 -0.05457300771573504 -0.2080358958018299 -0.0399038283405201 0.03620156851822692 -0.01694143274109015 0.04254040191316885 -0.02859627817475616 -0.06826204533201406 -0.07541306667536132 0.02819768352044755 -0.02321860653100544 -0.06286268227580907 -0.03629566308617888 0.2186396236128655 0.01828050652593673 -0.06356795407818361 -0.1125984875908362 -0.05957773521658121 -0.04334531037042783 -0.02010093369061874 -0.02756383029045362 -0.04904058791792218 0.07962587516334273 -0.02209747482852094 -0.05634798839826493 -0.00179570694171362 -0.03770583777428892 -0.01291378487512181 0.04432127060323375 0.1913251229190382 0.04460655195747255 
0.06592748891616312 -0.2785562659642492 -0.1071911873063945 0.07086801547856134 0.1437479127888126 -0.1018777799577399 -0.02742124082411953 0.2221864155387823 -0.3567348923149657 -0.1537083123586972 -0.3616559688278327 -0.3095606502489082 0.03533252235175295 0.07227049169596453 -0.2629968306534016 -0.1125222013727702 -0.2093524990245596 -0.2099086432425942 0.2174863942406581 -0.1586102983918261 0.03099970103056791 -0.01527863128381732 0.01972948715361052 0.09489219943262643 -0.3427725275210382 0.04031237973122976 0.3738304000172682 0.1324698059008679 0.08895670852076977 0.2266061746144775 -0.1204044680402322 0.1221439335436983 0.09373133043663676 -0.4268704090291979 -0.1010469537071093 0.009348853996962277 -0.3059397550331971 0.1574634402445705 0.3320927456353288 -0.1866487435123129 0.2258856321504024 -0.05278114207981154 0.1603115218793908 0.32531998032794 0.2093814101770961 -0.09090618741566157 0.0136573052842389 0.2335597180780521 0.1262272527552331 0.02628068884908859 0.1778413269709632 0.2817115389729986 0.2883738540998517 0.03583226322780515 -0.2323644206491878 -0.1511047901703178 0.1656603649170708 -0.0584474885086418 -0.009187538702888628 0.06259417363831175 -0.4484737432834718 -0.2467825941175675 -0.09013279712362131 0.105041118306932 0.1414226627267498 0.009585386921153186 -0.01964544909933772 0.4037750419100594 -0.03902514730781767 0.1273449438292049 -0.0255302447294011 0.04021930301279954 -0.1128626529117439 -0.2250998831359697 -0.1949857033915591 -0.3316982138154457 
0.06634826703132121 -0.1096248803448976 0.02405914736104289 0.02445306863105097 0.09232888707036924 -0.0990784950821393 0.03286733661154728 0.01334610279544126 0.02888276105832924 -0.02617505204025719 -0.02363263350691137 -0.01219228057349366 0.05397963816615954 -0.01409542956320918 0.02725935390398894 -0.001914493289195579 0.01074492083372597 -0.0293151676577336 -0.01534872717413715 -0.04126080805424739 -0.02103172113190056 -0.02496217092483668 -0.04698200842393916 -0.03414769459322253 -0.07505999501576395 -0.1023589880938643 -0.07123604135754554 0.04479737209983312 0.006051159806555724 0.06544299404629893 -0.02630400414835445 0.0644659674744839 -0.1543533955481321 -0.06424866712453448 -0.01536353631758768 -0.007198000472536891 -0.03349302589169504 -0.07856582954666802 0.08933145097114069 -0.06753750208218576 -0.06139925686117352 0.01295044937836929 -0.03256716516421371 0.09349331078257904 0.0889362462285682 -0.006693823553423284 0.04101737637667308 0.003078575072618222 -0.01279695406501902 0.07649745813046245 -0.02233862627533674 -0.04024529964331682 0.113512295171619 -0.01498878038284894 0.02184337848442253 -0.07840030325513837 0.04828699478383206 -0.1587603912464829 0.08013476336293447 0.01314964514652898 0.03045825393111981 -0.09231310479674657 -0.01215970721594813 -0.03617202571852611 -0.01819939396704355 -0.01567737362162366 -0.03175087983817344 0.001183780938459289 -0.009548918556731867 -0.02270722361048053 -0.0002103846184836708 -0.01789136841046672 -0.01479869843965053 -0.06884019794001167 -0.06639278304580901 0.05638145491050722 
0.0627047058845846 -0.05460288857719952 0.1344802318771794 -0.1064870453903309 0.03270204324861434 0.03817980772056989 -0.171267193698741 -0.1554905573357646 -0.1057126699291923 -0.03446875072186913 0.04517317242103525 -0.1590190601352993 -0.1445756962242743 0.0718002351530292 -0.03000945751317278 -0.08365714801395117 0.2066339499037288 0.04658603247266741 -0.02654416165740001 -0.08583143053102416 -0.05673408379259808 -0.007486531428893953 -0.01025942283823801 0.00766152436511757 0.08295174803725823 0.0009325547400748897 0.03662906004755807 0.0406336984863155 -0.1424435269042281 -0.011147089054496 -0.09176272217741824 -0.06588575196295218 -0.0004760946004128245 0.07396835552527184 -0.1250433738144356 -0.02869335254779932 -0.1406684548743823 -0.007847627261136534 0.03010381608708267 0.06747970063387845 -0.1689087316105445 -0.1330696809585771 0.058389184001757 0.06258646679580561 0.006238168350662322 -0.1078120333063915 -0.06738656129035077 0.05634957438897192 0.03504865212175699 0.0793500263998447 0.06898174674813586 0.06082558099842844 0.2113230807530075 -0.05951399644628682 -0.2046822751399162 -0.0364153647877437 -0.03807075286907621 0.009247665146760032 0.00990501150398615 -0.06443557620643002 0.02039050625322524 0.1338227249219469 -0.01788535283937441 -0.05149916142117989 -0.001524746505424489 -0.02907275140648347 -0.01513975657188126 -0.09532811378755793 -0.02984437247004987 -0.001268399149256306 -0.002055072022645435 -0.0401388343443323 0.005737309317558979 0.2339148851517759 -0.2633455065796146 0.06963451113616043 
-0.03628810604408481 0.01314198741704955 -0.04694181838449104 -0.003603779587653283 0.01891934255819421 -0.02388113253433621 -0.01939932444177884 0.07385162179451611 -0.03183091308708926 0.08281917114838883 0.02588570258251801 0.04987536930013486 -0.08024989561759686 0.05287927174262564 0.0903417642717833 0.001944777073531979 0.06323661612883764 0.07703803512843056 -0.09020506609519181 -0.04118466083068732 -0.02073471444002578 -0.022553813981901 -0.04783685420407617 -0.01764662650729447 -0.01329593910951873 -0.01741215940626795 0.04817407570470704 0.05712505802399336 0.03759633149271788 -0.0505155867572745 -0.01353628050134432 0.06376317242392637 0.07120719060131367 0.03036065844489581 0.01162574446858301 -0.01505871794452632 -0.07773702202733819 0.07592989802700569 0.05604470421975478 0.009450691220617957 -0.1561693067505678 0.05202863638361036 -0.01942776131318134 -0.03565402710989947 -0.04761634823838274 -0.05103437747662342 -0.09931954889020329 -0.111252633033798 0.01837791394586356 0.01853294804859704 0.02067995904224008 -0.06186361685178238 -0.1682980484402771 0.01096810948266976 0.02256740105166796 0.06179585439703404 -0.01093310460066224 0.1206193677854906 0.02298472203829165 -0.0155584322674292 0.01760276666103842 0.08449912794122928 -0.01341749589211082 -0.03598853979815851 -0.0179783175001904 -0.023222398416101 -0.03322820010243997 -0.0100656409749942 -0.00531904545404581 -0.01913645964886907 -0.002808784092403285 -0.0180983377718212 -0.01073678690920617 -0.01009057964199422 -0.1242321221750283 -0.07801278192593164 
0.03858980941843374 -0.2336372068093739 -0.02913077655814842 -0.02730699777481546 -0.2193856597487389 -0.07634974305294957 0.005955335584169615 -0.1445046109734518 -0.2456823657768867 -0.1825693223146185 -0.08270302368059883 -0.004224597472507355 -0.1482756921157029 -0.1199290079965954 0.0903249845489835 0.06659883175470016 0.3431919092819774 -0.1972219301358442 -0.1397057393106908 -0.06791601631503352 -0.108674201500671 -0.06153723200284217 -0.041333073961411 -0.09954601849127964 -0.2240231326211029 -0.01851133348708514 -0.04158083078007241 0.007085013108694479 -0.07814383647820797 0.04772397668880783 -0.1066890576048687 0.07586057950524945 -0.1171155580608687 0.02313592954851551 0.04244041093206587 -0.03612563820167001 0.1341086980865021 -0.2201162931302216 0.1249297181936739 -0.1889949386209009 -0.01575189891734515 0.02691887445648393 0.0356299138070928 0.02867903861404275 0.3886522728891769 0.08284377096488189 0.07788939644979057 0.2170381326416433 0.08969369661339932 0.1701505329266465 0.2599014944205377 0.07900015435783137 0.05522611689068517 -0.04780722651963575 0.01653924560961077 0.161540805779168 0.06749372435590367 -0.2285775295979673 -0.06149612877610676 -0.2056020838406048 0.01563835144566175 -0.0899351856295197 0.005157433507184998 0.003237780186946519 -0.03445239074648449 -0.004659398166159783 0.006761615497260995 0.006475860463546904 -0.04141361135362002 0.03052378499517744 0.001727187136366126 -0.04637868720360395 0.01064882147101686 -0.1217632877216054 -0.153916221557268 0.06525658645632582 
-0.02995809700034568 0.004149900452849758 -0.0357692430674106 0.04691135381123938 0.0124845286481132 0.02911392455200039 -0.02748343453008726 -0.02150285285844741 0.05454440423500558 0.001291192730184943 -0.009482605012626872 0.00505752172103024 0.01535177506395976 0.1104307733388493 -0.0592916129102476 0.0321800099174572 0.06404301053155816 -0.03295439013796501 0.08859330155231292 -0.03636564985080382 -0.02099342533198986 -0.02689986074014993 -0.0453176892290546 -0.03888269918899093 0.05831963568268574 -0.01972795994679766 -0.0533427998847657 -0.006656984929026811 -0.03481114409405255 0.03704824012272661 0.008128195587220161 -0.07424189679961973 0.07314658237178813 0.04579829483537884 -0.07038195470236702 -0.07251538405983221 0.04963974532594826 -0.0939459876379697 0.003910245390394229 -0.02590034542858362 0.05960438872949125 -0.006592536440101314 -0.01112563247173929 0.01104907237304349 0.02894577957694184 0.004259727746538202 0.04918682204422607 0.1201727725982745 -0.05530047058757459 -0.01984441482048185 0.001353132513741614 -0.02581224247890882 0.002218079502663514 0.0008564107776393721 -0.04130293463656121 -0.01018498397803018 -0.02216766923297478 -0.0936323297944256 -0.01180771075130067 -0.0402807508936775 -0.01010243286093678 -0.04185155036104403 -0.01011169434341222 -0.03708452064129392 -0.01925110133168577 -0.01143977373145164 -0.03044502075168683 -0.03069206459540216 -0.0128110234813459 -0.02687647989182685 0.00369724631698577 -0.01910375557271716 -0.01776089968076444 0.0001587345004363773 0.02245527755656499 0.04776158200211144 
-0.04435634915112016 0.1459046316421516 0.1548943520082162 -0.00394303007895728 -0.3080459593058447 -0.10305510557314 -0.2655242405020536 -0.3008116613667063 0.2321741947792969 0.0719778179658167 -0.08360039637463922 0.02873748653836521 -0.03907677904178395 -0.01907173767879267 -0.05849727698207436 -0.003876049110600117 -0.1050759009536076 -0.116154906208043 0.08991249626120848 -0.1124510389842058 0.02955660224210134 -0.05971215981571797 0.002959134344296885 -0.05939394988083566 0.1234493013712514 -0.1644509109158798 -0.02633139686005856 0.1644841789919766 0.04901425456813168 -0.06929092281283646 -0.001253148953388833 0.2337480023579146 0.01736353556161062 -0.1953779924798381 0.03617100028801622 0.04572338441643021 0.04559820792646636 -0.01330966483052389 0.2289519971532233 -0.09324618414600436 0.3469974031346677 -0.2650999932267799 -0.04847179383912991 -0.04475230132742139 0.1941234288394539 -0.3166093918343513 -0.09271616212700075 0.002112828908624676 0.0384816496479491 -0.1047128217629395 0.0484394654829578 0.04116338184718072 0.07117395784437242 -0.2102490730007901 0.07279667413976451 -0.1614078787056935 0.02164049597428874 0.3780701843761108 0.2707190747287318 -0.07010418677949086 0.02867830050608528 -0.09566473336761543 -0.03889447392711101 -0.0603983940484045 -0.02756582175094598 0.0007341648209479721 -0.02070691095405965 -0.2272410207290584 -0.0352046381259636 0.01244150354156301 0.01509613270554148 -0.02201937383219323 0.003147429725596083 0.01721975469032039 0.0160142976499365 0.07632812858541266 
0.02118483582176814 0.02883650994718701 -0.01929648458118398 -0.06754040535742359 0.03774370911799714 -0.02248630013706031 -0.0411762205207609 -0.01242487070398694 -0.04553872111915279 -0.06419370280273409 0.01794448457200903 -0.03891191996151599 -0.09149438967537468 0.002567615122724324 0.01262630966928515 0.02042506911312659 -0.07809298363480147 -0.003260502094274244 0.04069757938057397 -0.04201636670093951 -0.0219474425759262 -0.02910531937778004 -0.04528764497784209 0.01994086869809848 -0.006416581736606387 -0.09477191728179513 0.02584592208877483 -0.04751433060669365 0.04580784283353761 0.03222803519473008 -0.01222193597751019 -0.05489568569168152 -0.08498970053614309 0.0137609775136127 -0.007361225456226412 0.07494454379257504 -0.06808042846674794 0.05967607414338618 -0.05552424626268012 -0.01851033270634959 0.1316188595563206 0.002362556273529279 0.04028854826871563 -0.05979188206261301 -0.102824409596419 -0.03508688582000391 0.04550656755126415 -0.0406177928828011 0.04880201381979562 -0.01487058446343759 0.07059608007088794 0.0670737983252426 0.01126165748100345 -0.006280262428473234 -0.02940734277731079 0.0363510230327837 0.115766655561888 0.05133998442728676 -0.005484638739230893 -0.02512244512141811 0.03977035728802524 0.009688871228347325 -0.01218473573857867 -0.03833612801592917 -0.01727274025863528 -0.01598361120373798 -0.03398827633681845 0.03568776296604408 -0.0167656396013118 -0.02131335385772859 0.002346493218296651 -0.01709037106250758 -0.0186252771589735 0.02343430685989558 0.04660573739648804 0.009423120575896723 
0.1503931243934587 -0.06736100676451361 0.02411558885011704 0.01754805484455084 0.3245638273916517 -0.2169389720832798 -0.1159365086512339 0.1922197676608117 -0.1813170508464816 -0.03552889457600798 -0.01851532927910445 -0.2646038863562749 -0.1085713661536281 0.04201584419332101 0.004881326420046817 -0.0380242572679016 0.01157697445410077 0.1665442752004372 0.1107425157793004 -0.1229710554736867 -0.1024768282531604 0.05221189125504448 0.004847677915955018 0.0806330435753008 -0.09016248813677985 0.1757159967892284 0.1050721464548739 -0.005912034728852668 -0.2408137435458831 0.1294708969069225 -0.1103591695864748 0.02300069491301961 -0.0777110366679416 -0.09286610861550049 -0.1918521252300434 -0.0848291832027103 -0.07627498268573477 -0.249012780248994 0.05129966886579333 -0.1244616543449852 0.08072159030483635 -0.1731785667352632 0.02871894404938867 0.148255791228323 0.05580675768032917 -0.01284702529956331 -0.00919373155184474 0.1022949594749762 -0.001990065816607339 -0.06382405012813704 0.1608988628281809 -0.01812899371923749 0.1022793215883635 0.1324525100951301 -0.1721413582070182 0.04285096226894233 -0.1380530643574423 -0.3378550288469417 0.05346502222547126 0.0007754182098993629 -0.2245811189384514 -0.02499536294953823 -0.04538742862464785 -0.07797729926251393 0.04008060200417236 -0.06319391912844194 -0.007321668095307881 0.2192851397561609 -0.02314399697474866 -0.009127101866584334 -0.01816760595654403 -0.01504728781269073 -0.001262063985966859 -0.1424664982962677 0.4240696483770363 -0.06508393338160316 
-0.00739602078920617 -0.02337541226272404 -0.01595778528958142 0.01555348580808204 0.01557100567413866 -0.01747035417810763 -0.009978596639452974 0.002318285654357775 0.02647254845548285 0.01892901156339014 0.01502838583161016 -0.01574051837277693 -0.01313400465654106 0.04172422730459562 0.01975553851925191 0.004625455388845487 0.02754768908304236 0.009350434382603887 0.008347360582782027 -0.04579962845650799 -0.0209890183475906 -0.02175890086748219 -0.04809481384780251 -0.01026510372256005 0.004705292566032387 -0.04042029836570523 0.006782222527992229 -0.0009394800441034858 0.01695931030465423 0.0198754638642767 -0.009703311035233636 0.0102397683693991 0.003407564481999273 0.00101999403131156 -0.03034126684778287 -0.00540667895705759 -0.02939724260579988 0.001197236185664227 0.01097857650733157 -0.01693462544799457 0.003928178606766527 0.00815102548381638 0.00199830050366698 0.005257574811471271 -0.001086072501206039 -0.02224980657353219 0.003101359095789557 -0.005915521963839969 -0.003404517490417633 0.009803122994615722 -0.001849559347603933 0.01462851326639184 -0.004873452133694149 -0.01931546503926989 -0.01531279561294875 0.001983780405377019 0.01532676061080248 0.03692420792095412 0.03546563039493007 0.004857591142373638 -0.002050709623135763 -0.001995385214221262 -0.01079695968368898 -0.0347928190499923 -0.01743683382948168 -0.0146824839783051 -0.03049377567348713 -0.02931022156189593 -0.004554264065217663 -0.02280820248412133 -0.004148606107560497 -0.02014549807859734 -0.01317887811439807 0.005224707058794441 -0.009609096102097177 0.000393997409826961 
0.03209408641646674 -0.1040478406014456 0.3443092681664081 -0.0157613903328814 0.07245255624489351 -0.03241776767882237 -0.2122809939231097 -0.008473106215085447 -0.0196359809642177 0.003325591429976646 -0.1116313896020775 -0.1859490709401939 -0.04530335587299819 -0.09139035987892143 -0.01817545404274278 0.06551833375375689 0.04023108909032058 0.04943808298975953 -0.03324730274355015 -0.0110207254352604 -0.07394247899244601 -0.00806370909156983 -0.002398402745967956 -0.0197346318945181 0.01961234277789791 0.04999269792394701 -0.04539852297956552 -0.05358773573896321 -0.1155496691387573 -0.1145003044310927 0.007932357584890077 -0.1011610063138932 -0.003623344304414197 -0.1029111097248702 -0.08990987514283447 -0.1081894120387038 0.05933950509145136 -0.03037072525570015 -0.01603675164371573 0.1548114356981784 -0.1583219533549958 -0.06925533920594698 -0.07392618720447169 -0.002984983154117807 -0.02294650564188609 0.04124029620271477 0.08178748951065584 -0.02477431410469237 -0.09671982788156724 -0.005956566494247063 0.05088443294975908 0.0358842235436936 -0.1249286008964791 0.02960911121783187 -0.04573832993152914 -0.07929899352680822 -0.1093263718108768 0.1764418871683126 -0.1302416359615998 -0.04384813622808623 -0.06975038796220578 0.06478187815824266 -0.005423741626362033 -0.05133038030579646 0.02952962198698274 -0.02346627115121635 -0.01356735728840664 -0.03313582639937447 -0.004844803969932406 -0.02068908213275809 -0.0111906441574138 -0.05508444820439674 0.01934534204377369 0.114212695339173 -0.1031245526500276 -0.03738147889355727 
-0.007592428744221164 0.01583716271750209 -0.02759758981853303 0.01014476336312426 0.04024181022964149 -0.04484240992977785 -0.01450127411907437 0.01980476174220706 0.01387597865731926 0.07474507677209566 0.006699361720778549 -0.03288588098548374 -0.02242822653840581 0.05382610520713772 0.02818578658675399 0.01594735496667295 0.01102070264369828 0.02268461041603267 0.01134079897393473 -0.04372614868345136 -0.02076365939026103 -0.01423120701480436 -0.04588545528352464 -0.0002406131639175975 0.01915587922103816 -0.02399926950448066 0.01649193770328537 0.01467619270058901 0.04516824754838262 0.03027372117742778 -0.007969388386236825 -0.01140380350656083 0.005424476856384874 0.01934274650839354 -0.0505933968899536 -0.007967202351139577 -0.1240974774214166 -0.03199379890893385 0.03237415500160113 -0.009867068471871679 0.009366749246696353 -0.003801424805916638 -0.009888103536443588 0.02179905687129178 -0.06640303341906362 -0.01789731888057568 0.000477743496110881 -0.03916413258770912 0.03738809130261146 0.0114109428268432 0.06539400892465189 -0.02019896586793554 -0.0433930955606262 0.004814372302727509 0.008316281831117657 0.03296100401454458 0.03783188901997785 0.02826273134517377 -0.001409403468142306 0.02605379224388873 -0.01529724672409481 -0.03368277818381505 -0.0128502431669658 -0.02905410705946672 -0.02203534024484832 -0.01645530551427222 -0.02955430787326354 -0.03647372745465433 -0.01032510312876771 -0.02278466070245694 0.008223906986865573 -0.02146818636332325 -0.00918812378177389 -0.02986967489539273 -0.001984850468623081 0.009799565291188429 
0.03390323707363879 -0.1027852108391498 -0.004989825877538676 -0.1233139832742601 -0.2278132541643495 -0.02448815252962877 0.05240667329035251 -0.02066930014089939 0.02007546498087548 0.0002642915815155256 -0.005266766143928779 -0.008670229561695339 -0.1040003879942833 -0.02465745585823541 -0.008399941324665195 0.1301467637782504 0.0547874576967488 0.04376196828787896 -0.0607671499852593 -0.03873812120753822 -0.06896362147059859 -0.04326604019794871 -0.03706649406205426 -0.07973305219775841 -0.1799873603596305 -0.03083178919858652 -0.04381293274518366 0.02634980893375363 0.006261089003016709 0.1828821636653774 0.01929931781116462 0.01190526426889087 -0.06957428101433288 -0.03098255312373426 -0.02606549203415202 -0.01466581842588832 -0.1328074886856814 -0.1341623132666509 0.01445150703415717 -0.1088434860121337 -0.06391404861351516 0.03415857391188285 -0.05476368552821354 0.07294870807263952 0.1653394687457925 -0.1136513300044321 -0.002663928739459536 0.06454452879148752 0.0856921639248964 0.02615089366892202 0.2761062173734933 0.129177643263477 -0.07747198119009012 0.02343029636801158 -0.02608102235352212 -0.0333096497607387 -0.08994834548707738 -0.1708261960129319 -0.1998320864883267 -0.006347531831648284 0.09361976181184636 0.0001700906152551349 0.03105868330241415 0.008532827125418325 0.02869493120721105 0.00784883507137357 -0.03303257243723008 -0.0725901257692296 -0.04436497259994926 0.02030164689029137 0.0199967206033864 0.009839605288930828 0.03703485642257678 -0.05612145607689701 -0.002670514022020348 0.05655616361747028 
-0.02282305233511799 0.02273965537093098 -0.005922466485746125 0.0006987850554511256 0.05499372271442891 -0.01258999942045729 -0.009851453737518993 -0.01500968999863656 -0.01774307595852643 -0.01677391318497126 0.06850101876149412 0.01122346785724838 0.0298989150750558 -0.02871767288099434 0.02820711037791134 -0.009484266638747853 0.03827535498261094 0.02773323694883433 0.001521999834549381 -0.03295619455785558 -0.04569883780661739 -0.0261359481356149 -0.04542638397985925 -0.01685146788530665 0.02670519191686439 -0.09812564532069058 0.0135117730571509 0.004747248623431515 -0.009972347622688556 -0.02581448145878946 -0.01435759428421703 0.042595500124497 -0.02823055629690542 0.01722825427340076 0.004355024216113131 -0.0474285195104432 0.01495133816041038 0.05740786673181441 0.04901192187083885 -0.008455861884268895 -0.004387374717436143 0.000755397471380974 0.0442773142673173 0.03369247155290403 0.003267667703696219 -0.02536189163124477 0.00247107598064268 0.004379109725523186 0.0288570570631575 -0.003539645660104011 -0.01888151680464583 -0.00211311515478813 0.004346878710292849 -0.03973523418277272 -0.04517939184355876 0.01068674602730995 0.000844711173196109 -0.04496124960716165 0.03897835128818859 -0.05209346781150707 0.001444524113963948 0.04584818397949639 -0.01069334600719458 -0.03138487462002997 -0.001603272310520773 -0.005048132971497998 -0.03920069151436186 -0.03904595994197775 -0.000144046208534629 -0.01285155678233937 0.006109917532445505 -0.00294784789198441 -0.006241710747023228 0.01203416233910021 -0.02131952275210371 0.01216391794583036 
0.01392830562350072 -0.06696888173688058 0.04247956171333436 -0.1191304751597644 -0.2477549536842479 -0.03401898226525408 0.1172623245480542 -0.1048507621838819 -0.2164852336665459 0.09414249330398891 0.04872332531304943 -0.1053286270577731 -0.1423641548081774 -0.129570751671285 -0.1032854322057256 0.04714929003229487 0.09565055974232467 0.05849627393698662 -0.005379212565676607 -0.08894440368005992 -0.1037585579629843 -0.06822302957096657 -0.06277627572645569 -0.1225605311353792 -0.08489298965262311 0.1487203651811567 -0.07326450671590787 0.02917815720615792 -0.01721120989387504 -0.04221546916916201 -0.06723283113957779 -0.05186621885449644 0.01322266568232653 -0.0270749381811047 -0.01374453417345462 -0.1503014597074002 0.07217548416611544 -0.01610516828885291 0.003757782534867773 0.07819324332250925 -0.0234346145105662 -0.1191982590041529 0.1986909516359393 0.04142224586828937 -0.05855184297341351 -0.04403854007563681 -0.09687306465225233 -0.07162375840845531 0.01072148418242957 -0.01581841864275779 0.1359221289009515 0.1595527591472696 -0.02345535021002154 0.0525996825864072 -0.04590054234965953 -0.06558823655137872 0.1434407710380562 -0.1484798223769384 -0.252706010607802 -0.1783808667978446 0.04510257067854226 0.1011629931552559 0.02575149381095723 0.04319502471881574 0.01540271878599027 -0.009083109136414415 0.0130687424299831 -0.08605898643903248 -0.09507423907469012 0.1063577233169271 -0.00450517303408196 -0.04670665777474536 0.02013997220714208 0.1206497551655693 -0.03178256413684513 0.01880915791022764 
-0.001546515923069716 -0.08561798929454358 -0.0339569135346029 -0.004637342156093417 -0.02366154781688715 -0.03428154926608868 0.0225531095052644 0.002625652748708191 -0.007541806598300321 0.04135068986697845 -0.05013088611796954 0.03027171125639498 -0.05437952420220559 0.1482250289888274 -0.04532718939626269 0.03139466889160945 -0.0286939511151238 -0.01506694807462885 -0.03115804513915517 -0.03995047231964396 0.0009770146822996363 -0.02667163380071776 -0.04919703634727493 -0.03573680873112286 -0.002811270570424509 -0.02956711049843602 0.01583683806813952 -0.02055272787853906 -0.003146698597074886 0.0244894693187828 0.0009981945846631805 -0.02076387525128731 0.02601004924591843 0.007934979098153964 -0.0596668346906345 0.03298828347183887 0.002461489123968125 -0.1092658989659567 -0.05542577955688101 -0.04294965501048131 -0.005913995909332215 0.02964245563557616 -0.0483765727555545 0.02811935480651084 -0.01060656221571685 -0.01265228348244264 0.01647090490985561 0.02048429375387156 -0.06014952149473677 0.004008399385010951 -0.02144463592858497 0.03843627163276031 0.00229090784458078 0.0006435575914863247 0.03988775740599131 -0.01121728093068435 0.01376578296153349 0.02049203111977936 0.05018545656900965 -0.001868868748964618 0.002976743686417171 -0.05214694659464182 -0.01878949282171148 -0.03321268994308157 -0.02790743306126032 -0.02308696354262935 -0.02456340429167826 0.002797754818643433 -0.004003823853129014 -0.01895330381129164 -0.007960083196805622 -0.04462538341976478 -0.02426256702185776 -0.00398760900771464 0.01525487966900788 -0.03590500187697722 
0.07641245376660553 -0.1452357535531776 -0.04166628963869226 -0.1002222224835885 -0.2301365442738531 -0.1404558492731902 -0.1665741146999571 0.04044103741179796 -0.1731865696797184 0.5235344422402938 -0.0893873656463053 -0.1231045371844187 -0.07191243687426922 0.04533693856006225 0.05566660301295125 0.08531928382817781 0.03391168559275403 0.02352390232061969 0.04115476177759127 -0.2011285859277945 0.1008398993340336 -0.07501317528569224 -0.01645563054377478 -0.09319927087102264 0.02184439513262149 -0.1883846766008919 -0.04865981481680006 -0.03014537606937506 -0.1463847248847994 -0.001726205096509894 -0.09603904796314457 -0.0573458689903364 0.2532565664860722 -0.1552243586532708 -0.01765511645117542 -0.03253990374776663 -0.0538411348385171 -0.3094887449905642 -0.07771437301086875 -0.1245369900352919 -0.03205910526389453 -0.1591579013679535 0.05036934125212617 -0.002386654353300759 -0.0356760280531474 -0.1488190314008445 0.01953606525381474 -0.09085178540230508 -0.06372583537121783 -0.02282569427197619 -0.06397834248346564 0.1453302808728294 0.1031820758658047 -0.01231269045479854 -0.1235415100739478 -0.05683952218060828 -0.1439609386708958 0.1695961251616589 -0.00420485968990407 -0.13836520793796 -0.08800170025169367 -0.01222373606217847 -0.02761351210590537 -0.06459824414615846 -0.03578212534902091 -0.02802027928563855 -0.002514828363476393 0.04053595942732437 -0.04762383249099695 0.05440313197799473 0.01506753651355012 -0.08035068129705161 -0.001501011663227929 0.3214980524237781 0.05023463601783374 0.01180832121180995 
-0.01243223215778127 0.039915392162436 -0.02402471564795432 0.007175639748830651 0.04382631313312907 -0.03478399079211589 -0.1018552245613339 0.02289520667244172 0.00961083287782173 -0.03652470335131332 0.0400725189332043 -0.03774489548471446 -0.03566263234556025 0.02123799843249316 0.06761111741988878 -0.01007640542944514 0.07869275884063123 0.009822346401156144 0.0489368411893295 -0.02978462624049959 -0.01401025255138604 -0.02479014849624824 -0.04496836691219684 0.006108961692141223 -0.01089712628599266 0.02326843785311482 -0.0161367259982507 0.01566909317648191 -0.01979622406212357 -0.003898695111181269 0.02225927172420501 -0.008221555149408885 0.002421965852186171 0.002375237737894457 0.01858745124952812 -0.05801050145115372 -0.05563739049402803 0.01933520395181844 0.0297722553022966 0.004258943132948165 0.01058771608269046 0.0490597002162137 -0.01279932536730019 -0.01161410160571723 0.009208008373215674 -0.02696560434814395 -0.005142700614679551 0.004536067847641402 0.003248858212796698 -0.006904465509729651 0.0407656499780136 -0.01187700875068538 -0.008340120240097615 -0.01704982326573006 -0.03040761396717488 -0.01528850198974855 0.06677944888305222 0.03596324339548845 -0.01253175438882316 0.02000372158804688 0.01419268930558363 -0.01938068295921613 -0.002019431871994988 -0.04207864943613392 -0.0148452726465691 -0.01368851779332096 -0.02831489740284357 -0.06021965610240437 -0.02259931964764915 -0.02868075405757075 0.01410915570755992 -0.008448150954726922 -0.01304942003762646 0.00920680752747341 -0.01899957674253411 0.02304900686976018 
0.01568299322091911 -0.126281078927183 0.1151197760158473 -0.01085350789233866 0.001015824605547193 -0.01666461662326913 -0.4172337663344588 -0.1103502131806869 0.0457467999820718 0.05232727518327463 -0.002545217519731719 -0.04189163727328156 0.05601531680751985 -0.08398609902216819 -0.08115094701795911 0.002053366024852103 -0.1486584763725186 0.040880594071852 0.07257409993069226 -0.04804039251591923 0.03151323834020925 -0.0352261029445852 -0.0048673269844351 -0.001691887071002701 0.01874022465836435 -0.1798437765558616 -0.005674505285430512 -0.006131669693779982 0.01578703935549591 -0.09465992776397109 0.08653583706848676 0.1024712101432047 0.03156448482303827 -0.06318948788325886 0.03087128452947051 -0.07236777749380088 -0.05930844478482462 0.02415653924414507 -0.1165451712545322 0.1264007178540731 0.2118009753570146 -0.03132515644469657 -0.09033636818423935 0.02212224431539103 0.03764155919978345 -0.03230550469654185 -0.1280878329045741 -0.09314529209242291 -0.1109172164922812 -0.01975731002109083 0.04869371994806166 0.001051908705180831 0.1479227992035613 -0.02098079967558649 -0.03598753025129662 -0.01907292078684393 -0.08944086394435807 -0.0810424560363059 0.2223916385837357 -0.0205725806139432 -0.06989494163703026 0.01157449508410112 -0.02172518994986055 -0.03443700109638469 -0.01426023420133652 -0.03182645742666835 -0.02485368591748578 -0.06570156209697568 0.009180511537220489 0.04897706174326823 0.03985257884555615 -0.05899916413720658 0.00218605437295196 0.0544178681727136 -0.1774640364502959 -0.01995533307931747 
0.00708839849662313 -0.0408046655583847 -0.03196849395317959 0.006918823366022459 0.002111985195702644 0.01523753646450242 0.04165225140905511 -0.02491162558517215 -0.05717096816164989 0.03876025182816611 0.01556808171845275 -0.04290575418594547 -0.05728101139077688 0.05773066726536652 0.02943350804075216 -0.02726502226855132 0.02524812393487974 0.002709379732312583 -0.01129966565160838 -0.05613863901127758 -0.0263706163738081 -0.02368283652475337 -0.0426753195158432 -0.02410704446223417 -0.01738573833403658 -0.03906653285364801 0.02725175742779611 4.757253791224456e-005 -0.01173965845379397 -0.008001666474298489 -0.02441645407285711 0.02900176787007117 -0.008981123510379045 0.02250511636834644 -0.02712716887486428 0.01217944866202862 -0.004331872872705059 -0.05506714880206841 0.0004950803931844019 -0.0221724342136423 -0.04739901818289184 0.0420776978213984 -0.01602224300026147 0.07780187602242425 0.1137836986927042 -0.04930585362657147 -0.03659925396285654 0.02571823456233071 -0.02381604263991144 0.0353130683994668 0.0004640400386879365 -0.01783826654925332 -0.02300824145661208 -0.02700785124933968 -0.001892512004142282 -0.02815783706984455 -0.0281106799374565 -0.03205179304221822 0.03874334608022656 -0.01462493416242201 0.04830873476211613 -0.04391512268520745 -0.007280507530456457 -0.03912895641684595 -0.01318893378297157 -0.01759730441216716 -0.0456670386995164 -0.03962495652820165 -0.01313640374926447 -0.02523160660121955 -0.007119710071380668 -0.0340611721146974 -0.01146683394624442 0.06235447838705102 -0.05760920620723165 0.03581825512919353 
0.05649107070134345 -0.08678515377689472 -0.04933773590740574 -0.03812469269588052 -0.1665901508176329 -0.1257565255609524 -0.1204790399447933 -0.02144235900426204 -0.2368587080241968 -0.142051552524139 0.1712099445372473 -0.1258407619913874 0.04705220263723686 -0.08851867618022496 0.04613689338126801 0.07448345292671621 0.1267646101112442 0.02585459583840034 -0.1040892891435976 -0.02152145110633347 -0.09358941797114426 -0.0504036513139211 -0.02148129815389236 -0.02251705735690335 -0.1589226372076743 0.1694513355254513 -0.02314832315939988 -0.01158812140418625 -0.02237608419059389 0.04816498449900249 -0.0284257556868199 -0.02210579434418956 -0.1688545829910854 0.03161901085385298 0.02163626607400377 -0.1264606103274111 -0.1020812231787946 -0.1628282119408379 0.286798734107714 -0.1489473342410304 -0.1205060985951678 0.4031863422157923 -0.04448444967096133 0.09882894846199435 0.3605037685015917 -0.09670808298266703 0.1845149455151696 0.03550096059303352 0.2700983927542706 0.1697822172549807 0.1588966286972582 0.187907206189691 -0.1907852435848827 0.001814468474091189 -0.1042376393095718 0.00303690766189634 -0.133369155545582 -0.07270042137961076 -0.3712957833055418 -0.04887735307041384 0.1343177825773801 0.02142157184841233 -0.006075987117203605 0.01241043034834935 -0.01547933004106658 0.007824943583002264 -0.01328063821587445 0.004640833724522541 -0.03956792979001798 0.02044605109343961 0.007531888006632253 -0.03720442775083049 -0.001742217885125097 -0.1657675987077243 -0.261415749474628 0.1107907100669559 
-0.01332929911407608 -0.001632367905230084 -0.04110564063952685 0.01328130706897621 0.02116926159390962 -0.008508329313440857 -0.02009275534414237 0.05857194308236874 0.04201804395693997 -0.02675251270081222 -0.04584125912662526 0.03831039652308053 0.01426400188484827 0.05914677012495085 0.03220008916744421 0.03523151792928125 -0.01002713950572784 -0.01493712307867249 0.03099456711280771 -0.03519469376345385 0.00785947105423665 -0.0268314817619122 -0.05360947221441174 -0.0001614055734287352 -0.008251109649527572 0.07531810734554187 -0.00571349521144771 0.04190146483171715 -0.007662010287220426 0.031672950078068 -0.0164132909503024 -0.01637444417955709 -0.01435787171157039 -0.02129070739468728 -0.04065605660588662 -0.01622401543483761 -0.03485554687983446 -0.0336509664462027 0.04613891749208221 0.0003875962556573102 0.03740724737479997 0.005428967280478613 0.01066294000464494 -0.03701053074747224 -0.06468840288794223 -0.0157236082086214 0.01550647007007218 -0.04309822445658132 -0.02523956833567502 0.01256577359340796 0.005166179639495834 0.01289007551111396 0.001247762730219051 -0.02699019548404386 -0.01585308026670404 0.0228581208987863 0.005921980192518773 0.04510000550551446 -0.004128311476832772 0.05875811776228871 -0.002483702459137178 -0.0352857378521195 -0.0214641495651491 -0.04358877614884922 -0.03083690753385425 -0.05066981402055947 -0.01779386157955368 -0.02620405708386361 -0.0006118715264629573 -0.0183079159761205 -0.01516027082952334 -0.01158415363301215 -0.01895072411020946 -0.02155815222014482 0.04224300124960016 -0.06076916302141258 
0.2055218625641654 -0.02678096116600212 0.06926839386901167 -0.05243451326387758 0.0924278420385032 -0.06435212319560899 0.08004042316932217 -0.09052131489026603 -0.4093375371454215 -0.08532400714941905 -0.04554327423723129 -0.3074059494204625 -0.1108790238837767 -0.1136541713985107 0.09415197317776761 0.3065470947948872 0.2971215910320085 -0.09928944738289415 -0.09839001589530899 -0.04111078767965206 -0.1357498364996183 -0.04231939195443445 -0.01245971467992676 -0.002981061931469999 -0.2099954908907649 0.01963091062658542 -0.0637665343626765 0.001873151481101614 -0.2231525310376659 -0.11282789506361 -0.1054229468512927 -0.1210680530870774 -0.08690824877799006 -0.09127925308595764 -0.04071964145496754 0.1532869086509006 -0.07863489375106407 -0.4116149428812231 0.2221260801740608 -0.005449444152593822 -0.08031187444548725 0.1427806419590132 0.006425337150835981 -0.05046933398031429 0.1961515590853175 -0.08276137384835501 0.01286856916641439 0.03655742398809041 0.1575486064141152 0.07723735317265137 -0.04014709279989308 -0.02016007999457936 0.1457373425052582 0.1370567750807463 -0.09493568414283116 -0.05624457625995926 -0.0874547888236013 -0.4241947849489345 0.1387161827527117 -0.09836766616320419 -0.02505349632819092 0.0261820960832399 -0.02736489257246259 -0.01443826874609835 -0.07936872920386673 0.007326273577603824 0.03268385694548032 -0.1644795014928334 -0.003537964961299354 0.009377847071092261 -0.007475345516836043 -0.07297542789060878 -0.02134272575379353 -0.002620539251770449 0.2805567101053636 0.03099539947706315 
