solver_type L2R_L2LOSS_SVC_DUAL
nr_class 26
label 0 1 10 11 12 13 14 15 16 17 18 19 2 20 21 22 23 24 25 3 4 5 6 7 8 9
nr_feature 600
bias -1
w
-0.02842548702921459 0.01595684766432704 0.009011742432736645 -0.01245504534851075 -0.01741633187542508 -0.004999225333143122 -0.01169767306590777 -0.02284089106266186 -0.02815869650629106 -0.01834771236470198 -0.03786470782886477 -0.01010133304000297 -0.0005856475046320856 -0.007736090719353011 -0.02380394377365533 0.004613810884240467 -0.02232920117284654 0.02037413741655142 -0.007707778789338337 0.001056287500641412 0.00705769588834837 0.0392491198321764 -0.02529455384734853 -0.01635222609517653 -0.004560992614290924 0.02021535581805905 
-0.01144860747389469 -0.1103036854368636 -0.04982595635312769 -0.1366210383710712 -0.04522702859385138 -0.1248138201264865 -0.02811863248536356 -0.1008607896626578 -0.04032108802963123 -0.1475967678496515 -0.1155776358931799 -0.04722973208784173 0.0138360485299225 -0.08230942824998028 -0.05825510927733511 -0.009095300096734893 0.03713262037851871 -0.1123223279431145 -0.07394467873755425 -0.03261263577029773 -0.07328215084019751 0.02048024489640394 -0.0267274657580188 -0.1384267267500098 0.0392575786368897 -0.02617652729513586 
-0.07272681909886801 -0.04227501339628761 -0.0275918550825125 0.03298920741383021 0.02226063349783028 0.002846341314453625 -0.01993500041222432 -0.02580308118658503 -0.09021298680380678 -0.02003494528117761 0.008397405486855285 -0.03874698327181413 0.007762347557569504 0.09057941780671047 -0.02569819424830306 -0.008046339373145573 -0.01971348799287381 0.03427540234566082 -0.07959223484504165 0.002979502225303424 -0.01302280440783324 0.02304036818792474 -0.04121990162503872 0.03118059069874266 -0.006043505503397699 0.02356401140431691 
0.1599319623672131 0.05627420547157458 -0.1564044742031664 -0.2197204776332212 0.06875990419926528 0.03532222621190719 -0.1640913016982578 0.04237969999973941 0.02582827882765347 -0.06491818850633636 -0.04716478285043112 -0.09360776327084007 0.009638589904072223 -0.131842814283826 -0.1026030450323052 0.02349501918410033 -0.1089680435575799 -0.01864664875326837 -0.0676485176466418 -0.02915307008627258 -0.07037606578998511 0.2646013554419123 -0.01625594301970081 0.01626083609662463 -0.008841310913452945 -0.1512866726036306 
0.03790337195568989 0.07917212322873594 0.01438440332704312 -0.02636111024295807 -0.04344985596921755 0.003668812115616889 0.002280260717461021 -0.003145495444938073 0.03212025237980549 -0.02391642600331094 -0.09063428329912811 -0.004700564774637477 -0.00919545302572373 -0.1477714250657903 0.01333978829869841 0.02035585596795212 0.100371982073704 0.004915478167571501 0.07329767923756601 -0.0001459851386106662 0.00930333036675258 -0.02318318476198437 -0.01837956198326654 -0.05132881833246103 -0.01616620880249343 0.005994805131040867 
-0.169784945711734 0.0582686900354065 -0.08852500815544867 -0.07396588601897181 0.08735149169260853 -0.06169484392373836 -0.2071809588160297 -0.03373833603536671 -0.2193287171246756 -0.1182952439454117 -0.1317405738193869 -0.01870727003735095 0.03442908566054945 -0.03991334004539911 -0.01072868803627046 -0.1113482123502071 0.2514515002205365 -0.09319799334084991 0.07136179735237366 -0.01698979210609324 -0.08093978158128297 0.06647174912093551 0.03136463138460166 -0.0848661117187922 0.2001534768622906 -0.1370475343146565 
-0.1283301955179797 0.005438769430585528 0.03890055847922744 0.02090204501736146 0.05057352874415952 -0.1079531711605846 -0.01686593424800912 0.02071554105123045 0.03510600936951978 -0.02344014933702081 -0.03276526172347499 0.02480957045353498 0.0006176661989521242 0.1005340559889763 -0.1202974717702479 -0.01216859014428454 -0.2523803666353462 0.01151442826323368 -0.04070877827481525 0.005789487853181832 -0.0364464828276918 0.1393977443999789 0.001834465310914635 -0.006298975816858228 0.005935282599299149 0.03193048169825546 
-0.07275506138638258 -0.3471518094995427 0.1608783565544318 -0.2183555487171596 -0.09727281520019257 -0.1708353980046715 0.106102923484364 -0.03852983813050961 0.13144289328005 -0.2128418646381649 -0.1991252809517481 0.1061309306307216 0.05157767708718981 0.03327857640708429 0.1035514312570657 0.05144844874544945 0.2735555316734885 -0.1958552315065483 -0.07987702712454387 -0.04553093443363732 0.05073724741896725 -0.230736955863861 0.05215312307868032 -0.2508956311275061 -0.07552448849217883 0.002705456016203572 
0.05286818714395015 0.02004365802372396 0.00702713143024819 -0.07537464979820312 -0.09545543456658678 0.0786750583570774 -0.01140079228059423 -0.08029065793070914 -0.08905362274754318 -0.007901799235073571 -0.03530688304394251 -0.02361522554498468 -0.001448545062170446 -0.0709567701501628 0.03920693165709797 0.01755436492394523 0.08992942961337029 0.0314845626040591 0.01580676402081064 -0.005762703711193291 0.06811464597424947 0.01862114946050451 -0.0406294377909631 -0.04157192086299982 -0.003297108415016153 0.01996683413076141 
-0.001812692689685875 -0.03250818351486107 0.07392129093203489 0.0431799944093177 -0.1314827927482666 -0.1634109431736215 -0.02408278176075076 -0.1889225498987871 -0.0766847501939017 -0.1607135820029933 -0.08839133304952336 -0.01224320548470925 -0.001698049731020387 0.0326480395676894 0.01949891152564159 -0.06459688993685338 0.3053239289439278 -0.04838782761803112 -0.245543569356188 -0.01176594783143723 -0.09927496750799318 -0.2260688787550644 -0.03282759704451383 -0.03714525462236652 0.1729136349379069 0.1052549213825523 
-0.1400768508143569 -0.1116887410448849 -0.05271688800198821 -0.06300876377446396 0.1089767086158627 0.02887887787557898 -0.03682698028466985 0.02598647468089457 -0.02562743443013677 -0.02724546483667691 0.001354406326746139 0.1571431310709111 -0.01972980245837146 -0.005445804831958434 0.01708001443258835 0.03707120733862947 -0.1384944912433775 0.06228723945167689 0.03893085389770948 -0.01481819810784911 0.0351602340025866 0.1786472634830318 -0.1280929364110267 -0.01670688864868909 0.08711474098262899 0.005709328659734515 
0.08715001853425035 0.2703597867452138 -0.1338456286551693 0.1422972046234509 0.1928694619726245 0.2895969134711364 -0.0847819864369508 -0.1607225131222608 -0.03705021142867435 0.006901814206446259 -0.2419248343862545 -0.1480369758048293 -0.02255641019560855 0.07571924677591052 -0.1202948123418004 0.566210365077419 -0.004966853115212103 -0.1010738155355531 -0.08527090542651181 -0.06751226266194078 -0.2691625429222307 -0.03477208190568072 0.1088789334287917 -0.1614054035933633 -0.1176044166355768 -0.1184596244558471 
-0.03680918497451069 0.01676226042992563 -0.1237765144297101 0.1155868866117031 -0.06142083214375551 0.0002500572207604758 0.01887704791848651 -0.1099807773730197 -0.266300137503669 0.000497973541565273 0.01636802556272307 -0.2508005441690058 0.01475724863279088 0.2403690803240553 0.0460016392872178 -0.1112275176675788 -0.06726029645929929 -0.01872258089109054 -0.1403510489140191 0.02446248082581837 0.03184066046533012 0.08942108001140194 -0.008946767747396084 -0.002854596264851979 -0.03488325816025997 0.05668865086458229 
-0.02099732682345613 -0.03338149469361636 0.1288979864244892 -0.06447739275509497 -0.01153933796440152 0.2627741609171387 -0.3170148917261224 0.1436167408472725 -0.05173859612278782 0.04227649699292518 0.2832181678969888 0.4540746952388986 -0.09744813805363244 -0.1351116374951875 -0.06456478097638638 0.03789621742529827 -0.016213153376596 -0.1060725225748569 0.1224201346200083 -0.04293383284415687 0.1316541421506724 0.2401370255610747 -0.1847349548010678 -0.2474041104124223 0.01891432942724932 -0.02480559775905765 
0.04082094988206318 0.1243829771694328 0.09123952002427706 -0.05816085992891314 0.003808627357602156 0.09078891339257106 0.001145851883627591 0.0175599394708924 0.1049113759597638 -0.06887138153258092 -0.1234873075881708 0.05590507476426208 -0.00401841278108291 -0.1299473878703517 -0.06500992328104661 0.1037553121788229 0.3044519691487637 -0.06676286024276279 0.1049019102790067 0.03475288095408911 -0.003175121024815458 -0.09088665186712099 -0.007277022041808156 0.05315222629692437 -0.02440576965153854 -0.01095331908337911 
0.07013283090887201 0.1940829208437734 -0.0128132972453248 0.1574358097783769 0.05553433440680477 0.1236066521747929 -0.2738394584464891 0.04267109360209256 0.2665849672512184 -0.06341899408446515 0.1050525056258165 0.3671402431926317 0.0262545281582564 -0.1861553734566608 0.02170724869016122 -0.2628752826429628 -0.1555159512516722 -0.09047729660278889 0.05254161402674443 -0.07502225866759453 -0.01112683038682741 0.3533609215034594 0.2416214219605267 -0.2304563313708395 -0.2719331456843312 -0.1361258408719491 
0.08573275589750386 0.03063374977861353 0.05412456824023736 0.009864134265510353 -0.06698439065120666 -0.09140756244401301 -0.009629039693090018 0.003079887299372492 0.1161086488888974 -0.02261709624013228 -0.05636693539925752 -0.03521834881414951 -0.002591620469818568 -0.2384389482517025 0.05683711193472755 -0.02923501243625675 -0.0578992215462034 0.09289180152817141 -0.0001397305901022766 -0.02930903887586928 -0.05924869621422328 -0.08280234027706172 -0.005774312224003841 -0.0662981455695022 -0.09477953307878757 0.002510398706674888 
-0.04792228403323984 0.3014367049203993 -0.1887036992789884 -0.006276520702769179 0.2695532174182163 0.06427889934484266 -0.04048477577478873 -0.1394701629286837 -0.2546965674657264 -0.07758961146455949 -0.09039403095789139 -0.1015839084401359 0.01710851428480391 0.06225092438337296 -0.3035932394564996 -0.1752613109898429 0.1158809363428 -0.1357501174907917 -0.09199752074365514 -0.08159627880478254 0.05133271772596492 0.2478824776980405 0.1668489744165858 -0.3116777355398965 0.05353509811932634 -0.02887846364390751 
-0.1971951489701042 -0.02820222189998809 -0.05513199454845523 0.02375120654783671 0.1282499955059499 -0.09790345959533266 0.004398864000833573 -0.03982017480651798 0.1599927643281882 0.01854495928382946 -0.0365184153053775 0.1301895892975516 0.004433581421535326 0.09242068131934583 -0.09505803238341859 -0.03145285035895881 -0.07881941639250915 0.06698064605122212 -0.119087806137353 0.005581760971747923 0.01104333098132147 0.03677385796507685 0.0155627228117304 0.05120850928373696 0.01545505692990176 0.06041535716713044 
0.2398132337251223 0.1114477518205838 -0.0835208479594405 -0.1978163535934609 0.1680929561407332 0.08264609473326851 -0.1598299050517036 0.1372087342797204 0.1117439341951936 -0.1346288068825429 -0.2200566712463841 -0.4011240658905915 0.08210278919586254 0.1911824361250454 -0.2801242719149951 0.001237216997781201 -0.2507483637591506 -0.02917815217354878 -0.1213944395298061 -0.008689881451415105 -0.103710492386538 0.06303456575449218 0.03463459417051518 0.2312565555984291 -0.05038423981681078 -0.1836925118137525 
0.08464095151117038 -0.0515183475769595 0.0613260654180427 0.06002252641223719 -0.1016828258225197 0.08965445942755332 -0.06750309967175962 -0.01377609729674311 -0.2239484269530966 -0.06572686446966512 0.05833149445386172 -0.2105298242089969 0.03483710472829375 0.04261135148846592 -0.06939335179258038 0.05785618264352641 0.2290212707565286 0.02976463099797734 -0.09268131018282805 -0.001671277486109565 -0.09870278208157476 -0.197732642380328 -0.06452199051980216 0.03641871324113331 -0.08819757244422967 -0.02173696586069145 
0.06613075808817734 -0.05739172477747001 -0.109895133304869 -0.4146153358587983 0.1422412072896414 0.15647915042859 -0.1428137127558566 -0.003939167340381177 -0.02905959129516177 -0.09135069979219068 -0.02305574269579775 -0.2075961011361779 0.01943704680225738 -0.04142352619952493 0.03399077692270001 -0.1439341477586208 -0.07924585621511804 0.1429524827802811 -0.04114238659936989 -0.01866129908268378 0.05626152341887374 0.4777971483891619 -0.06771796685624124 0.09351437027153235 -0.04767702929816061 -0.1996632634186319 
-0.05201327674289556 0.04190447834627369 -0.007935526166070541 -0.1442235944941417 -0.05950500378776204 -0.06317278385802043 0.02955118992369843 0.06009372113519458 -0.1892427850370988 0.02074871623863931 -0.1605775467895319 -0.01313644299798292 -0.02109265719752315 -0.1330152650560193 0.07106998065596445 -0.0186778796981206 0.03144457142791442 0.005576920282314631 0.1409009778434723 0.01113432876689917 0.120131620423771 -0.03968260557390061 -0.05891147887274836 -0.09747531130847716 0.05416025205497451 0.02379806988156872 
-0.3268720848607886 -0.05562660783817732 -0.09472357376499861 0.03108192275847833 0.08990539297551134 -0.02271014007735263 -0.1988736652365245 -0.05417414708051746 -0.3208787902222588 -0.176394303832235 -0.1813816258239732 -0.2763618394684883 0.06534596784605548 0.03722160885703343 -0.01595443971590582 -0.01114617576972556 -0.3115664185222465 -0.08924620612957339 0.2163719838903297 -0.008848118611351413 -0.004011555010538972 0.5651311633238844 0.05191909149196367 -0.01170258698618287 0.1022148103242407 -0.1494754719321221 
0.07732273509290649 0.1155692085498513 -0.03204494215608146 0.08906893088510601 -0.02543892172449499 0.07947562270208408 -0.01312008573770521 -0.06586180987688861 0.1067791076939702 -0.02861774979280902 -0.02915331101727656 -0.01636820353098854 -0.01183141715761442 -0.1106234393416415 -0.01460082315503961 0.03272250982868202 0.1022244993419434 -0.01891052792406756 0.04202604823083993 -0.009927717005429219 -0.04634539821048984 0.09580826444106155 0.02663004279069392 -0.04751093405357735 -0.03046590725381808 -0.001775790651141283 
-0.06409550117800068 -0.01147556386221863 0.005433663169673376 -0.1830354622072964 0.1329275268568551 -0.03065897188249771 -0.1569473548512432 0.1459966146787157 -0.3658534250527013 -0.1091740171464477 -0.1967935417645543 -0.0186212733687477 0.02502685587779116 0.073191223130193 -0.1187563333237174 -0.1161857597739621 0.2692816459741413 -0.001850842107719721 -0.02740082736548751 0.008638795888354939 -0.1382237513052236 -0.4443500336747961 -0.1684713916399755 -0.01344154672630895 0.1077933919526953 -0.08098750246217545 
-0.07656019166510344 -0.01740441497354608 -0.1401168911766678 0.03010319773063066 0.09309646841061245 -0.09171929059484642 0.09474227768861521 -0.003755882577433835 0.06336290679209612 -0.0195538689889256 0.03143688649355631 0.02546062549968831 -0.007597361584322581 0.1493842738444681 -0.2308565805237619 -0.08621500646766606 -0.0778983531292503 0.03012811383254447 -0.04528013401970469 0.008166403060404824 -0.1203433004612495 -0.03041630931443877 -0.01475829186773116 0.04617691326762016 -0.03797716392072108 0.0929594623013273 
0.1242185106677757 0.02988176786939695 0.05667470590036453 -0.2814963503161094 -0.3337719158125985 -0.01359889250912123 -0.113585153420545 0.2016529229783667 -0.01869380820060972 -0.1740434464589316 -0.1312485669197685 -0.4075219976685249 0.0579798878487271 0.3230684627610708 0.2275229400792163 -0.1478173399165667 -0.1242705549137739 -0.1369276375034766 -0.2086597924202535 0.007867742398850342 0.07814719656350525 0.1945790159940374 0.2167680987186895 0.0401710678446436 -0.1215606182905517 -0.1868988000975106 
-0.05746225294315314 0.01137891171546283 0.236055181677363 0.06710469735529796 0.007289955822385298 -0.00461755705545341 -0.1523273393254612 -0.01372883350005428 0.1384908583949625 -0.04870237446828991 -0.05176441129808612 0.006531029488562861 -0.01086230801438163 0.0213078977446276 -0.2453887516210494 -0.002189788604499196 -0.5196589254157051 0.05648391379600508 -0.1024882175245577 -0.007573817765764484 -0.06871571205092476 0.3703014809566309 0.1026522123664371 0.0722499340997593 -0.01830694653359993 -0.04180415929167413 
-0.2017121404729233 -0.07893232357444781 0.01478685956310978 -0.03896097786774096 -0.2522572051326752 0.2290083358697199 0.2509101691757332 0.03051065768034508 0.1269444808774794 -0.2095600916883831 -0.09059746844807336 0.2872214270604105 0.07052631684937039 0.09359347503099529 0.09963333308208805 0.0278022776413558 -0.1633178959649669 -0.1038274298274753 -0.3498257913265515 -0.00403583579141711 -0.04142282885082663 0.2005597953358284 0.1900334257996388 0.1385728320962004 -0.2957871298198826 -0.2284631951075067 
-0.04990979284349054 -0.02494402145683109 -0.1672596314558301 -0.1566202430632035 -0.1057193503430971 -0.1481326331228663 0.05194692624996004 -0.01260702360706969 -0.3503886195506825 0.001436244934148752 -0.1326004618222664 -0.08866907796902246 0.02251280930662594 -0.2289349129621981 0.1966691484873961 0.1414450729633857 0.2410393185019306 0.06801469847032941 0.1088069350270385 -0.02058111628036862 0.1435522065011108 -0.1494781738894521 -0.2023802749750307 -0.08610901936191387 0.09358746093157583 0.1070838660520062 
-0.09206415473981551 -0.272266572185906 0.2050630666498149 -0.2339334725759234 -0.1762330851109096 0.153327118268608 -0.02456244858002135 0.07636776321913091 -0.03466459724210893 -0.1994545655998362 -0.0913956739741621 0.1532202523709619 0.007208848633490448 0.2140285083578292 0.0349608582459023 0.1285350523532326 0.06701116521700905 -0.01338380064041389 -0.236107024662095 0.004093861604509932 -0.2073825469652929 -0.1113706640856487 0.008033053480596028 0.4877164568800577 -0.04875492195149503 -0.005620553886276059 
0.0916837338937451 0.09859461202709773 0.103697076266529 0.03151994962627523 -0.04456170343737418 0.1375461894954033 -0.03749378791693985 -0.07418437559899364 0.006116362083481708 -0.0003556220076615097 0.002260067530084334 0.03705424700236595 -0.009987120968352211 0.03534467837457356 -0.004295828012606608 -0.0438210091795971 0.1741732225944787 -0.07867277028219109 0.03033610941984951 -0.0005795150607652345 0.04210776287850448 0.04941915957798021 0.04603070760666136 -0.08947461451910067 0.0303237576902711 -0.05394562257240868 
-0.01114256273709477 -0.09917964916817973 -0.03343042794963154 -0.05342765469862996 -0.2199615483966701 -0.4506406801093655 -0.1533530572180194 0.1399193495978355 -0.2343024522744761 -0.0143943898594307 -0.2526124380211232 -0.04482315745632492 -7.218515544706719e-005 0.04721628139069581 0.1810529737557579 -0.04310834329618903 0.1374344395279059 0.1093738419438219 -0.1942206340403338 0.07863854197264897 -0.1633078077424962 -0.259754676140634 -0.1118865877885753 0.1836860340895377 0.01460224612075597 0.1384500057543315 
-0.1559968138453658 0.1118000368977552 0.02004453718398091 -0.1186674754223571 -0.03400220166792126 -0.1547221238523799 0.0302491582744962 0.07040967787414629 -0.2724896245821736 -0.007792033692205738 -0.0186910910717384 0.01683248538329634 -0.01231821226315912 0.1747697915331785 0.1429834737852015 -0.03649628239566683 -0.2644361406991588 0.04408568557067225 -0.1395500231460208 0.01265223514682943 -0.02690008973135022 0.2102827001733877 -0.05573867587160512 -0.1140786216444972 0.07016097813812446 0.07800062461429075 
-0.08343880403580577 -0.3841777478134216 0.3728646294003905 -0.3240418897856178 -0.3573948103625441 -0.07089089316376838 -0.006109620383547028 -0.2107062613486942 0.1602058662960187 -0.09764800523575401 -0.1883283161645344 -0.1101777631256603 0.05316885793713246 0.07484263916867727 0.3407718252574356 0.05823183629844165 0.2452192443051905 -0.1719995684163664 0.1772208089505001 -0.08161572006682379 0.1900678452057098 -0.2868411665981403 0.04467894305749145 -0.3020459940657534 0.05686420656530329 0.01169565767391901 
-0.1069258692676967 -0.1076836745088807 0.1197484917695274 0.1624983743487991 0.166768658854607 -0.1327460213070138 -0.05144695777176957 0.02641304570091623 0.2241769442157019 -0.02872450722278761 -0.07313245548013402 -0.002849036241557924 0.02633298169127201 0.007685205322194435 -0.2161129337582181 0.05395407927966643 -0.2789304589833759 -0.02726036086688924 0.06368471766544008 0.008109029247494452 0.02349337918158825 0.05340100233574164 -0.005462703320298113 0.1006595507150269 0.01951207592104746 -0.007670171586566359 
-0.1130348632461385 -0.4659012545233079 0.2962526696592598 0.09739436625905318 0.3079178476124186 -0.1624764218787484 0.168714670311758 0.127632658561379 0.08672548063053821 -0.189522877346879 -0.1595578003051795 0.2484069186144334 0.1133694826805263 0.07420105784491746 -0.2280802019077354 0.1279348372279771 -0.1033161663164007 -0.2296694314114675 -0.230956981177527 -0.06137083835402721 -0.07420867899905401 -0.004391408034030285 0.05823649216015752 -0.2795360274956597 0.1587386550182426 0.06082613306641562 
0.09981003955448148 0.0565587452103609 -0.1115857636906824 -0.03161302358521684 -0.2031326060535419 0.1638818055464912 -0.01744844212132539 -0.2027804158134652 -0.07126269891097301 -0.0141008020531372 -0.01240271519494293 -0.1300807435318179 0.01436460023255537 -0.1306401043900693 0.001806038054152377 0.04052766282515764 0.04915431260822232 0.08336198955956738 0.09810195840414918 0.008593468025449417 -0.01072809096381593 0.3276398262082941 -0.07683979170701039 0.006059056507622227 0.007622396307540883 0.05937706620774189 
0.2011401013825696 0.2320352364354889 0.257767214523646 0.1558386737794528 0.04749882710021284 -0.02730979165596023 0.02603618360085636 -0.06798940239780635 -0.03907295624361053 -0.1253670747585272 -0.09358478725514303 -0.1280269696563205 -0.02409660595217116 0.1347569156366012 -0.01529655088166256 -0.07359200595270077 -0.2186418922095106 -0.06836635406119779 -0.3667057242661613 -0.02877253637719495 -0.1735168244232469 0.2003925902219735 -0.1016493139296698 -0.03846614488545187 0.0698641742457288 0.01095925822594293 
0.03679148652790416 -0.02081444171369482 0.1302316786322096 -0.1717357924363124 -0.009752905049811186 0.08496291497963034 -0.02873172675547437 0.01178790503744107 0.0310460534951039 -0.0223241351078007 0.01358276048590175 0.1274500149551077 -0.028303931418766 0.02848720574020845 0.007436744303748871 -0.04573858929994446 -0.002903608788261513 0.00271419541791648 -0.1022813870878965 -0.02666625087972718 0.1285255008168251 -0.1139805468922776 0.04683366525231399 -0.1075599295770632 -0.07356809434528774 -0.02147071090911608 
-0.1870057131480314 0.1878297169561297 0.01528160348482916 0.1269809882551343 -0.1757852865195848 -0.3839462346901336 -0.04794031223739072 -0.3135101389067457 -0.2960482386350331 -0.1031141840993119 0.06173869958584525 0.003380209231595636 0.02759936714861516 0.02743425147760071 0.01399685007773454 -0.1986164214102482 0.1513498233246265 -0.04315629277299252 -0.08692825774744113 -0.03373901861336957 0.201431168849032 0.1570230927347799 0.06452974763340233 0.01760431515512284 0.1746879662061331 0.1907195295733386 
-0.1519864670576902 -0.03070091076749729 0.02469173769883538 -0.02206159737215147 -0.03790400740382979 0.009603137623702272 0.008933196848018328 -0.02258360238555952 -0.1256260844696251 0.003262673922373826 -0.002236756721597205 0.05280340575761677 0.005392318826466853 0.04123868547369076 0.06947929185154171 0.05196280368580212 0.0260915291622298 0.03227990163384212 0.05923580146237132 -0.003874777537636676 -0.05334876760921243 -0.07120619773421567 -0.08000556874825249 0.01154503271206239 0.02402361426894062 0.03200549392091703 
0.05187316984632216 -0.2277802574923371 0.1191335657483147 -0.02135925604628951 -0.03246090936238884 -0.1398369587638499 -0.07309317515921987 -0.1192063018874983 -0.0281565368749554 0.03301219113178314 -0.02857900911114865 -0.1583870415426586 -0.02905715786693724 -0.0110214748750905 -0.06064289508478865 0.1308875803252604 0.0325215665725281 0.01658838615480244 0.006853486894535046 -0.01161672074869287 0.0174324419759626 -0.08782769244602796 0.03889358601715228 -0.06989662442759105 0.0179403773104878 0.002970802186534786 
-0.02299210299301275 -0.03676422004735226 -0.01487511667186269 0.06555086671079724 0.1101144846254814 -0.04870618724302803 0.004681292666698975 0.03584558698072168 0.1240038420662171 -0.0239981731432755 -0.01635178551136729 0.002054113728624842 0.004254748269048044 0.002701538450095848 -0.04060006805622945 -0.01915230064032631 0.08236270080083828 -0.06683762477350713 -0.01417724106909618 0.01496785878216096 0.06965286009221403 -0.1668521474691732 0.02028413653340137 -0.01184183309027066 -0.06127367178908045 -0.01710184072676233 
-0.1100510913717044 -0.1012295743837156 0.03281081474048636 0.2129887312990949 0.03888707930830485 -0.192959068548147 -0.1112214225402455 0.1009710686081013 0.09419146095637368 0.02573240967081013 -0.3316506755045715 -0.08157993835629532 -0.03624586767340036 -0.1259487326383951 -0.002775003548743265 0.1104955888650718 -0.05841632268471877 -0.1172838448467646 -0.03141754888677443 0.01106879567265431 0.04872271881034924 0.006992933198516601 0.0525671523746904 -0.188153649946368 -0.01730179142688518 0.22480596902034 
0.06112715319872874 -0.005669296946810569 -0.02476445215076272 -0.00884602964462131 -0.1425720296151072 0.007771793671373428 0.004686632741957381 -0.09959136673025636 -0.01246705574956882 -0.02571326351760667 0.01699971186595795 -0.02586952438575839 0.004489441340672928 -0.03262432026713304 0.01076346968562688 -0.009679960498805278 0.06319615679102848 0.05702661741667295 0.02746532935297368 0.01380246190488062 -0.02832186721925455 0.01823130153409574 0.02618660291736516 0.03794502954937013 0.009381590119584952 0.02132031424612072 
0.1998906881312115 -0.1176991867295507 0.06224252977995884 -0.003249569488709738 -0.01077791892058575 -0.2092934064649542 -0.02838341777767445 0.1464506539717794 -0.05580438205005853 -0.09707325381120523 0.2038335631198369 -0.162808069429256 -0.01188203496811239 0.09200302649103122 -0.1271284507901004 0.04763865422597277 -0.1108256559115686 -0.1849267072053994 -0.09021262684438711 -0.02217559106463145 0.02481049085874581 0.07990217881845906 -0.1419690176296116 -0.1668197809065616 0.0514641162821002 0.08730320357799984 
0.01791537082729545 -0.02646520918243049 0.06489187531615845 -0.05428469635023406 0.01262111552106441 0.04274544507495386 -0.01598690155089436 -0.03602586460211506 -0.0346093132907196 -0.01266850447058815 -0.004498436212860258 -0.02977806645174893 0.004127443264718099 -0.03224739804179041 0.02498730000788246 -0.005962501812183591 -0.002898793271395827 0.04812571797548582 -0.007293794770301058 -0.008417314607864771 0.03159663646926997 0.02634442412203734 -0.06069840757509149 -0.02868653701442418 -0.05132641284979769 0.01153740281494008 
-0.14120706782899 -0.1446861208250101 -0.1219629296560438 0.06376269987429176 -0.09153432359264013 -0.05389445076058874 0.0299467349281003 -0.2231470399388355 -0.1382951252733428 -0.009347244320979435 -0.06496851304511389 -0.04013800892655015 -0.03558249266017561 -0.07908650957706552 -0.07343854643836451 -0.150053348771723 0.1230935780272045 0.04094190571753284 0.09427830487846176 -0.03299241538756694 -0.04300623926321626 0.006938529448468572 0.07143456986097622 -0.002379157337973462 0.08273733620735706 0.09825188705891316 
0.002047289222344001 -0.002325660485085943 0.01566685873825997 0.007465079338658905 -0.01409017457976953 0.01037773228687559 -0.0005943505694759305 -0.02982790671801988 -0.01674548514342618 -0.02632819998484033 0.00812505955022798 -0.01637092241188485 0.008688702223101343 -0.01200760727800779 0.0174448686137849 0.003577813157198598 0.0688866904416631 0.01674337661380203 0.02205453372279954 0.007898122649327672 0.006793362088666136 -0.0570785766246062 -0.03129734885739837 0.01096039681819965 -0.02098657754078786 0.007800482542898948 
0.06298875098201504 -0.02659762626647154 -0.05991047812619672 -0.1376744469956311 -0.04718584016159904 -0.1273134265961611 -0.04727641489993381 -0.09056987552649103 0.02314351299573421 0.1119068646871147 0.01583013179037483 0.007165970477438154 -0.02429987712910244 -0.004328950417864297 -0.1552459407764371 -0.02860885890038663 -0.02790554206750791 0.02265283633876644 0.002893479038972842 0.03014347542164379 -0.004108718464231018 -0.01471240237819397 -0.01752015150263742 0.07943298933710098 -0.1354255226159013 -0.03172013376514843 
0.0003610064866885193 -0.01202730152253984 0.003571193139742533 -0.00906516766341274 -0.01020983253251605 0.00935210152161505 0.006658297994668789 -0.007013477153093801 0.02013298614225818 -0.01680870940888096 0.002762940182601642 0.009055836389674939 0.01131014995937199 0.01813746748052696 0.006527629960643496 0.02677932760341803 0.03957593986087515 0.02139628446337419 0.02157637907316765 0.0007902987507800785 -0.004561292385185306 0.002637327332177582 -0.01000045058374057 -0.006045526169948309 -0.02265351546344546 -0.007978058389495115 
-0.03547475575368636 -0.1268508319804798 0.02940821219041339 0.1856133609891176 -0.07561640424867044 -0.05272172348553784 -0.0325635816588947 0.01158591637335202 0.2126167186172924 0.08339400687447961 -0.06822639251837702 -0.1110255666815797 -0.01552965653131608 -0.1069620686420304 0.0175384409916069 0.02573247948866634 -0.1036662903292955 -0.05922178887383685 0.007671734230980018 0.01914151869785049 0.04748781292150245 0.08000084156341271 0.01664689088062887 -0.06564774250159801 -0.1440634757148371 0.1294485230344628 
0.01646429475327223 0.009390890597999883 -0.01870694855279623 0.008253490566370312 0.00485018007026636 -0.03469762198657133 -0.001765586625272075 -0.07249783681059713 0.004540538310371272 -0.03140109483375016 0.01198628796233481 -0.03350773270971991 0.008841735730731075 -0.06780798947831677 0.01553077158203017 -0.01086217096071175 0.1116951391055504 0.01493357262969383 -0.001448919250663001 0.01330370961804988 0.01429763544797998 -0.1403482997484902 -0.03252254316993343 0.05386735809082419 0.0130701004543929 0.03819814084574237 
-0.06352227865180096 -0.2197342587673758 0.1811373594492318 0.1524528974772823 -0.07405077965630812 -0.1302786348322779 -0.1830841390084113 -0.02506034903027319 0.08802416104829082 0.1426388176751084 -0.09089397457059534 -0.1998572525998818 -0.03689039624725036 -0.188112317428523 -0.1000928803415537 -0.1409370852825233 -0.1856592726984457 -0.05230721802466529 -0.06947826750427975 0.04997235242257562 -0.01205664662985801 -0.006488173209719156 -0.002714129674285706 -0.01865627917628764 -0.1956503930456267 0.1505464928001155 
-0.04023555911516551 -0.02069426527678145 0.01785201612174581 0.02256304591249164 -0.01145912294863656 0.02402021289922898 0.002014380669876913 0.03959586917985257 -0.08547202745960233 -0.01832029160503273 -0.00362647216912061 0.007547572720279914 -0.009188121605116763 0.007567386729054058 0.05712322008202113 0.02917681861204951 0.02289475759453764 0.002766972393728081 0.02154316072538069 0.0007267985676583946 0.003403365550993205 -0.04817351579201153 -0.03877096781095151 0.002663745109790114 -0.09485605442136288 0.003604486431995614 
-0.04544799523586043 -0.2188615759989779 0.05877401318550067 -0.1425556406577514 -0.001300741125447815 -0.1308131845086619 -0.01083557897975494 0.1864017791192427 -0.09041011871057271 0.03589464272075884 0.2565674514093747 0.002351907306228085 -0.0245260364684301 -0.1914564509039472 -0.02703278698130865 0.1640573166876541 -0.008405665665499489 0.02050788221769391 0.004478679537144754 -0.01062250230002297 -0.06709937433691247 -0.08041806630483143 -0.04056461441009118 0.1247401617024169 -0.1597804318381232 0.01308121923789409 
0.04673297580930579 -0.02715202182305558 0.02158343285865465 -0.001848016295209376 0.005103699073997265 0.01283644737751654 0.01138799111027147 -0.05652948246302969 -0.04970095295210843 -0.02965205986957377 0.005415309893763752 -0.01236151822288933 0.01263135659853083 -0.003120818948443516 0.03511928729145829 -0.01536144266187812 0.0597148390387261 0.03347592557990101 0.02134101316251777 0.005559474059067919 0.007856613110389236 0.009810243722677371 0.01975988710363783 -0.01749559940489658 -0.04029759368869725 0.01302576695542032 
0.06576806536236299 -0.1864919528173523 -0.08671368562105671 -0.08914797529087278 -0.02289592274811403 -0.07186556503951189 -0.0007417507759484758 0.00746057911531251 0.005744294766780979 0.0007463249039036393 0.2775907003553986 -0.02827111235976612 0.01595883578159255 -0.09052147310895019 -0.02308984217669526 -0.05790326550360801 0.005398101710864339 -0.04593758642412707 -0.02999087408570234 -0.01619787070414438 -0.04047527429755219 0.02198985417478741 -0.01918491151327886 0.007595985971574452 -0.01847729392258806 -0.01469086989838422 
-0.009205063255888071 0.004936220482472798 -0.008782093441177523 -0.006045082067902686 -0.02746540012754451 -0.02029535153808107 0.0001839459947307927 -0.04304288122086585 -0.008323374988094691 -0.05379579359888323 -0.02801958042126146 -0.004942323068339402 -0.004018661343303016 -0.05365900599006992 0.05732453861503209 -0.02795507154583873 0.06680949717283623 -0.007183325156305203 0.02136806743889724 0.003032981028507437 0.03044160934131507 -0.1070883376233823 -0.03893734357809394 0.009010685627907045 -0.03341898341674306 0.0256821412952874 
-0.07313959386328542 -0.0253512678776911 -0.006617578536111553 0.2681778280715105 -0.1498900369511142 0.07380718181954543 -0.05011196245250051 -0.133584471035491 0.1823445715035973 0.08515220157144608 -0.1126115215343424 -0.07288016816922292 -0.04631375597464493 -0.2079304619993733 0.04275286971556925 -0.09711976377243094 -0.0243784551285359 -0.06529712654136302 0.0419287461230535 0.005750435934413056 0.08363364693605045 0.09572003772316663 -0.08814339820407836 -0.1185955291620173 -0.07816033490431354 0.07654025846149398 
0.0009017973125519918 -0.05929910698287331 0.1212206101328167 0.05677091787847288 -0.009477710983933723 0.04880637169092651 0.007635955914365993 0.001386766428438247 -0.009779548679477019 0.01606683609679871 0.0139105453396219 -0.01381210048324037 0.007124010322466772 0.01820654907577698 -0.03403088300847156 0.08513872458719171 0.0596100503528396 0.03565519446995884 -0.006043988636607193 0.007487702059283407 0.0006328842795992256 -0.0387912316637567 -0.04033157602957673 -0.02870992351071892 -0.04403146776389111 -0.02530512765667466 
-0.1274188835629706 -0.134633492803324 0.1484161459098136 0.3210543395995452 -0.1316769315417809 -0.07296158307803684 -0.2362265729448188 -0.04037277524725288 -0.1571826910458634 0.1884120588469888 -0.146342855730732 -0.1322405030146667 -0.01541205495836764 -0.3016660676143416 -0.09004416622949948 0.05342211791133544 -0.1431535425788787 -0.07502347839494965 -0.1277522986719533 -0.006611978065098435 0.001170421259059777 -0.05725646872164791 -0.04647431250748208 0.04303677610031452 -0.09663568566537292 0.1200105601579145 
0.009567811860503863 -0.04618135950480471 -0.04088746309338594 -0.006400738619921269 0.01213645112970658 -0.02496803293407465 0.004193068541615365 -0.04262368661380447 -0.0470125307057442 -0.04415039883464709 -0.004911259195108823 -0.02471636918506116 0.005089475510477558 -0.03201317527527253 0.01831107136685977 -0.03215585715695903 0.007360871392575634 0.01301938145582759 0.01852977306198746 -0.005031015211055426 -0.004138355487377898 -0.009364187078922235 0.04417069307350593 0.01958843186286522 -0.00438176718458464 0.0213056946223041 
0.1666203615497638 -0.2777969075513778 0.03810218514283777 -0.2087370656271647 -0.07655210169621673 -0.1698115380245895 -0.1177355449688379 0.07744463632434809 0.008455417710493544 -0.02404301956316529 0.3902170131764341 -0.1691171182080384 -0.01187892681536082 -0.1265111454580611 -0.006755543718027884 0.1921900941910588 -0.1072070540214868 -0.1795764816772138 -0.09084595010483292 -0.04958178319424018 -0.0061209253448042 -0.1048976925550798 0.008047477127391423 0.1688244766312817 -0.17528547156486 0.1704519208043676 
-0.007179693886706151 -0.01837895969246169 -0.0143586829185759 0.003735538707178578 -0.02049899023869602 -0.006552728824001281 -0.009485728888462051 -0.03767122087588036 0.01147591857083835 -0.02879704433309937 0.05713934606574112 -0.03111282551797525 0.004263376496892023 0.005751458232420972 -0.00143661308820036 -0.004141452228551238 0.1324715329460124 0.01463529769713955 -0.002338266266022141 0.008121817207710894 0.003049083124404704 -0.0638666383744837 -0.03627794513109275 0.02016682414944639 0.00140143963857174 0.02196408946573335 
0.1129044385536224 -0.05969297839081696 0.04417769341645206 -0.1098391310874742 -0.1092820860813622 -0.03637254990493094 0.02183935593895956 0.01354100935509792 -0.03512057824467581 -0.0529240790977925 0.115419379506997 -0.1772628208259768 -0.006091980031866015 -0.06329951123385978 -0.02581974767214208 0.03587251188508014 -0.0281609841522342 -0.02310357574129867 -0.03289826644338179 -0.01826004074882259 -0.01458317377426868 0.02256915002113367 -0.005647616502973274 -0.07593754568210684 -0.07062563355846799 0.06360904073464072 
0.01185505747778814 -0.0649083014971925 0.04806211809850997 0.06277446644431843 0.003846450963192985 0.03575450961422484 0.01702547277794653 -0.02172338398675917 -0.04535855653666697 -0.01062259363953147 0.02204131160696232 -0.02825942262397318 0.005872337470758397 -0.01001009821928476 0.008172110709593594 0.02122261618843288 0.1915884704140232 0.01100076894989805 9.63422858173665e-005 0.003640200710875309 -0.01390400962468925 -0.1787428882866517 -0.04133161550132925 -0.0008654967395295869 -0.04843158881004961 -0.004464887122285313 
-0.05243051312636955 -0.03433823671953339 0.02806270539364967 0.1599518922615618 -0.1164114398534068 0.06788444369167596 0.02364442884363611 -0.2538209594846268 -0.047132423429828 0.1037156638579709 0.01571724296185805 -0.1306332028935127 -0.05932002002338815 -0.3823176844050365 0.09416318377292979 -0.06392811311575507 -0.0332005810283071 -0.1377178803372337 0.07558010878177443 -0.01995012624512503 0.04070994861089722 -0.03439208571611147 -0.1897582247431408 -0.1187624168422124 -0.1717347942034619 -0.03191409169349201 
-0.01095126498796744 -0.02886365081117731 0.00187641161611622 -0.07983473544479115 -0.024319665433438 0.00407455016410615 -0.02253437896466535 -0.05314090677435623 -0.05947752153283374 -0.02520486147192837 -0.001154235783834643 -0.02416508678259353 -0.0007520514673031708 -0.04861447364893273 0.06748068857057347 -0.05366071441649525 -0.1108094971731599 0.05113871553418067 0.01002716950981202 0.001998847959136735 -0.01290250954902828 0.1301253376643199 0.004420257630995936 0.01142885954441205 -0.00342793097390393 0.04597319363487062 
-0.1093216541415707 -0.0310853060683457 0.0327018481853148 -0.03648237063390171 0.02570382404644886 -0.1335182253025114 -0.1350631762349922 -0.1929647288285167 0.02336844877422189 0.1761925252186474 0.000748066717880241 -0.002043287080881425 -0.01877787541589282 -0.1920445396942706 -0.14355046121478 -0.1906648039696289 0.2861817689424345 -0.01060409510372819 0.0349532934849851 -0.01736637319162295 -0.05405601625440584 -0.2744717327766681 -0.05927724699876651 -0.07124942295030859 -0.1811680677896984 0.07670577968311175 
0.04844990033490265 0.0198812526304368 0.004000626188843796 0.03877327356514543 -0.03018047350981618 -0.0117505292997307 0.01387388961828949 0.001369683631680514 0.05247417703770466 -0.03945819917808654 0.006434096229799102 -0.00921604815262184 0.0102513637077114 -0.004054282550242293 0.01835474635639706 0.01401599110782474 0.07773728745749661 -0.0258169991177419 0.009348473624104249 -0.008546422638659693 0.00383914274337113 -0.04247536391242807 -0.02351796832831629 0.007998413291430371 -0.04168808622553946 0.007679448875457762 
0.08960274636024554 -0.08700836917182528 0.01430389472839976 -0.2670281648607124 -0.05241567014138856 -0.09258491595384787 -0.1052784923348611 -0.007472802996033404 0.1989288087588433 0.1115739118210777 0.1066868158172442 -0.03509598243318626 -0.008693601420233009 0.22446953505486 -0.2825210864421899 -0.04269756599415589 -0.01610301933545746 -0.08379220385357564 0.03178039139026289 -0.0380319062287321 -0.06579937603757861 -0.1555720134459376 -0.06351508039594173 0.01271227481236735 -0.1709329603733187 0.1057406514279101 
-0.03189272348643467 -0.05410616927588568 0.04093770216468593 0.0001336126526418215 -0.02328834439146949 -0.003089001074491398 -0.01249749790830406 -0.02853513177685217 -0.03253004071974018 -0.003030571463344747 -0.0073727686562237 -0.05054693624767866 0.007403363460283874 0.01419574125610688 0.01548753930078372 0.04766570984537481 0.03805877757641284 0.02497721290801882 0.03171812881245304 0.0166273466133215 0.01361538919154995 -0.0314889908867591 -0.04531910408471702 0.01275929307558914 0.009847006148853237 -0.02237631313848688 
0.1996444650011295 -0.0315027183789769 0.04493362326940965 -0.04104995809133293 -0.04083277177562174 -0.05764635622023615 0.01677497625086367 -0.03184237692947387 0.1539191337260367 0.06210906550814851 -0.03775128302090743 0.00421623433391631 -0.009548425090236738 0.01280004818448336 -0.1812958882027613 0.04490933313414472 0.01170274155074069 -0.06921005008478434 -0.004728469227579345 0.003500347754399937 0.02761579016873399 -0.1285039806844754 -0.004160395614840005 -0.0538634417501235 -0.1093855430399885 -0.005599198418543898 
0.009989821757848127 -0.0163751826115267 0.03414739218503746 0.06377425726713867 0.002715052452617863 -0.00530282453732186 -0.01763196128340025 -0.03010412944050964 -0.007938222902601299 -0.02012100739157566 -0.002455514751425319 -0.02006075276565125 0.009236601196036713 -0.04537195375658783 0.01284682211942041 0.03138129165420563 -0.1038923459895791 0.04453418214471302 0.03745131859556759 0.01274779117352262 0.02824817199224637 0.07221424528540514 0.009674059005286281 0.0383466967075304 -0.01345953577065504 0.006670713321407448 
0.06868676416848339 -0.2789833458485305 -0.069663635882452 0.1173239295564559 -0.003105770785634239 -0.0778525294624737 0.05380231277436796 -0.1820822698065941 -0.0260054514075882 0.042964704476155 -0.003276671060667879 0.01291301604443534 -0.01413947673018897 -0.2459444378236601 -0.1265146602931282 0.005871961307488742 0.2109487567247317 0.06702925415369336 0.07763562299351551 -0.01851402957295739 -0.06239590593576593 -0.2587575055669254 0.0119452117403254 -0.01501142400712967 -0.08879945490659287 -0.01122639961370887 
-0.04530993580583002 -0.06974494974869562 -0.06488690674001917 -0.02846416233446898 -0.01090089797977274 0.01652449938818159 0.04307061923572599 -0.002668100324686213 0.002210326393229967 0.008787847801709397 0.006418896310504448 -0.01790999078678821 0.001254467025831114 0.03649809718877136 0.02740714583605446 0.005448898701906104 0.184011809240284 -0.02600098989566668 0.0159487446220011 -0.007147393735171551 -0.007555531238178269 -0.08552988683963776 -0.01026133817634742 -0.02105382068897574 -0.04375210538442285 0.01890760029334261 
-0.06938797328686393 -0.1231770867180568 0.03792354882538054 -0.01591862813133798 0.07270585850230969 0.05894616679796296 0.03507552228541457 -0.1675607435068343 -0.2224915571886585 0.1265986243173161 0.04305589770040071 -0.1215550064806851 -0.04764729220980282 -0.1783527414103079 -0.0504132813005759 -0.1190729894914606 0.178257281537379 0.1094821973527061 -0.0255735762386823 -0.02071769988615652 -0.1132376405077076 -0.02748112619128521 -0.0223520328751218 0.1626878502447186 -0.09560952408734282 0.05514770761234571 
-0.004651202644702869 -0.010610338307484 0.0541797502649414 -0.01441364942386057 -0.007459173146420877 0.004526347182018251 -0.02780053566906941 -0.04336433017228893 -0.01535454208943372 -0.01591964622877725 0.01502536818933361 -0.0692452110804512 0.01451291798446464 -0.04224157891972967 -0.03334958252177921 -0.03151321641174227 0.08150145023343385 0.07461590712210167 0.03351286970229331 0.01692674741528086 0.005257650084692606 -0.111311701596751 -0.05593301491744385 0.003632758257692885 -0.0004645017228334109 -0.01260485492251656 
0.06883469151514818 0.1343576661975004 0.02283468117729415 -0.1626783431822709 -0.08131280311247503 -0.1617204043647806 -0.08871360536735146 -0.1360168768208655 0.006827457586715415 0.111190867967503 -0.01720837535354458 -0.09205853700213851 -0.02748400218978443 0.02225127815892172 -0.2465742260508389 0.02997363072824871 -0.2379850079445628 -0.003666483159964602 -0.05610238680513664 0.04974921247691602 -0.04761225932682153 0.07005103011208343 0.02896474081932029 0.2301824091229955 -0.1966870192421352 0.02757949031055187 
0.01683741001959364 0.03853501505862081 0.002351438876610996 0.01396240172261565 -0.01220680970419829 0.01442714179700976 0.02608562521309113 -0.02081177733307988 -0.05374857247650935 -0.0417219160037823 -0.003163517730822992 0.005727757209551175 0.003356212260042804 -0.008207624428756289 0.03990523925870029 0.004761566733798663 0.02284576651673785 0.01383960175309235 0.009183773276280191 0.001101141764222141 -0.003501878419096981 -0.007132693713790092 0.008609888520709661 0.01710194061410703 -0.04679597198677737 0.03893760069107558 
0.07728708226268223 -0.08039448425862847 -0.03340502537961555 -0.03046922450049839 -0.04094870591680561 -0.09282660320752734 0.00420534298954079 -0.06551124301945094 -0.09485561768306804 0.06685582451638543 -0.00777537142829021 0.03766725013946341 -0.02441392736060554 -0.08149921373743105 -0.08401255906652233 0.06726841900811699 0.1829373753104415 -0.07180169395061543 0.008322028956609939 0.02974674716472875 0.03056524249947777 -0.1918225507952269 -0.008533017097935452 0.0448659755591121 -0.132836631033755 -0.008444119932500289 
9.480445779215e-005 0.04334854821872374 0.008800582247162354 0.006988662457407401 -0.0353886728080141 -0.02006434354746068 0.02299614630969855 0.01466225450774009 0.02750875803935552 -0.02783824924301973 0.02372256884652024 -0.02795060461209686 0.005170951981683531 -0.03356442269262439 -0.01900130351015678 -0.000529720380426566 0.07842088538234703 -0.001614060008505315 0.03462233389146762 0.002033630886805927 0.02147297854759124 -0.1031257843594804 -0.036279576223737 0.004265115962533986 -0.07857462661001549 -0.004672103832464285 
-0.09075443941471184 -0.0640476059944875 -0.1394225278566803 -0.0716936763032867 0.03099529951861779 -0.03047055441021509 0.02638387312591738 -0.04889104925823609 -0.04658618601051254 0.0545170704905068 -0.05271155637229622 0.06492522822330568 -0.03852882063520178 0.08200315339241818 0.0281666325214089 0.03243161292366044 -0.1286959999258905 -0.01708638673866671 -0.05403111764873242 -0.05360091596641121 -0.1512494749201181 0.02260628536074125 -0.1160076556964427 -0.01461237817492148 -0.2142398726107198 -0.05481614827967184 
-0.06606094534078615 0.1465228088267481 0.03926289188508343 -0.02417774318143411 0.01556280394255085 -0.0003958734451390642 0.05719037018462592 -0.01463442775216517 -0.07457213383049287 -0.04050547243079458 -0.1051174162341264 -0.04218122717399204 0.005607278169185142 -0.1197158440902285 0.09903816201724754 0.02441150860071615 0.1291742963981316 0.02457358326993653 0.01972647340321212 0.008180244628605138 -0.02016208745435115 -0.07925636528295443 0.01227817514524358 0.02682002995412203 -0.1218101487067766 0.0007175925990157813 
-0.05355752357541532 -0.1254669425260383 0.08855958262013294 -0.304252024943549 0.2619406054212828 -0.2139577967011692 -0.01561133779384199 -0.2134065172409432 0.02824453160400383 0.07469255426372333 0.07000827484016646 -0.01106167414391463 -0.04954104241963458 0.2279541143469933 -0.3181873946825227 -0.05739185160615545 0.0294069937954156 0.1289216488429278 -0.01611833368819756 -0.06897697986318746 -0.1942081346185958 0.2300915577234482 0.06722946243891423 -0.1622025851939676 -0.1175477757661955 -0.1240404723043086 
0.01665138270708615 0.138081009873152 -0.005948712618029228 -0.03759286793551524 -0.02563187638422979 -0.05111489253250727 -0.0198327833142423 -0.07805595939891345 -0.08969329718137287 -0.02007108705648846 -0.1849971076026914 -0.03516187371836237 0.003040580988604019 -0.156513936104503 0.1125734512589957 -0.0004618689966576604 0.08213098632100754 0.1695117013146711 0.02952927023201442 0.002232667791180986 0.009378445894996321 -0.1428011952562198 -0.04006893331503092 0.03829891350322646 -0.09924379664414142 0.02634231224702657 
-0.00526159648658735 0.01776386453509099 0.02807068881582858 0.03048167183467401 0.04159471132873071 0.1300557715440092 -0.1553088441693487 -0.1084127227653496 0.05883075330932339 0.06860830090902147 -0.1294970011152412 -0.03014735548963779 -0.04344603339714081 0.1166827513861571 -0.08322006818473694 -0.1089990556827521 -0.2042573054811981 -0.001538133380401934 -0.03766233567238092 -0.0589572436843695 0.01779107970276943 -0.174841056804515 -0.05224085285819597 0.1484691067280235 -0.2663906116748048 -0.1296808308821144 
-0.02313699869914557 -0.1236093422115272 0.02181859367522819 0.04553321607292703 -0.01934607839724554 0.01739311126176145 -0.04528895274854151 -0.0108982072049484 0.0139597244460184 -0.001643635775501993 0.1231873018326819 0.04342889674555525 0.003138591434849493 0.0462298328911205 -0.1225657318853211 -0.04902791262857133 -0.06778113409910952 -0.004442696775976724 0.03404760944053405 0.003370826114441493 0.05577202065239224 -0.01924024661410045 -0.03348700849712161 -0.0666086426622273 0.1457559934814776 -0.0183448349057368 
-0.02828710476330304 0.1728821350111246 -0.2588373658892577 -0.07037069354798521 -0.06822808112306224 -0.1665736709364147 -0.1539903931132805 0.2165609990561025 -0.107742018782686 0.1599375341273383 -0.2460693002733394 -0.06439933093328974 -0.003261005088981365 0.1981735132043126 0.09228089125120242 0.1100324945514258 -0.2671877050533912 -0.167784272453773 -0.01763431408311891 -0.03162575075171911 -0.2266606483149934 -0.1961116655903077 -0.08667373783021372 -0.03238995070281289 -0.06015461653741748 0.001005253689624782 
-0.02037152858593477 -0.1161070255695066 0.04561893691080389 0.1103604828806921 0.01893388888128738 0.02009116566382339 -0.006945589197554676 0.02739345419896613 0.1845419793262493 -0.02781480503974285 0.180131535780949 -0.009409449449411238 0.01402117733472388 0.1113417820977174 -0.1804030577466195 0.03489784990004707 0.04691758758950018 -0.05106711419057332 -0.02770002671248943 -0.005233225360309029 0.03046201393506754 -0.05816488606283619 0.02854031788912977 -0.07435567735806963 0.1325246471250567 -0.04470075050100589 
-0.05735167059600426 -0.2165540957252801 -0.1913359108939478 -0.02062223429750417 -0.01367866519419434 0.2482589533070567 -0.178277264229795 -0.03350725854945587 0.1651434439488802 -0.08593393645470948 -0.003612478477851468 0.08243161015388335 -0.06020709075176361 -0.1587138825708069 0.2393947257808613 0.06195473374031534 0.04733353155675676 0.09828436495970658 0.03375877974479413 -0.02819516897038608 -0.2088940308403832 -0.01685892150985642 -0.1660743347837932 -0.195835329955758 -0.3472130508513862 0.02246692431782266 
-0.01437545505780223 0.062384173105486 -0.0006785649731137194 -0.007648514523853461 -0.07687599358692317 0.01286152218283129 0.03895241387223211 0.03979683301866555 -0.1274199739606957 0.003106675975265067 -0.01922178813422521 -0.04831041885120816 -0.00317577715841948 0.04208698694529462 -0.1417448777859599 -0.02169333635359462 -0.1093790824213399 0.04474262256722851 0.06429652411836577 0.001542088724251899 -0.03010276849377385 0.1749719653063699 0.01027520053111998 0.0353576455501417 -0.1483959768211008 -0.03785139185584611 
-0.1956624541736022 -0.03554702254577941 0.3079007208075607 -0.3466423233792025 0.16125039510348 -0.1575190939296157 -0.1293398677012882 -0.03807253187587808 -0.1574249851975189 -0.001276456315215084 0.120515624085064 0.2094901294875014 0.07424422386777002 0.08434487693219445 -0.1854990075488538 0.1251574703827267 -0.05036985574633372 0.09588758620982797 0.1114059766406624 -0.07606230981327194 -0.1938604675946401 0.3667116359433901 -0.06007055035301432 0.307532280865606 0.003793102902071702 -0.1495697969552048 
-0.02553734658999446 -0.051644689363062 -0.05180604705074908 0.05708152244105761 -0.1028453854019279 0.0147497695274354 0.08134215760595794 -0.0357880753866275 0.1400319437264839 -0.06169673065217761 0.002622187480581525 -0.08446751568743927 0.02009221487148925 0.05648546007451689 -0.138649720193456 -0.08500326602236544 -0.06760747202665295 0.01468641510164153 -0.00247251052728057 0.02083334394593806 0.01661650463231535 0.1441745696953315 0.0111146507065864 -0.01462811228575818 0.1181213760002644 -0.01956924493534857 
0.1402714421899988 0.1675140903139229 -0.134851029231903 -0.2078831605475302 0.1994151850677844 -0.3122074480498246 -0.02719986046664791 -0.198078960260617 0.3847375874331906 -0.07880742212805614 -0.1864705115171709 -0.1208443387450831 -0.09157579883996848 0.1828509910630167 -0.07706612479307805 -0.1928347740039945 0.1874649867609641 -0.02912172455258788 0.006909375176365679 -0.009524531011449119 -0.03051623241409994 0.144201736377713 -0.09179348309431332 -0.1804745368160454 -0.1974270516259687 0.03216947120225967 
-0.01027197693922545 -0.1415623712697779 0.09372367172428896 -0.008623859778190095 -0.1561629772407021 -0.07885704447947373 -0.04847733280121805 -0.1471543071978579 0.2592199982400911 -0.00207335108311037 0.05777346575160102 -0.1706097979001269 0.00211492394625953 -0.2904967699226557 -0.05466918127812175 -0.03751603580618989 0.206249141042739 0.1224782197912462 -0.09670637938177697 0.001921029296380191 0.04904961408202561 -0.302624005569715 0.02766417579537907 -0.1034807598808792 0.1716296130714375 -0.05179112738910419 
-0.06495701058878026 0.3291124665688311 -0.1424429011261015 -0.1457239980477786 0.09232536343826633 0.3149475307520314 0.0441444093394046 -0.06863928943370908 0.0264617768813095 -0.1628355427618496 -0.5448081091736253 -0.09307962736922527 -0.06937218555937105 0.4118957862029549 -0.07379793386731458 -0.2410847717514311 0.06901578880293165 -0.03286826137468681 0.09184884952923153 0.007754951981815275 -0.01315136692668673 -0.2186105413930757 -0.1084939682184043 -0.05406304285628115 -0.05700475066657546 0.04957346506774529 
0.01676409397928272 0.01313851863046702 0.02290852836329731 0.006263334449570072 -0.0755799958251779 -0.1291210202822841 -0.01404339788570776 -0.001239587302398163 0.08739106015558201 0.01042963056923104 0.03747384976391483 -0.1108955493392563 -0.02196606621468764 -0.1043791891913353 0.08589029872568896 -0.009212579064545279 0.192418054374619 0.1152096732558801 0.01128667829848998 0.005245469504745241 0.06195812627032444 -0.1750871158132445 0.04781398938566926 -0.1760197075285206 -0.0736977184106383 -0.01711303029998073 
0.1676090764837376 -0.2928159316718886 0.2271494329710619 0.1037934157810303 -0.04994351728205702 0.04570742641668846 -0.03039489261915978 0.003678248467218829 0.02980105695704414 -0.0860651894658323 0.0427632428524248 0.03587371293178781 0.0738151509596703 0.09333915336171716 0.1709855494407124 -0.3767688159559624 -0.1084278007471067 0.07502598075674792 -0.05634845013777111 -0.1288420908614503 -0.1191464193240242 -0.0804248330401777 -0.01270565892320245 0.2626781771582887 -0.00687842471484404 -0.0736060375166898 
0.01581625361624646 0.09173343777683944 0.004175149410397048 0.04652886744978962 -0.08060417098988883 -0.07119366431512211 -0.001292569344484983 -0.02703800968381249 0.0184983477450846 -0.06281818797865672 0.06642387794595595 -0.01807433135005283 -0.002314419996335627 -0.1298808765967867 0.003740885856854503 0.03748809818748448 0.1485342151282267 -0.03181522805395071 0.001804003424243746 0.009687966205036107 0.04686079400691205 -0.02823640774217836 -0.0677376927476301 0.09463469437859372 0.09612350667468689 0.03735860597824845 
-0.1964750887997743 -0.1024730532490043 0.2368197893658921 -0.1558776375831778 -0.007956980763880735 0.1506067897670905 0.1195415498388095 -0.1894683166726369 -0.3918809346822422 0.0958201459943288 0.2657226503730628 0.05475310423200248 -0.08843190972794465 0.4645523835315608 -0.4718893069333088 -0.02231841078825864 -0.01889054802917211 0.1582042881800922 -0.1578315666859422 -0.04314119073006367 -0.2356360339736922 0.419466117937171 0.1464520503076708 -0.074562719133318 -0.5396179267594902 -0.2842130908774368 
-0.07500029104068463 0.07259081896623848 0.08731050410114233 -0.01714929505572296 -0.08020475622993797 -0.1242994947248683 -0.07023836042225488 -0.02608932783766675 -0.02579618478420468 0.04620384186258112 0.1505687793113484 0.07864339327880603 0.003862737910061645 -0.09416733453838901 0.07178257386806387 0.09687012033129215 0.06272650314384076 -0.01197321881647502 -0.09872088836924413 0.01366871776954698 -0.02061748262621714 -0.3047829200226053 0.03002382032633117 -0.02210275998838343 -0.03858600187198444 0.002935777138867423 
0.1082497722272561 0.1811427105523498 -0.1681017878428565 -0.2478904262168567 0.1082005659328833 0.01521222384275895 -0.008144148431008162 -0.03808364099718125 -0.1198270492524075 0.08515225687695338 -0.01228010326125474 -0.01521834795653474 -0.1199299059094429 0.3716146018190017 -0.05942251977115297 -0.1610941719962777 -0.1150577634538306 -0.02224991662749961 -0.1616492911218366 -0.09737827843446557 0.01601514114901494 -0.1686318968439872 0.0980818599805155 -0.1931516071606899 0.2785932240427934 -0.1359520235048166 
-0.01986091731450697 0.09756163717587162 0.03062006850098522 -0.004176879510020453 -0.05369947253508997 -0.01008761902820762 0.07750254948006677 0.003183380696157203 -0.2673023527595885 0.01112012050476558 -0.08369051383391346 -0.04066555041263027 -0.002607621864297914 0.3163798720131206 0.1771211734045299 -0.08995979646365197 -0.09458534043628757 -0.1078695418261018 0.08789603377219832 0.01961841851365383 -0.05639892115879815 -0.01072094946613072 -0.003336312988868337 -0.007859532371482424 -0.2328101291338921 0.03505913351903011 
0.1393621150872492 0.27438265067801 -0.1297796989713971 0.114243076612363 0.003775739237587375 0.1316133145756111 -0.27132887310264 0.1071564023968431 -0.09528264868899249 0.1341798799152763 -0.2472056293159436 0.01327608778509682 -0.1287230914152067 0.01788732691143161 0.4830134566673365 -0.1347566102373628 -0.2150599372698146 -0.1025020907322348 -0.1091773655934163 -0.1291048838030105 -0.08456831660403849 -0.3049118294505934 0.02213599700698155 0.2323692214536536 -0.03614134451922439 -0.07836823985344495 
0.1391504994250012 -0.006946258740517707 0.0572955736819785 -0.06630238112388007 -0.0122331848050424 0.06401530168316655 0.06441660628330011 -0.09413245459846649 -0.243505535507846 -0.07919704997231358 -0.005534027228825526 -0.03940126757290206 0.02254085794448339 0.06884081473081198 -0.01485981536630043 -0.02444265198357956 -0.03943793401951619 -0.0298328547291475 0.1029777403428809 0.01986403743846454 -0.06271642845318637 -0.02498786727637308 -0.1043208791625789 0.0838861294265463 0.08658902454931546 0.008649948643327453 
0.02543609947899995 -0.02804195721879477 -0.04688998470304777 0.153094520479924 0.04798596091629914 0.1538738640566163 -0.1961116466913355 -0.1247869728067059 0.2536697646819968 0.03620330824272038 0.08869650664021191 -0.06218582611375963 -0.06924673385242602 0.02085448322438773 0.07139890542961154 -0.1289664054762545 -0.3588736752558356 -0.004365284062128545 -0.08584217223278998 -0.09533973158156137 0.05700621516642446 -0.1945849748586314 -0.07409541689293483 0.04917952488353315 -0.2298762598126564 -0.1678856950279853 
0.01652073612285623 -0.03268891878393374 0.07517426186547907 0.04350309867922886 0.1095111934829224 -0.1262933337903406 -0.002751130325366515 0.07500023113390293 -0.03190686277588644 0.05157949876664889 0.03353610381682536 0.102592616724142 0.01963828571627738 0.09858396040215998 0.008670217809649614 0.03046465733974629 0.2160170998558089 0.000828413556903264 -0.0286905760434916 0.001470621185534777 -0.0121012475523701 -0.3629877416081709 0.05999110883321398 -0.02742170689034513 0.02516010120478605 0.05435886368560487 
-0.2254465826637506 0.3563709640497937 -0.01927884126528529 0.08717969749415352 0.2701708522765424 -0.004485187147958785 -0.02749317378874926 0.224450401494706 -0.05267167939172681 0.1111564108167886 -0.07956504429050665 0.3151887338251024 -0.08959104289046412 0.01974090923401233 -0.292601330274792 -0.09032870517234434 0.006040679230902482 -0.2061039744335646 -0.07510981688745751 -0.07905795010192558 -0.0622522004170374 0.240710947509725 -0.005510891088375068 0.1617872095381096 -0.3716295792109878 -0.1349901329739237 
-0.1176574867885279 0.117846437506461 -0.0738202297054516 0.0765686823240212 0.05709054949516194 -0.06387307519407844 0.04548798424004945 0.006634387851302851 -0.2101966384118383 0.00435888368594028 -0.1177573591873565 -0.06216401476805192 0.001138014840952535 0.0003591322173701473 -0.03766658460054899 -0.05220591572337149 0.003822244323315882 -0.03213339039604454 0.1019400653589842 -0.02630910099629243 0.01137083602523659 0.03797715541825352 -0.1372415364957997 0.0217800562202783 0.1571251600311447 -0.06157680778512462 
0.1416068433204184 0.3775099596250465 -0.06922930881986239 -0.09841187721806961 0.2068764941105784 -0.1967445285602603 0.01060266317793573 0.1133864013904766 0.06277500615409642 -0.07027851923758206 0.09113811658845522 -0.2777503956531985 -0.1190910836867658 0.08777122372297892 -0.1429280246319184 -0.1390139439625865 -0.02459346250778285 -0.072164980916195 -0.1587288423910129 -0.0450541916327423 -0.05856280998048632 -0.2540193449288154 -0.08601744408946728 -0.2335297989182506 0.4321869688150739 -0.1236150273696973 
-0.01315640410481 0.1313932726355259 -0.2674202674323988 -0.1399876337327381 0.09792087402751074 -0.06636326663718874 -0.02094347335632542 -0.1256173970543399 0.1111358505043889 -0.05883749359538538 0.0214509739753172 0.0009779797062627372 0.0203988944088311 -0.02942625581992011 -0.1461496976217535 0.06656139825948156 -0.3538353377843987 0.1183872120916095 0.03409355673715081 -0.0326096655555017 -0.003211731700215175 0.2354415733375878 -0.08008477130742138 -0.0007350326534931729 0.1561731476894769 -0.08270619946737928 
-0.2523328161587877 0.1029294043141648 -0.01899097223302627 0.1905150018589032 -0.02213098342735748 0.3683582290601654 -0.1256533950749667 0.09555169169572174 -0.1501142596795442 -0.2049929875613115 0.2410756169545393 -0.06448894231761522 -0.08315516158853287 0.01187777839355495 0.5641464359938796 -0.2104773670497064 0.003105617739320609 -0.05454652129653083 -0.07086321769421704 -0.03361185919980823 -0.2650569847541065 -0.3262909371609862 -0.02582553084575615 -0.01752513759661733 -0.03071254144886569 -0.02739264222691014 
-0.04081796904181127 0.1040081241343109 -0.1653884004155824 -0.05604824691987401 -0.000798841102478469 0.05996719790378803 -0.05596126767762887 -0.09950137541070919 0.1306334422515687 -0.01334855158091407 0.02687406336529948 0.05360805923600856 0.008537290563151834 0.04764795541141002 0.1017617740396931 0.06799925702966078 -0.1065964102277733 0.03231891626619362 -0.04591186843694197 0.002403854084546719 0.001928507371311068 -0.01771794960075376 0.1413023292487581 -0.01158777528507271 0.06518543615083601 0.02316506468225239 
0.2052432266608905 -0.007314248329782398 0.1052516206071342 0.1777173712632662 0.03894387859123499 0.4145150740266919 -0.05353862157600121 0.2882122030971561 -0.07509417950754301 0.05996681186395825 -0.02117618228416977 -0.1597877359952472 -0.01998858915749744 -0.1946424250066342 -0.09363943266742719 0.01364095624222721 0.1315538073361881 -0.2710318373791478 0.11508401318444 -0.07002608398614285 -0.05334098362362663 -0.407194753726687 -0.3334708803550972 -0.01907505970305583 -0.3477887183385227 -0.1103702280478397 
0.02633633620929425 -0.04791439838187971 0.1267536058448543 -0.03723990400343162 -0.03106835266718061 0.1503260705998816 0.007767315501490357 -0.09037365705128084 -0.03757322276204834 -0.1049203378323515 -0.0593196734400837 -0.03608092613184014 -0.03581307698982378 -0.1405851302437012 0.07903207740488609 -0.08360250183031177 -0.2549397816901129 0.09878037516904083 -0.00669255391881687 0.01887088793577835 0.05094428183552253 0.3143958035195127 -0.143669776537112 -0.1106051280804886 -0.03667768343980641 -0.01248643272777509 
-0.1377205730569922 -0.1723580231867773 -0.01706395178027552 0.1903431422381566 -0.1320203246451932 0.2986385279677304 -0.06405823541118416 0.3806202441935338 -0.2921786560385266 0.2724628732168355 0.004347638896147372 0.08063069018211691 0.08184179647219148 0.04474091137363448 -0.1568590118559816 0.06432635368952616 -0.3328622134787787 -0.03692258907425986 -0.1287995425484839 -0.09438757459829358 -0.2699879089672234 0.09314708472712954 0.06343444431517233 0.2206404202106922 0.07160574551273342 -0.1388426347339848 
0.1248858125724619 -0.01286416874861562 0.08510928719006518 -0.03848846965408534 -0.1623127519802491 0.1683237843153037 0.02938755215621326 -0.09176173476882522 -0.08101346320936594 -0.0899190102227341 -0.01840873218888482 0.07045376541392924 -0.01926478856235387 0.0134784006728255 0.02010234837265408 -0.01654122003537072 -0.04256366105141969 0.0554093360328744 0.0289869662744693 -0.008030032256085963 0.002865889729927974 -0.0009840524900356345 -0.01489715716497354 -0.1261859497684894 0.08950539702103547 0.03209392202223341 
0.1722891731829985 0.3421613679098137 -0.2274732581506436 -0.4353538375430775 -0.1440519775216767 -0.5829385403229583 -0.09598397143770142 0.1301638111479949 0.08678087310205222 -0.0147268979648518 0.02802235119560734 -0.3640724858969071 -0.02213750524340138 0.08694965039154179 0.1735994283541235 0.1300731140683214 -0.2540142909210927 -0.168412934122182 0.05567118349300183 -0.03562994518193637 -0.4561147986722553 -0.05760510706220249 -0.06260436751300884 -0.1689728431110856 0.2945609570151481 0.05412025203675135 
0.04926431374875052 -0.1363966542138662 0.07778271241347957 0.1959565089430067 -0.07287134314362995 0.2107032279648061 -0.02845045182111382 0.08741102479190394 -0.2890992642747149 -0.02736742539200513 0.09564395293083687 0.06955249943954332 0.01019474613035425 -0.006447339922313191 -0.03952819018241804 0.06858263499696914 0.1296164815487566 -0.06923181842719521 0.0005323401757974177 -0.02496435709840512 -0.003883995755598971 -0.02035548793145351 0.06473214144950595 -0.03623931990811872 0.1629807819462935 0.06207852624487523 
0.09836582745653502 -0.207854691270525 -0.07639033999877933 -2.431957426680879e-005 -0.1188670193121204 -0.1888949913368582 -0.1318493180496242 -0.1083480749307731 -0.3251501925839013 -0.1282282439016191 0.14375823971905 0.1401695718449133 -0.09485693784722883 0.1810016321731354 0.4875443727970655 0.3449523379635278 -0.03451181460648773 0.07431941970883697 0.01452687895481637 0.003840762137735254 -0.1597220397085598 -0.1586223023180433 -0.266772557418259 -0.0882090808499221 -0.2082603581238814 0.1926573992139906 
-0.004401897252632323 -0.09379634676734773 0.0817156430023524 0.09231472954706924 0.1412279032501577 -0.1904807159156679 -0.01955393883738334 0.1648244367059969 -0.1164417015736973 -0.05159102377200103 0.1966871385652466 0.005641832926405177 -0.0001461512308100044 -0.02616915141354621 -0.1161733174157015 0.0559666417214169 0.121632776715199 -0.007884786894566025 0.01866282166878127 0.01131099583204503 0.06298440329468989 -0.06276184136660361 -0.02824225924688015 -0.03284875870850296 -0.05448111480997278 -0.02689859766317617 
-0.1405378917028128 -0.3020734671773563 0.01996733920673894 0.04096488681523588 -0.01008414522991072 0.3003132160277383 -0.03536603268989029 0.11593320559902 0.175638010619765 -0.1087568886994259 -0.04334317096397142 -0.08537836078487275 -0.01759097243008044 -0.3791546749972109 -0.08664006247439098 0.06573706239752321 0.2086403531788769 0.0685524892892153 -0.04089646866187259 -0.1083853595177867 -0.03027314845682579 0.05813421134610447 -0.02655180757662437 0.1650621136173081 -0.1665652702674237 0.01562781483950231 
0.0304347424569404 -0.01261661762954229 -0.0827322841974375 -0.04622757480127065 -0.01614038318583669 0.01523680166544511 -0.04215611009430129 0.01300352921180349 -0.08725295478332454 0.03214565297166782 -0.01364545957116873 0.02145603568467705 0.004160255076157837 0.0242124446854365 0.00377284289611591 0.08465990815307367 -0.03428355269122124 -0.005464251672524911 0.008199063323017708 0.00567913962994482 0.009047891998574613 -0.04515076153683768 0.08959746776816724 0.01836847409773828 -0.0488856208567816 -0.03085153118344292 
-0.06809860599466677 0.1322297504254289 -0.07611715468909512 0.01401230583048613 0.03206747001760459 -0.100705041060798 0.07831196829497802 -0.09332761286000366 -0.1551036962074042 0.1457380859548384 -0.04980472863660407 0.1434877921110803 -0.01560231491168395 -0.1698588396351066 -0.128399515116568 0.1443178786575609 -0.02822951964537455 -0.08192042329615493 -0.07451796490923543 -0.01535372091173397 -0.07670436986115138 0.07107375033046937 0.09954927903111797 -0.05120254763899151 -0.147645328635778 -0.1078800644017389 
0.02987049909468335 -0.004411665282208079 -0.04118212600282592 0.01635764626470606 -0.008884969728829482 -0.1181053645221834 -0.05541786196705729 0.05230368014435104 -0.1769306399667852 0.02838374262292848 -0.03148052916595814 0.05578885667207592 0.007202035618728208 0.07620763939842999 0.1237296281321243 0.03669855763422873 0.03467464484873063 -0.03386607895324349 0.01333560121138099 0.004972142342050835 0.03047864427463562 -0.04792484990864518 0.02337231203213799 -0.08313990107134121 -0.008824579331709093 -0.02229468593199301 
-0.01642966909985813 0.192783222674344 -0.1275681535327889 -0.03439832313893001 0.07204210394876309 -0.03735781259816171 -0.03654260378003157 0.09144418488118211 -0.2793864022345291 -0.02121392016012589 -0.1189190048240903 0.04126595573140662 0.001683037819017952 -0.1645908749425044 -0.1059492781886054 0.06980066371570842 -0.08792031116983144 -0.1013931969038422 0.03581521992559681 -0.07266597737131761 -0.06072345728528659 0.04873201950158823 0.02921949453577074 -0.2233130451248123 0.1268336673434698 0.01063212356158561 
0.0009090924643621362 -0.02620459459260294 0.05892698126180919 0.1094824327799022 0.03476082695171721 -0.1783114957254368 -0.0731246589656115 -0.004063109057389996 -0.1126505368484213 -0.01366643076049699 -0.2263920840074079 -0.0130373150701273 0.0009722143359858021 0.01415298259802082 0.2580878409053498 0.03280205684336291 0.08452785977911906 0.05239113493476947 -0.04025054330144537 0.01005826334170454 0.03500180910574263 -0.01511668161995306 -0.03016215017101332 -0.03664968451564171 0.02706057097583923 0.05580420481068707 
-0.04901237069892658 0.09956690150301648 -0.1114314235324591 0.1532638010031329 0.05968796740404824 -0.05097996798753209 -0.05261834570664541 -0.06367884012685332 -0.3205325771098549 -0.06773525924999414 0.2469086208460103 -0.194452933427824 -0.02648771393515342 -0.0193262749042754 0.1038067902637679 0.09792571020345069 -0.1902440178261721 -0.03080117190174703 -0.03475875001625299 -0.02090913025208483 -0.04913688013092477 -0.1820418390140512 -0.01773565914142659 -0.1623726628849665 0.006571339121747201 0.005028935208831746 
-0.006336106423170796 -0.05472228505463447 0.03579166578420159 0.09618796476615134 -0.01328319993658776 -0.04443236421348672 -0.04748499491589565 -0.07311020848673773 -0.01222044177738994 0.02569749062384822 -0.149662380410347 -0.02807389535072167 0.002175372024646628 -0.01444752755256495 0.08071073356748888 0.02866537145102184 0.07684199286676366 0.09673585676767918 -0.0148922499782204 0.009538253390246445 0.01302862549697881 -0.02160946571935531 -0.008201288438144881 -0.01801464397735423 -0.02168527005272304 0.03950858927902009 
0.06242456057128637 0.03630977448823173 -0.090285130574075 0.04442433685066664 -0.07889957265880489 0.1298898240473851 0.105116392485508 -0.1047420825804815 -0.2266375383354053 0.1087883741351559 0.1334221300259177 0.03346139917076258 -0.02453069184216473 -0.1407866701488056 -0.2197875718657288 0.02726182203996492 0.07467034672250279 -0.09701064559976899 0.150078890702698 0.00512950722597025 -0.02614044777462134 -0.1358446885384986 -0.08424402272879358 -0.08818754537514606 -0.176770689164511 -0.05272007496572199 
-0.001999082631728183 0.02870425906374069 -0.03968958587672519 0.122718239003886 -0.008177700126028359 -0.08210820376332959 0.02391653527873118 -0.1060529628986691 -0.04495262459390461 -0.0131161328084935 0.02682576223786231 -0.02847130574793814 0.0108270710794818 -0.05949128029986606 0.07644814028647146 0.01746671409027155 0.1243672418179433 0.0001235395190478813 0.04272761411885058 0.0006314837737916198 0.02250689910261556 -0.02021818133558414 -0.01812497336918217 -0.01557061243954981 -0.1147633756850561 0.05265559392595339 
-0.05450334818470665 -0.2065786237608339 -0.1529298306023288 -0.0196954456469483 0.02001575372778881 0.002431104681242954 0.02932810504644141 0.1479308735188825 -0.1265377426055211 0.08805273500756725 0.02058701467876766 -0.1046702323160948 -0.01254756044383289 -0.1828934682578866 -0.1208101773560522 -0.05695017930924764 0.05357106674876067 -0.183598282606579 0.02390888541149276 -0.03248019653041542 -0.02652851664346468 -0.04787991862600419 -0.05817891416741685 0.2166508735483566 -0.1168755877092303 -0.06922744793502404 
-0.002494152391406003 0.005395650237860372 0.06167457227875596 0.08727474958205048 0.06962711468007186 0.1181435145676738 -0.01513711098926993 -0.1596100025735946 -0.04499674311942316 -0.02619329100165581 0.01810077785511718 -0.01108145702973242 0.009228987714153546 -0.04087043256002304 -0.1169153166237639 0.09841012549034328 0.02920572433162321 0.1382973512222102 -0.01044934388896003 0.0002121515407900544 0.03010997682596268 0.009382132706114061 0.04915252588029475 0.023375345657995 -0.1996165903911322 0.01713929862913071 
0.02444391975167564 -0.005649577091913752 -0.06954374961646562 -0.01446994610336157 -0.2082086459117431 -0.2044523095881198 -0.05078866999312978 0.265508763230799 0.01141766378071072 -0.0642078461975449 0.1075768983997587 -0.1318131736832797 -0.007371799884477693 -0.04069630335902546 0.1780259045762061 -0.04732960572759953 -0.01013675598381883 -0.0958492224871703 0.2558343931268481 -0.03121000342350386 -0.1482341512323982 0.1469707136945259 0.1631946396695568 -0.1522548593419838 0.02562559678473507 -0.009157246676310441 
0.006258152920921927 -0.05830910617530391 -0.01230443240012441 -0.04239793499527927 0.06241630751383332 0.06220293402431577 0.03063852705446658 -0.02055555942046148 0.01756726259051649 -0.03926740625407928 0.09547706446622011 -0.03279904355091588 -0.002079806480977893 0.04103205829286083 -0.08240176615109193 0.1343559292591059 0.09687925455996195 0.09044921152770968 0.03775188991258079 -0.004289159894579479 0.02351435367750794 -0.03260487784853557 -0.05269395815098762 0.05866148126223825 -0.2798258205072514 -0.04398659451783236 
-0.1236771156985465 -0.1945767906200472 -0.06042466615372355 -0.006827110668303093 -0.08934670761975017 -0.07594571259702042 -0.1485677381431535 0.4106192485334424 0.2215791800305692 -0.06817352890632238 0.1590238443480776 0.07543157828819358 0.01848394338174656 0.02131322884234533 0.09858205283734811 0.0180013228898159 -0.1366009176196608 -0.00346084944470621 0.06969569831187719 -0.02843911111015868 -0.1222726837316479 0.1880339362174004 0.004990357216560066 -0.210492568979698 -0.07900948047702318 0.05773294577133979 
0.06189753419444449 0.001986326977546394 -0.0001370367959078776 -0.005028775673688686 -0.04573150960899755 -0.08092785739501708 0.0271503818978055 -0.02976682422553409 0.07447218272565111 -0.03950743739321891 -0.02917758761450381 -0.06369948503640499 0.01000285367572999 -0.06135470587078033 -0.1256584155514824 0.0008961932334769514 0.02786569234714846 0.06826426114138923 0.01651759085229365 0.02393492364630523 -0.0224244324758561 -0.1142032814069943 -0.04327871447342591 0.01170379701247155 -0.05185612393453243 -0.03916559573366981 
0.01838047174064064 -0.3341898769300027 -0.07170254347208216 -0.0914809219988446 0.04736175537576334 -0.06356475629559547 -0.1072300737361211 0.1669407307011479 0.2101715551736647 0.1595974498742727 0.06158073070198219 -0.01444221438029391 -0.05319712741795044 -0.1457169223827347 -0.1771621553440082 0.107585520802638 -0.0898137779979289 0.019480553531725 -0.1064212440886528 0.04467440266308472 -0.02126546248913062 0.02279505951728021 -0.02261976156917132 -0.1045843742521131 -0.1805556272971586 -0.1254754913573435 
-0.05209402842498263 0.03991461004908763 0.03764695938686456 0.02738975890713421 0.01060895211233006 0.06142788643460749 -0.007985187311769967 0.01888326301263341 0.1080085594483043 -0.1317162243767467 0.04193177613127149 -0.01128093370454099 0.006407554479111319 0.02609607529826997 0.0014340522499315 -0.009569248124229216 0.08347889196562817 0.01497460013624385 0.01545629774468808 0.002980780333543464 0.006307094912376745 -0.09963023990504519 0.008412283979893459 0.03534100529616761 0.0142054733335097 0.005006191276899151 
0.07122435951323845 -0.2497047105690308 -0.09681902216460628 0.07685322559167812 -0.01004920836065659 0.04688093400688622 -0.01251055627523964 -0.01362461414231851 -0.1045159620715832 0.2862344065129147 -0.04483969012327362 -0.1099882510625163 -0.01381914888846219 -0.0307444427481764 0.09835455782959721 0.05457309272134198 0.02147960455138009 0.05372959861582889 -0.08506077235888492 0.004825563624914815 0.003015933039749833 -0.01118554270191845 0.06054327957264902 -0.1088131326739585 -0.02361654214465488 -0.08793792289291684 
-0.115903941361345 0.06896270374417407 0.0225030902150385 -0.01546688298818259 -0.06024087827388321 -0.06504049272905704 0.05126157716952719 -0.02762008217989962 0.1876949181644824 -0.1404244279361812 -0.048328545670327 0.005722914339558132 0.003618310181238019 -0.01384716201004247 0.08185601578449978 -0.1230307449802228 -0.004063432499738708 -0.02366252014832861 0.01483181083884752 0.0004440794486771198 -0.02487293682309349 -0.08023584168128642 -0.05398391644678392 0.05290075146381121 -0.02139815159303771 0.01769010671259582 
-0.04115626629938112 -0.03194665599453092 -0.05255062153489607 -0.1782673404508413 -0.1693776047883718 -0.0739543812265706 0.01231624237410159 -0.04697999715819493 0.09701968843668476 0.1461818551217264 -0.01117434903894444 0.3081172567109633 -0.05118978049843369 -0.11380408987581 -0.03728520982326448 0.306291290102672 0.0497575456203848 -0.07997967979670327 0.2748683356259061 0.02979370052250934 -0.1374756409274473 0.1022510708006713 -0.05354973327318836 -0.1049743771809612 0.01804714807016444 0.001500144446541655 
-0.1157516161040523 0.05538054692814959 0.001699609263789563 -0.006324535744898852 -0.07467030351533456 0.01843819011901918 0.008571738609414436 -0.02643834202963567 0.02049561094939565 -0.008071830213716614 -0.1767587097297088 0.1346918511989259 0.02881431381471921 -0.03987941793939612 0.05377747327157566 -0.1891265117865633 0.1131826133233606 0.04126736854788955 -0.01660189247374327 -0.01927816272464494 -0.03398938400703797 -0.09549977574690072 -0.06698295016178714 -0.002889708994564672 -0.0524453912613277 0.07568357444769165 
0.04370192242303542 0.04115601447214968 0.09724060469436423 -0.152648750049459 -0.09358729511237668 -0.005557565240671246 -0.1946623121984496 0.03450284540341414 -0.1997952658858361 -0.07432041905081997 -0.09746179051483794 0.1916245210602671 0.03478350558487422 -0.1452122652937028 0.1484765531301983 0.3096053140904742 0.02597461044771428 -0.02508390768715478 -0.01225606341639231 0.0209706943198358 -0.1429116709423165 0.2029600267999527 0.004367417041448197 -0.1370664729747788 -0.05099926500252919 0.1382505496056759 
0.02794423065952629 -0.002902277370636244 0.06285109446726675 0.0246434804131874 0.003821611315314558 0.1160714546344434 -0.03466776678338573 0.01471422374615403 -0.1094340600533858 -0.03747960669758804 0.01502650123280975 0.04340336565758789 -0.0226589496880644 -0.02938888101049129 0.1759666475425675 -0.08199606478785798 0.1201256177961052 -0.01647092492675964 0.0583236917875641 -0.005087687215667662 0.009771558838697212 -0.036052728901344 -0.1074408564697652 0.05829059934963345 -0.05198817965659364 0.01718020861149227 
-0.03690649548838759 -0.155715862068869 -0.07453702914821593 -0.2244606559264425 0.02322478445603452 -0.003705587396884588 -0.1028100424456945 0.05829823384460466 -0.09179983559243068 0.04363192965746029 -0.137571578763407 0.0735599130569104 -0.009151104143770168 -0.02555584137304732 0.09383222318206441 0.3316840871894065 -0.06909156398075041 -0.06970464016043851 -0.09703528061093689 0.0076317456425871 -0.03383084509362162 0.09478348711935856 0.185522655456705 -0.04370265551681195 -0.1307375817382316 -0.02377328747627364 
-0.01361159354110553 -0.009555141150617529 0.006598720872746946 -0.003397058219887021 -0.02445499375027315 0.01542231895150609 0.01975031924051464 -0.02384997024201153 -0.04344884117490355 -0.03066368074614799 -0.0006078096849850405 0.00109224165600558 0.005355185130980615 -0.01470157233876723 0.03995880538742999 0.01167597793796934 0.05108436028310213 0.00423216671045763 0.01154288894404521 0.01588849506759237 0.01620974857073728 -0.02240039462380348 -0.01804706336494076 -0.02174832787422697 0.002732284329660256 0.0003466466946127612 
0.05119939900924403 -0.03344083676633995 -0.04715928946258943 -0.07832092813471298 -0.1079293235315273 -0.03294655558286828 -0.0004703549772063261 -0.03177412512159141 -0.01743418200189866 0.05606602841200593 0.07386341979718619 -0.1121308156404061 -0.02124847263529819 -0.07823301718078642 -0.07005957509529366 0.2694827184900244 -0.09227525962629489 0.006576002110417201 -0.05882077471092823 0.02015663497303572 0.01904888785739091 0.02144732267582613 0.03941553984130131 -0.0003323072049975327 -0.07776545237290067 -0.05542497786636884 
-0.0127012968381675 -0.04472750511473313 0.02966773833160326 -0.002585521368654692 -0.01005035986744503 0.04272411269293153 -0.008097763089251439 -0.02687670168702808 -0.03508275988918402 -0.02066128905373494 0.0005099925139591075 0.01572285796682657 0.001587064932715551 -0.04222043984454395 0.05157171758879229 0.003998558849340772 0.09057043177732489 0.008406649416500937 0.006028984927936395 0.004368177042990903 0.02582980896218184 -0.02220193808923042 -0.002079091075998639 0.0004270924940174752 -0.0268640035020347 0.02288084779568085 
-0.00765100360288288 -0.005575902618402633 -0.03166060106083377 -0.08747449640840495 -0.1401236440937309 0.1799191102999359 -0.03437951688432995 -0.08277899655922717 -0.106340245087335 0.01160759289757974 0.02226265921517125 0.3485186364138248 -0.05071794391712106 -0.2446232223136638 -0.06514781882635531 0.09349949168526482 0.1230994978351814 -0.04590890910487884 0.03562316196642586 -0.01214586464902689 -0.03024033561551243 0.1643066397071942 -0.04663897081023116 -0.09196412508400022 -0.05068335738705149 0.005405859296369048 
0.009991657706110478 0.03937149081299149 0.04969729724190138 0.0426858392237186 -0.005246360468662218 -0.02378619608273535 0.005973471959183399 -0.03513586622388578 0.01580122951567414 -0.01954494147406136 0.01051508725958105 -0.003530372840424447 -0.01804314666113555 -0.00289907516326494 0.06830964423409149 0.003718010935051554 0.03878576313813787 -0.02600871339274015 0.01578644752512777 0.008006852499405193 0.003811722768386021 -0.03226859388536555 -0.01890443986341452 0.01216329101960509 -0.02771856151851445 -0.00922433306293778 
0.02190583505059815 0.008765654783766631 -0.0101414663767628 -0.05776553175605793 -0.0605240779025191 0.05383015268025723 0.03436079738839001 -0.1079626221968677 0.06867306776088401 0.116204498757956 -0.02972845788245009 0.114496883435001 -0.005696224941628829 -0.1634012049867912 -0.3067429239895749 0.2258253910264888 0.2939031177415074 -0.01538636353761355 -0.1422874252155522 -0.004226437294925409 -0.08076140395305234 -0.1426338437971634 0.07578420193515106 -0.1355111676028832 -0.09160296751812053 -0.09518906584970274 
-0.02548124302004906 -0.04704489177427537 0.01687347751778208 -0.01525550133343555 -0.02539967892131629 -0.001789802840866754 0.001529075491811561 -0.04245284237022246 -0.03409684809974851 -0.02440388308645538 0.00478665218367494 -0.04332332068300689 0.02961824538783098 -0.005090515448802341 0.006283847738567537 -0.001310007143436514 -0.01308500431767011 0.02898856007805315 0.01773240124652867 -0.005600926175943048 0.0002133696701156518 -0.02434433280240854 -0.0398926477856513 -0.01593880827129858 -0.04373932653868667 0.01814903998676102 
-0.02818777694019339 -0.02396528540325426 -0.1795210121899777 -0.2176697681002494 0.03309250747759356 -0.0609996960325794 0.06918134958492399 -0.1658511430662411 -0.01864970772505631 0.1788410918943001 -0.1198051862596523 -0.08591145301595993 0.01205293212114163 -0.1201676429736082 -0.1363756386090753 0.1137297439964876 0.04773962103013472 -0.1182542613907416 -0.0443538581683405 -0.02698784275140132 0.03150393965481756 0.07702175005029957 -0.008283352871646223 -0.0957387775702081 -0.1100547877701584 -0.1092778010918386 
0.02510864277806653 -0.02907202846256064 0.008799320431101747 0.01090931092515652 -0.0211089646207453 -0.01594385790783287 0.0127537695071437 -0.01614210805029173 -0.0700057300335134 -0.03515175172884862 5.878746674946872e-006 -0.04476805668267415 0.005877769942639733 -0.02752423755671869 0.02176196097348398 0.007367458831357848 0.069248126718604 0.04313230580913952 -0.003199594988133239 0.009510391591687893 -0.003884604905993335 -0.02095356932103785 -0.008831268988338284 0.00773574945645613 -0.01659284040062909 0.03138629916432384 
0.03425697138754893 -0.02864210600363255 0.2428381057334612 -0.2005817744997623 0.0005066668443487954 -0.03512230092058501 0.1985196628364705 -0.0288369114674567 -0.04303199464654699 0.1204057906699502 -0.05041316917435405 -0.08574368502493218 -0.002444944619682039 -0.1770791947698436 -0.1126684697735167 0.06412590142299877 0.004884855643476418 -0.1519200966894971 0.05286622950540548 -0.01640039589108613 0.04708175988671268 -0.1100783881867216 -0.0817218252831618 -0.03099559422112344 -0.04995195679345883 -0.05487362493596158 
0.03382643530299886 -0.03496796346717019 -0.02079468108637176 -0.01182135761564132 0.001228296133672428 0.0005807079659655578 0.01557477522907277 -0.03293499617317382 -0.02738804370044048 -0.01101879649541077 0.005174166542537526 -0.02960565952702639 0.01236665076965333 0.02320772243255125 0.0360123198360244 0.02550775906594539 0.002006862512581907 0.03834937263942452 0.01490152895364989 -0.002921506213339017 -0.007233030447544139 -0.01326923096577858 -0.008839191533934197 0.005589348849852527 -0.02834361063882583 -0.003133089678681753 
0.03697431189539882 -0.1889277477574651 -0.07051044620954085 -0.04797090760475965 -0.01046231298199126 0.1321772153195973 -0.03451661435470423 -0.09372754758055907 -0.006673140800515769 0.03103488477318645 -0.0496575417039464 0.1116153916390073 -0.008229575915249993 -0.1584048024949587 -0.1640505142657698 0.007145382927520642 0.25370877981575 0.0513017952616782 0.05181900697572654 0.01700260323517252 -0.07167843141685491 0.006444604172482072 0.02762197050683926 0.004572306079422123 -0.005944180427084416 -0.03859908398699875 
-0.02032141424749781 -0.04442868124521738 0.01596815284658756 -0.01676164490882562 0.002668579535777256 -0.0220778782001253 -0.003203749544209048 0.002557174736292754 -0.02525913774015486 -0.02062307773227747 -0.0007676685494494299 -1.627126118933772e-005 0.00774725707705547 -0.07690988009442792 -0.005247247165919631 -0.01205669652527078 0.08935700795041437 0.03952384233473494 0.03071893688540404 0.01512594522604834 0.01074325715313932 -0.09583165925412761 -0.03240379159105012 0.009023816185223079 -0.01729120563295276 0.03210222808213699 
0.0585628205446527 -0.008790435626059696 -0.0969721570733118 -0.09086976351109247 -0.1388790865711765 0.1199411865202512 0.02749091786028441 0.005173285261751621 -0.008665654626896495 0.04320149645421063 -0.03325737219017919 0.04373954556713024 -0.02423332752306577 -0.1904971557559127 -0.1617752083459735 -0.03510246565245787 0.05509820842427468 0.08897719567553707 -0.0721186513312317 0.08839269138823944 -0.08082420507017996 0.2153573110444464 0.0116382779053395 0.004732951441467526 -0.1532863404235625 -0.07982382055160515 
-0.01153870271961798 -0.02767993623225282 -0.01489462799216425 0.04475406987395567 0.01640935596085083 0.02695022225190418 0.009536699121572286 -0.04133845247155386 -0.03679845241306795 -0.03338373904393088 0.009423423475935866 -0.02359755785649899 0.005247698746532621 -0.01271777037937805 0.05430746151962117 0.0207076178877005 0.01784591491545408 0.0148309899076771 -0.02226823508438128 0.002973433208696687 -0.002192585851224835 -0.02554275959263361 0.0360155532029526 0.08321625721142167 0.004810566882314089 0.009756255168338602 
-0.002600670827509951 -0.0307701019127102 -0.1042852205448279 -0.1531137031539039 0.02931213990492967 -0.1754068033814684 -0.04532969057012942 -0.1131692681417108 -0.07120894781728687 0.06705686051159593 -0.04133188772920073 -0.08923308730981913 -0.006561569441355975 -0.1122264928597595 -0.13239694824632 -0.04365924599902461 -0.1012720814947196 -0.007630206434682415 -0.09146060054095541 0.007117020893319022 0.158028085767988 0.1217630830594652 0.1043085371780326 0.224431871125581 -0.09407988747916089 -0.1147017717914776 
-0.01486351970957177 0.002177468766009769 0.03234058120042075 0.01746067645708891 -0.02404630569480437 0.007269305650791921 -0.005974269391471245 -0.04214556353811193 0.01990563793497837 -0.02526994554354887 -0.001254471008788651 -0.01211899967042305 0.003904409946583812 -0.01589188029304594 -0.03829752174264602 -0.003955402070463224 0.1361210407921278 0.0007239702033529616 0.0498272040803309 0.004352860730012337 0.001890750961391487 -0.1420100257549678 -0.03045174575122577 -0.003298938296706565 -0.03698018647787772 0.001898307396068541 
-0.02913795797722473 -0.1307548749125734 -0.002360278075904675 -0.1552018196230411 0.02628465061238135 -0.1478418021562773 0.05676099885430331 -0.1031057770217311 -0.1738429984711021 0.01154449206449346 0.002411234902695722 -0.2086164550050491 -0.01690516512616672 -0.1586884680903539 0.1244802736972951 0.04298551354621261 0.3237653801355162 -0.1019654926152104 0.09186428548761358 0.004547451616818203 0.1034074199584634 -0.3575393918417722 0.08674296680049413 0.1863061490005127 -0.04966823647791716 -0.02291635600997215 
-0.02869507205365015 0.02448052513045776 0.002868414906007053 -0.02296757803705862 -0.02215864784704996 0.003638263501875896 -0.01786438965458532 0.005789508583128523 -0.007299996869750956 -0.01541644654228497 -0.02028686150780253 -0.0082648643394113 -0.005800349565359977 0.01565992835929337 -0.02553085470266065 -0.004446025266060966 -0.0146278708321479 0.00379245203031647 -0.01520698047056503 -0.001565933836530354 0.02441907994008578 0.009499056732542007 -0.04507456646771083 0.01898403036283265 0.01724024447356328 0.01089684411717487 
-0.02744796691317338 -0.1189053128418507 -0.04557647561610451 -0.07509829683838977 -0.07461157236038082 -0.04836961693815877 -0.01753792903535206 -0.1595911726889656 0.003311116669670319 -0.08307155693842677 -0.07610336123687111 0.01932742857011593 0.0179350087288149 -0.2613240347269185 -0.0410073994342653 -0.0342186523709534 0.1249672184727299 -0.045078582410121 0.05071009181877027 -0.02068670812715865 -0.0799810322463029 0.1143635274440998 -0.006763005782033545 -0.1208575466064781 0.08331039895440166 -0.03050118931460568 
-0.04721960273283538 0.02607068925027558 -0.0207519666900403 -0.007779660892906539 0.01075538867926369 -0.03249529846144367 -0.03458529832889443 0.0007277745410375347 -0.03095790412152307 -0.004171621066099255 0.05650000272754809 -0.005312736635434036 0.0129916149826005 0.1028219074360288 -0.03710147420329165 -0.01084760246846268 -0.007467780060183511 -0.001761568044229348 -0.06041546628556197 -0.0117239693989052 0.007955719156165369 0.05626013852627175 -0.04033448898348716 -0.01988548736966864 0.0557882935537773 0.02569043669259489 
0.2107018315379452 -0.02782870276005238 -0.07930171555508522 -0.1061030698543672 -0.04536187893562984 0.1190805153226655 -0.175682811498862 -0.03337305428840921 0.08669362581130248 -0.01366653751904866 -0.04550528951948794 -0.1279509997990752 0.009730049166999115 -0.2510201992986663 -0.03380473803179719 0.01790789825328347 -0.02507636241714173 -0.0009450152004914244 -0.02872451974476598 -0.007699130784841635 -0.05115661274624053 0.0930249299755483 0.08659592768276501 0.05144475559632969 0.04480329953239338 -0.02533944041181532 
0.05242124197907767 0.07633884720634422 -0.02041570892408066 -0.0163830356546907 -0.04015716030313264 -0.0002310264341153663 -0.009720621521090905 0.03274028816976161 0.006274591627913271 -0.03250789393603906 -0.05257806530080437 -0.04809964989162975 -0.02887513444615782 -0.08743003751326237 0.01353563121261848 0.02444127352014666 0.005887605012632313 0.001046502349687231 0.03697774859978014 -0.002190539115255422 -0.003726651383843613 0.03382994196024822 -0.009792312447548336 0.009012513322366682 -0.01520346173670636 -0.01027517555444026 
-0.1801505024561967 0.06196855996133242 -0.01399888855055236 -0.0289588665847163 0.02804749999616734 -0.1476766310112589 -0.1759342029609044 -0.06835015754466085 -0.1748966990692619 -0.01717896962094002 -0.09944300165858717 -0.04532610738889959 0.03930872363720532 -0.1490215342020469 -0.0167576564959171 0.1173119040685173 0.05149366305317549 -0.07447653840460504 -0.0349189137756302 -0.004150491980787279 -0.03133105023338472 0.09091456587929678 -0.07568466611100783 -0.05552401791856289 0.2530751494569849 -0.122613218306726 
-0.09006353056349017 -0.05161648916641916 0.01064140238708684 -0.03102113934694889 0.01802335063838735 -0.05076843048079525 -0.001151845632099436 0.006746932965297836 0.06049315603198886 0.01384918385223821 -0.03092550766973969 0.01618950433781649 -0.01533596606729041 0.07374538394920117 -0.07459862465629662 -0.0643874853067993 -0.1063532186005671 0.01827265297029336 -0.02385381560174252 0.008958442716659854 -0.03305442110055008 0.1018279564125906 0.03947412091188805 -0.02107308328588305 0.07597982326450656 0.04081764510278368 
-0.08132385936973759 -0.2659000094998615 0.06209751933466116 -0.1430654475901758 -0.1104439502366109 -0.1101383792695769 0.1026443221311972 -0.1015375627877357 0.1057289888244463 -0.1136189017082753 -0.1464940535990957 0.0911216250244587 0.05334481257198206 -0.1431820511060947 0.1295990998625779 0.02127828082867748 0.22603920949436 -0.1155019706376177 0.01300746684350647 -0.01504746526828051 0.01337006422420058 -0.1896249707155668 -0.0168065769050317 -0.1841117264593709 -0.04999844144617331 -0.03970309022399171 
0.04408144022978186 0.05276066898549244 -0.005805227706924084 -0.008167271620723738 -0.03076306939084877 0.06894304394733762 -0.01773006182091033 -0.07558541008578384 -0.06477150703140042 -0.02018150591265243 -0.01463328711901061 -0.01017179965226874 0.008700667107846814 -7.436222115787732e-005 0.01370557158948302 -0.00639856197664945 0.04249396318158151 0.006958470654919755 -0.009494608675721959 -0.004059217226402027 0.07408716486925339 -0.05233829693336684 -0.03620938672130728 0.01909209451768675 -0.03084220882394523 0.01727885541608046 
0.02252686176919473 -0.03545469132288252 0.1128980345138052 0.09212592571503994 -0.1298107980629528 -0.1223687652024343 0.005864094108275356 -0.2103694243494005 -0.01162751360523351 -0.1053641177889347 -0.001797946007375054 0.1365550865660837 0.001390790946586686 -0.1817176591952713 -0.05010156899322621 -0.1035142994728958 0.2304381577339424 0.01596205740220092 -0.1301778529356154 -0.02639170546761794 -0.05698539896159723 -0.02490800442209308 -0.04893015411655238 -0.10400201379963 0.2230994691847692 0.03034632064040088 
-0.1112904637079197 -0.01315161636289353 -0.0004746105098102256 -0.0458163253446179 0.1231978095672221 0.02469353608559822 -0.05853360833078997 -0.02200858745043454 -0.1012907696465546 -0.06356781793628943 0.0923234877974574 0.009826934398600842 -0.02122770726971665 0.03724784916338025 0.01103143722824011 0.05073171511265297 -0.07475139451547815 0.04314380223984835 0.09687578830862988 -0.02592974712706811 0.03744586747786078 0.1198013372233492 -0.09608896282064369 0.04951567716128933 0.09741395123510313 -0.04136733232162321 
0.1160066230961508 -0.06827885157798769 -0.1058936104578434 0.1217396042379872 0.05947420565613128 0.2596178244756102 -0.06154012742286406 -0.2365117621950503 -0.001531232266185986 0.06027462468406115 -0.1329516648286152 -0.06210506812821796 -0.005367490026780586 -0.0424125028963857 -0.0886850218642465 0.3819152645121847 -0.01789259166569185 -0.09175216591938591 -0.03915705308889077 -0.04931773139938211 -0.1622615870403731 -0.06951851920281808 0.1165145640011171 -0.2045734039810348 -0.2773805818277507 -0.03001175218842714 
-0.0181539070403629 0.005573030890188869 -0.05415638074581264 0.03612839816772059 -0.02052889540629397 -0.1010599067619416 -0.00550767434474549 0.03652683576360364 -0.07573663946708276 0.06124238529412395 0.04692954451693057 -0.0205641294682688 0.02738111667861506 0.1873716249861213 0.01533354734621395 -0.1159494114291867 -0.1072615861226419 -0.08665892971108241 -0.1543174150964825 0.01088378676615998 0.02820367188606703 0.1864893505131718 -0.07832966042264822 -0.05433357122691076 0.04989906457753963 0.1183296978979806 
0.08738076038057736 -0.1516082824525004 0.2034331535146919 0.02126694563585279 0.04109102136892718 0.3458158170793389 -0.203124452658065 0.01361768959153909 0.002678163711539057 0.1040385531402418 0.2798012843448764 0.2188839045986684 -0.08021050647290885 0.09919213877573141 -0.05888572384146493 0.1853895719312364 -0.005690930897819933 -0.09754809513082377 -0.03432049745034412 -0.03089459628400704 0.1628044472581886 -0.02303582862433929 -0.1546684623819268 -0.1837818083160052 0.04212619875877406 -0.04315708379201307 
0.06444664611791835 0.1574447237243289 -0.04976823615197153 -0.003577923200983091 0.004706894718357834 0.02913237601899069 0.003838737541615667 0.09385855954176765 0.07329461047502359 -0.05464287578733728 -0.1376464249364792 0.06892249930606446 -0.05393993086967885 -0.1607510944523643 -0.04278355883137224 0.08811855140132732 0.05286171759536208 -0.08397615138494563 0.06141636713983945 0.03797535529820986 -0.02051980569456372 0.1165743790682113 0.107741372883037 0.01298414407015858 -0.08584857161120454 -0.08687369382321522 
-0.04508626592598995 0.2742568544983469 0.1862072559680587 0.2422315098929691 0.09406385942148959 0.06481540425137783 -0.2298291322465549 -0.01675824262041123 0.1488737344800083 0.02751135084833648 -0.08118051198169322 0.1577324675848572 0.01241545518585236 -0.1148214976822966 0.02894385506791905 -0.02052025419568177 -0.1424586433804835 -0.0517399174977527 0.06488966949921174 -0.05658672782717181 -0.00165921321065044 -0.001606319431524073 0.07983099835626227 -0.1121337384379985 -0.2887789496577901 -0.1103668883580267 
0.09287390050544461 -0.02017177889822173 0.07262067875127347 -0.03974700651755796 -0.08107649816163777 -0.009841318054986833 -0.01641511973317395 -0.02521755814124993 0.08952570095725793 -0.04019971793932338 0.01102429015167681 -0.05483154560158043 0.006148868320828877 -0.06225542573607116 0.0368341176520576 -0.04575851288053945 -0.04497380057446614 0.1492495694084364 -0.02047450555629908 -0.03436915423802732 -0.005281517136346335 -0.1021840304726367 -0.03240706815161517 0.02215607622620946 -0.01430235796239777 0.03315711603983959 
-0.04666491361926126 0.2202091484894916 -0.1176712428722472 0.01256315550988081 0.1557888433196817 0.1383500386830088 -0.03866778537805819 -0.1869730583760796 -0.2968959774454403 0.0265327462369301 -0.01301192583436645 -0.03755306890014287 0.02692166387166798 -0.08434109582997117 -0.2465690643884979 -0.1122645047384191 -0.2310423740647781 -0.1811326691393684 -0.0864108297835119 -0.04922535718464324 0.02931378140724981 0.4079607393302199 0.09237839916944456 -0.1079190782691012 -0.2223593112284405 -0.0189963030999835 
-0.1654502788277051 0.04604209133643296 0.009620867839754285 0.03187864320491386 0.05570737052169326 -0.063330607487953 0.008063377138612238 -0.05836753049683793 0.1118763521631837 -0.03988201007105918 0.02438991173335106 0.0797964720638885 -0.008681277426336127 0.06297225234760877 -0.05753017332250025 -0.03087553746637099 -0.03538438825519642 0.01339876680440025 -0.08918203899334742 0.005532951215875453 0.03418062357457422 -0.02280453577761037 0.01342601217181367 0.03512671425184699 0.01657860357070934 0.02425336049759059 
0.21729510481991 -0.1366470553459199 -0.08519849474261525 -0.03327265636193238 0.06312523412801317 0.04949419900584878 -0.1138139119259299 0.02159942622735614 0.02933748698570909 -0.04097555741831615 -0.1230277704943977 -0.1733577043348213 0.07977578686027914 -0.1672885701957515 -0.04125676648937886 -0.06900936668050785 -0.1194307861006565 0.004701845536240986 -0.06591915859847108 0.02310754897566827 -0.1075805021051107 0.1849071560868996 0.06514815384864912 0.2371332714919962 -0.05492187628940357 -0.1352907849155862 
