solver_type L2R_L2LOSS_SVC_DUAL
nr_class 26
label 0 1 10 11 12 13 14 15 16 17 18 19 2 20 21 22 23 24 25 3 4 5 6 7 8 9
nr_feature 600
bias -1
w
-0.01624097481919051 0.01804772297830716 0.001589696982377337 -0.004313275739589786 -0.01031405245680749 -0.008297939391589531 0.003084209591102489 0.001474161358595943 0.02328209310607348 -0.0191294256708489 -0.01148224665038679 0.0005981637826128592 -0.0007203587247933587 -0.001814767976498327 -0.03137096313348174 -0.01475697280740194 -0.03243624803800686 0.02016145242114174 -0.008588954652754329 0.0002831069771320998 0.007474269252313536 0.02213982809371428 -0.01784807759082037 -0.01120912000741329 -0.008174707810226835 0.02037933472608332 
-0.002462281433143016 -0.1102423059118718 -0.04097036758795233 -0.1299924412818358 -0.02636829704436439 -0.08310862651854811 -0.02735988023608563 -0.04586854298218038 -0.08601934487849895 -0.1320618203926883 -0.09448365473070562 -0.06402020289870604 0.01344295249357734 0.02085328986576822 -0.06266288579602265 -0.003939266088643116 0.0238750966471686 -0.1130974047770394 -0.07414463644556456 -0.03323459859243439 -0.06938843205632431 -0.02314871522130419 -0.01068396201433607 -0.09659866636026461 0.009768130523834384 -0.02611829002100716 
-0.05154559096852764 -0.04678834320759282 -0.03046954182383817 0.04862763169597478 0.02866168753565326 0.01170471146353836 -0.004270136109042371 -0.009061322606435916 -0.01235136690004842 -0.02202752674259489 0.03082244970296789 -0.01764478200795288 0.007540260787866488 0.06855608495639577 -0.02100452242080743 -0.02715451616925652 -0.02837729215317118 0.03406312930077603 -0.0804603337018614 0.001657783414722831 -0.01710581115133103 0.002622098208295044 -0.03965161215320399 0.02500029285541244 -0.004195247794915745 0.02364836004925606 
0.1651126282930096 0.0638362309977101 -0.1464944434271441 -0.2348710409724714 0.05633367900363936 0.06161153718619351 -0.1471096567123029 0.03888940325623193 -0.0108806369529331 -0.07793152391860291 0.006593171636980554 -0.09354477069420897 0.009816774564152303 -0.03483002619330274 -0.09152754790561754 0.03817514177452676 -0.1183536538712071 -0.0190561048503198 -0.06812927709298933 -0.02908671463755119 -0.06241856572117772 0.261200963501548 -0.005203462180595106 0.02272713271985618 -0.06526009273257857 -0.1507975841493816 
0.04467117605641112 0.09366182208680361 0.001432520650982676 -0.03699688070123976 -0.03711545738719042 -0.02745653609514033 0.01505208411676729 0.02619062415836384 0.05592781658102626 -0.02372153033845321 -0.05880178568987964 -0.004435493922419421 -0.009208395510943906 -0.1134676545459065 -0.0004494630918811601 -9.961019488777512e-005 0.0923302200679634 0.00475255540983467 0.0726936462324032 -0.0003103669780205704 0.01741667597441694 -0.0863957602593347 -0.0094199893984275 -0.02941922661329158 -0.006612086496494974 0.006286214028548509 
-0.1967360775751618 0.03435177208063411 -0.08463683081555948 -0.06124295692134384 0.06209427807066159 -0.0881937668063216 -0.1623310089211738 0.03435875051663613 -0.1689803615470817 -0.09842581383314783 -0.100184218123754 -0.01234108882547278 0.03422531928840348 -0.0247396223325425 -0.02553019381483837 -0.109725972675753 0.2299480474702907 -0.09418418523301328 0.07085974649445366 -0.01707761545449956 -0.09551202470091466 -0.04314462249421294 0.06016823809534012 -0.1100064663389659 0.1696957380000072 -0.1374234740742572 
-0.09605466087859894 -0.009816569157436906 0.02927208193270872 0.03264820233235055 0.05364457709283501 -0.1210186522113899 -0.0008892812824232536 0.03091711749274572 0.1045641820143704 -0.02512102305417924 -0.02910893029558816 0.04164418375825349 0.0004075781047802279 0.09049372682300631 -0.134015178469862 -0.03157366185890693 -0.2564134209583142 0.01106648045429945 -0.04190378638767962 0.004278223689147511 -0.03779816753323467 0.1481029520653012 -0.001929783850314461 0.005589236341243834 -0.01208888605105714 0.03144424338117784 
-0.07333475960845214 -0.4113200666630896 0.1703683245924604 -0.1783580712938445 -0.07707311797940637 -0.0694156536772199 0.09639850050662899 -0.02105556186642773 -0.002999924798311086 -0.1822358804735293 -0.1398824398264711 0.0687853689392027 0.05089950580584278 0.07991584267384241 0.1187281561883027 0.05940055253652899 0.2578383089949093 -0.1958898574984455 -0.0816689904024562 -0.04601101404969018 0.06779227742494169 -0.2544530323874064 0.04393323105756074 -0.1882250216952041 -0.06871061767286753 0.003378884018074144 
0.04428480477963364 0.0336822926285384 0.003169261850789941 -0.05985518233481808 -0.0827199996785629 0.1006086694197338 0.002826807680187234 -0.0411064547952754 -0.0549643409296651 -0.007933565698246364 0.01082381934195253 -0.01901079205183434 -0.001540487857712548 -0.05221808356815744 0.03197711200959768 -0.0007183602006718448 0.0706799513824618 0.03144803814421955 0.0149052446702109 -0.005839882672850606 0.06704168790806163 0.02404119594110124 -0.01787785900695138 -0.04743303294374898 -0.009861276916624516 0.02073290257710616 
0.02505040180618779 -0.07763388678813536 0.07987524428365589 0.06014699574396294 -0.09285883815454732 -0.09306215948117408 -0.03419530822037143 -0.1148435164203433 -0.1790812296041193 -0.1305532697317687 -0.1230985846850281 -0.04745299793823656 -0.00245699743809319 0.1890588399077063 0.007972649418354589 -0.05808448520037426 0.3025134763510521 -0.04984464506487432 -0.2439688023861084 -0.01248818476908507 -0.09401284499054045 -0.2917345030716619 -0.02361795903345437 -0.007586056552276665 0.1355872300720268 0.1044982008839929 
-0.1128393127962119 -0.05797109228703251 -0.05761383545161795 -0.04918396186351084 0.1025403926089518 0.04541292772066114 -0.03820350137535754 -0.00756142375035178 0.01432738318294527 -0.03756631261727688 0.001481482098563357 0.1496656255146155 -0.02006249967548622 -0.02354854403915344 0.04507187663169032 0.03388278925339031 -0.1618938497867238 0.06116099309133555 0.03931602463000512 -0.01738035846345213 0.04023610882802067 0.2092206805911923 -0.1319449207480866 -0.002330104161819075 0.1400582353619623 0.006581331538093762 
0.1021838354697672 0.2495941023397561 -0.1299921569961088 0.1163689454514002 0.1702055765749459 0.328663662823687 -0.02639302057163128 -0.1818115506492316 0.06652868488568757 -0.01085292411877669 -0.1906503674045073 -0.1303516378554931 -0.0224232716459791 0.05351154547079692 -0.1200229708699267 0.5760675369984393 -0.001981902414683314 -0.09943037422748843 -0.08581063328270007 -0.06598598898993381 -0.2697930602634999 -0.02855263986899003 0.1341553517141807 -0.09432479615927271 -0.07552467851877753 -0.1184172145784453 
-0.0326973758368156 -0.01668142115263613 -0.1307175708297201 0.1454215936095649 -0.04961284649130814 0.001498092311796835 0.0464689211596114 -0.05243362874472912 -0.08895528695348268 0.003926686566565748 0.08068515940801396 -0.193100383290218 0.0147059523230376 0.2367164315764907 0.03356709230453123 -0.1450544503436929 -0.06208580683135841 -0.01866150701155491 -0.1421552215482019 0.02574032761534762 0.0183921153972794 0.02172227572751358 -0.001829489129639763 -0.02306767028700155 -0.04896392451054604 0.05610913626280754 
-0.01210640618706477 0.007220377586297501 0.1312736294650876 -0.1325743892301306 0.01471362584099151 0.2170167600663356 -0.3119604574078024 -0.008701826878391697 -0.2029252485539999 -0.002006334439981652 0.2796227652393823 0.4023269066337647 -0.0971522825422569 -0.04044963834872223 -0.02381392986475853 0.09358181507883435 0.001354827974162882 -0.1075767808552009 0.1233966841675739 -0.04110075280156517 0.1521914479252076 0.3297335347367846 -0.1607063916847055 -0.1712915881443268 0.04193386847684533 -0.02449605253085621 
0.05620023889076763 0.1038590510336965 0.08844011657606661 -0.07788564913106466 -0.02041450727553447 0.07978521873158105 0.02098881271946091 0.04392949564957495 0.06727261332699329 -0.05988616285320077 -0.1047872926206744 0.05490949374915714 -0.004967151062978082 -0.1225495015063122 -0.07759542410402728 0.07625426456141043 0.3005850591314231 -0.06644303408800499 0.1050108081275873 0.03278464605272061 0.004749645482262233 -0.2797275133856426 -0.001652759985537655 0.06401610357197572 -0.01464235774651204 -0.009922266122314614 
0.004742348189383246 0.1072901295471436 0.013096254650549 0.1612540913800436 0.02035799372970494 0.05366577956935072 -0.2654178538834049 -0.004950676064741791 0.09215890806409714 -0.06225115731210564 0.03379137116038938 0.2644969959351687 0.02594086528179893 -0.2731756162139484 0.05047215947372558 -0.2526374330088466 -0.1807903353370323 -0.09095334493171918 0.05149620907357455 -0.07549399990726866 -0.03344745788302059 0.3511834392377383 0.3669870017253742 -0.2458403465759497 -0.2081290014034983 -0.1371513186467186 
0.08834351732829288 0.07676069348696801 0.03524940068838279 0.003781476118687659 -0.03916631456613364 -0.1265303112740243 -0.01810559349520973 0.04030562563418468 0.1340921432170956 -0.02673736161048383 -0.03381138286872512 -0.04033352254859333 -0.001743533715506875 -0.1692064547108943 0.03927223539421729 -0.03342361999821408 -0.06669323564919281 0.0931889775612896 -0.001238737911850871 -0.02938059404357439 -0.04969874979920296 -0.04112127986264013 0.001112141279335897 -0.03488375478683278 -0.1006448177075764 0.001804277305928955 
-0.07000554399559704 0.1091713469611552 -0.1888494851622065 -0.06006091084768363 0.1895270153805185 0.1757590476748513 0.00244869020204637 -0.04067953915740295 -0.08213032080436997 -0.03775249645077659 -0.01259975928272111 -0.03461078297588542 0.01713701498212128 0.07926674985408289 -0.2876006119578703 -0.1924072255973507 0.0956874440804798 -0.1353943048681675 -0.09199576811555724 -0.08171946921589862 -0.0005983655656444719 0.2692561204386088 0.2019327905065423 -0.3016013516270112 0.1277781870600617 -0.02831642741069987 
-0.1548246029273473 0.01557009306165682 -0.06130475905128299 0.03259406235711923 0.1007413186460749 -0.0457162520391185 0.01931583523813338 -0.01865838230053781 0.1657032121040833 0.01201112572187825 -0.006534967711259235 0.1402108766619704 0.004315714149625171 0.06472578874344633 -0.08588858679163158 -0.04230196281794723 -0.09319056019694438 0.06570526428047843 -0.1198954598780438 0.003047580648716357 0.008111253513605671 -0.004232638161002689 0.01097231782150314 0.04936554037509011 0.03372648856745422 0.06085511896302655 
0.201749095802615 0.08413301880184744 -0.07238612782331572 -0.1853588811746567 0.07058513353037244 0.08765900617261789 -0.1450521687483332 0.142476021784776 0.04902389240997809 -0.1490283568523561 -0.1744106174014536 -0.4225956545605712 0.08090911186725529 0.2095880610010251 -0.281018796207394 0.0169189202776826 -0.2395343978253947 -0.02791676665561205 -0.1213187334619718 -0.008519191435127542 -0.1110276089623285 0.07938120652019982 0.007770686148677918 0.1642883301972209 -0.09995602303781968 -0.1833391109322628 
0.0945619766798725 -0.1259516827050807 0.06823838796882568 0.06858492594156516 -0.0531253422925495 0.05754584375277 -0.04779374805769746 0.01011549088613134 -0.1395178289800457 -0.06230383111921275 0.060717054836609 -0.1795967477475959 0.0344210301398328 0.01367148910774646 -0.0714729589960041 0.02865532771824195 0.2258295511074193 0.03110965848767107 -0.09365261870624447 -0.00298383764988539 -0.1022313220964805 -0.2098169963664951 -0.05734383927530369 0.02513929051616379 -0.1280684920233647 -0.02212731465105953 
0.07438963700615052 -0.06728937588659649 -0.1057849385911368 -0.3961639213341482 0.1420231821264147 0.1047509021626048 -0.1406814530632875 0.08230074936691818 -0.003996913502471029 -0.1136565864461391 0.004248696597515168 -0.1340465537018916 0.0196357643161136 -0.01003501883978554 0.04802358717354525 -0.1501185015229577 -0.08530680363697661 0.1414260400141679 -0.04076232471445809 -0.02133593435126855 0.05362404048403624 0.5036337251971713 -0.03224538693781768 0.03466633842348783 -0.2019590571495274 -0.1993210314357772 
-0.05367211263272848 0.07259009706009031 -0.01480627968059946 -0.1699304038998347 -0.05261506128616322 -0.08802379052361707 0.04441668742408739 0.0419039078337763 -0.1194667303831071 0.01480728034891443 -0.1116090485910532 -0.01410319939463721 -0.02201323409023901 -0.1025579546007908 0.05733227634784387 -0.03443261932930113 0.02096372978089704 0.004883357135431104 0.1406017524714122 0.01079128521739405 0.1188499145108836 -0.06634990525534903 -0.04315360184999238 -0.05857181513512742 0.0576778304961079 0.02457175794680934 
-0.3553452528751653 -0.009024153332708075 -0.1104349898577438 0.04622393726665731 0.07264874443109642 -0.1624051948084684 -0.1627853485409273 0.005387836225134309 -0.3113672023409804 -0.1900967377185501 -0.1508549057038331 -0.2798023313341055 0.06502513498392071 0.03042145068248632 -0.04863411155563791 -0.009869631795462526 -0.3147612527443594 -0.08953796827260635 0.2182280905714184 -0.008415486978656864 0.005816810090411427 0.5715918784885662 0.03700781028083554 -0.03956034894847941 0.05973064275999985 -0.150140406831727 
0.08697386273409438 0.1178939410626885 -0.05624540324719796 0.09741435101673068 -0.01677182362602527 0.02537314015058428 0.01337708143400895 0.004332347401320953 0.1499889450445669 -0.02455078806410393 0.003916284702042129 -0.01867037111196118 -0.01086075600695961 -0.07854251011489478 -0.02847626249441776 -0.0005502247439811405 0.09569496571041536 -0.01929107132419515 0.04080828900743327 -0.008348673211046424 -0.03168294140075579 0.02577215874934419 0.03472413005460671 -0.04681644652684774 -0.00454041197730517 -0.00174126068113667 
-0.08423963947906683 -0.07902568445895224 0.00981659576346281 -0.1865678386540217 0.08767625512457637 -0.01028773478753064 -0.1053720891339221 0.2489163077830104 -0.2603106995559631 -0.06134261223512556 -0.1140879921794123 -0.01250307307055303 0.02495382065947502 0.08298108581256895 -0.120388025887146 -0.1256947347715774 0.2414718998336981 -0.002928412105449541 -0.02705567551645241 0.00909453198953606 -0.1552487005511896 -0.3163844642333152 -0.1575815719100036 0.02999514288248597 0.06276262920424057 -0.08013108070493454 
-0.01809534537573655 -0.02423987103364897 -0.1467805026641948 0.05386538136889478 0.09614156569987355 -0.08332431518452241 0.09693776483577217 0.02309898214768212 0.08849023453575459 -0.02952500687107752 0.0594785095475397 0.05054023056342159 -0.008092511464947438 0.1105095355309558 -0.2334079639590273 -0.1084726782159212 -0.08185097127904369 0.02927140745884245 -0.04543305094904253 0.004773378639107388 -0.1231828957529393 -0.03726260816938275 -0.01381246014151928 -0.01171293287720818 -0.05985594359432209 0.09210303604324138 
0.0945968106487062 -0.2271209008848793 0.05710419248448745 -0.2364101902222126 -0.2897343202818067 0.08362401001520371 -0.09487805398602775 0.1714914478654895 0.03167065453946682 -0.1543539162834011 -0.02451023727047674 -0.3592373129157411 0.0571311420991844 0.2916364668366604 0.2028454767435062 -0.14228883147444 -0.1184409280781397 -0.1364316877032923 -0.2102873704857789 0.006425299597202032 0.09017891365371701 0.06421287608424307 0.1398644420953649 0.09162227653681968 -0.09938165825098649 -0.1874138531864142 
-0.01690143020816326 -0.03470270785536222 0.2306929590276118 0.03553331664733334 0.005379790796001397 -0.02786858787030466 -0.1201014060164074 0.001456383450565635 0.2272882080180127 -0.0370607515355795 -0.07511976535751086 0.04622642003014239 -0.0107548158482099 0.01357786350438689 -0.2573838655591066 -0.02665699308894879 -0.5322200767976519 0.05661261945343046 -0.1033447192727163 -0.008087563808120471 -0.06235240542101964 0.3765440154493909 0.1044229441060371 0.1340369319094153 -0.02330421667419438 -0.04192161936994704 
-0.1852961970093714 -0.2832227557794226 0.01667715737210043 -0.04068029211422248 -0.2483818376459189 0.1515066681274931 0.2259061230898266 -0.01111125055176815 0.06066350239303052 -0.180353063093412 0.01468782472057573 0.2380827883763707 0.07169314851296466 0.09827234284892483 0.1284796570282443 0.0582333017955684 -0.1640902006005721 -0.1053676142017059 -0.349570979750362 -0.005066642059708628 -0.04541498360396143 0.06343852751677122 0.2091145669756412 0.1438987264284249 -0.3458283067156096 -0.2260354424561701 
-0.07324354607291547 -0.005719982344454011 -0.1626284563595455 -0.1219826626194848 -0.06418563515527294 -0.1481134210874652 0.04342208421886549 0.001786871501480931 -0.3090768383548605 -0.005877794491158881 -0.0736235364065766 -0.08938985821780447 0.02175736913304384 -0.168600890795354 0.19696206054886 0.1295981476937419 0.2220218974112515 0.06801916644645512 0.1088152212024005 -0.02087480607012073 0.1398279538321325 -0.1054363791591826 -0.1749617452825111 -0.0452330599968556 0.08017676160146545 0.1073869825094899 
-0.08134657745022488 -0.2120802081345396 0.2092936990315749 -0.1514965091439453 -0.1917809490490223 0.2046429603065773 0.0037282477566992 -0.01295437450582059 -0.1200666419566453 -0.1777783335296858 -0.141902814339697 0.08124338290275772 0.007792678068785284 0.1372706299929032 0.031236551025121 0.1350420253709515 0.03419737402757102 -0.01552503284746087 -0.236522714951802 0.006425915763836142 -0.2134537193361213 0.07644970277830067 -0.007327322625385082 0.467525460345959 -0.04656776162195904 -0.007706249831586507 
0.08626420079672112 0.1096862874311986 0.08520554270817464 0.01943985551212774 -0.03255347720137702 0.1447527494183176 0.007743917594543072 -0.03377485556309542 0.06970749616579673 -0.0002257405784848971 0.03693137604966811 0.02390486478404726 -0.00933819808316567 0.03863959901728464 -0.02011694214407882 -0.0727936736183572 0.1640628286794426 -0.07919329977419068 0.02742847565997712 0.0008297552895575234 0.04383002672977777 0.004739566115580466 0.06002119160586697 -0.133976752953729 0.01381790745055315 -0.05251548929645448 
-0.03088562421178868 -0.05874556978891386 -0.03069594949776761 0.04652831566362665 -0.1571014046955552 -0.3455532201442806 -0.1402913955633828 0.06715099195749502 -0.3815919176897638 0.01197527417292725 -0.2822657218549928 -0.1399619524019165 -0.0007838188169896528 -0.006128494445767449 0.1777719424523196 -0.01498771189486184 0.1163143724268253 0.1078278683957823 -0.1935728750499415 0.07785665890818257 -0.145204010988792 -0.2540562743194601 -0.1608891599852392 0.2668009415268262 -0.05051886391961813 0.1378845788217344 
-0.1594368382093483 0.06755627784182311 0.02331600730384632 -0.05247729797388621 -0.02021584535507121 -0.1967064918061504 0.02319309980423893 0.05354287777194734 -0.1209539256452294 -0.01484291295558143 0.0008190532647676689 0.03223338053612616 -0.01308547852979471 0.2065015467465495 0.1237326456562896 -0.05597883761945052 -0.2474079072220225 0.04346426397080558 -0.1402896893346602 0.009940028712183961 -0.04192300060308251 0.1537364247691509 -0.0661811571299869 -0.1134814745723389 0.02266427234323357 0.0771730147089587 
-0.0624266239155468 -0.3655578591386959 0.3613790019690257 -0.2546241599184025 -0.28488356410986 0.001114473656602184 0.06146691020446755 -0.1641753629945405 0.06175283711211395 -0.07996773982398951 -0.1374366660411966 -0.1539782730414451 0.05198945026924392 0.1775301982063717 0.3179103880410771 0.07348226569212904 0.2042851359632802 -0.1719942671077229 0.174412249783091 -0.08165667802740302 0.2056546550629251 -0.329025227188887 0.03216050513467685 -0.2440731219219173 -0.03607816445518641 0.01115170584969121 
-0.07362007765797872 -0.08772154043476592 0.09164897059067348 0.1393905260423621 0.1563122659483228 -0.1002068109411608 -0.01344217496695976 0.04639586646469551 0.2433303947350489 -0.02931548028485256 -0.0832780711054755 -0.01183091182045798 0.02657807100516085 -0.04336719789444971 -0.2321659598256144 0.04506160984758487 -0.2927680064480058 -0.02748549206403558 0.0613556059706414 0.008799822703870315 0.03158872982165106 0.1406101463518935 -0.006198552012152934 0.1224801796223742 0.006512858178242835 -0.008039091714479021 
-0.09949051395612962 -0.475203812821111 0.3112059697213158 0.08362463251493528 0.2172025282430375 -0.09162308356109254 0.139468714091644 0.1028578535297749 -0.04547311768618954 -0.1479705432267271 -0.1406125163469812 0.2190549472638635 0.1138168494620428 -0.008583989787859403 -0.198721026822279 0.1385566856825361 -0.1029299767199216 -0.2297432009734291 -0.2308847630718705 -0.05798033175457554 -0.0937381291251559 0.02836871522069507 0.08877476452430066 -0.2230020192250595 0.1432560981504305 0.0625225644985193 
0.09952589107460488 0.06989669074550742 -0.1126427594467458 0.003124196251167799 -0.1877521793423554 0.2044625625596937 -0.01002914422020195 -0.1469936949053028 -0.0681301022364437 -0.004106521998687514 0.01128846842098179 -0.08021832651732606 0.01369814305963367 -0.08941985937102082 0.01434139048507318 0.004501005783236066 0.02530103103729414 0.08305685375059928 0.09959852928647528 0.008191273081889975 -0.008304362415938779 0.2391482110264085 -0.05002224081195259 -0.01346868287283145 0.004113541607554542 0.06006001869673133 
0.2066921312144234 0.08397496053960106 0.2864500983942365 0.1902864233228099 0.05152695605076519 -0.1004691128180976 -0.01402799727433827 -0.08227255549534732 -0.03838561793013821 -0.09879983572319673 -0.090106806926113 -0.1581311194906714 -0.02454385383091232 0.1139858529655726 -0.005594203560293067 -0.07600000335794609 -0.1937297304048418 -0.07130831601959338 -0.3648933688523301 -0.0257958278651092 -0.1693283140935085 0.2041663207039868 -0.07818671064869709 -0.1424820936388945 0.1565258436561812 0.01081895009957495 
0.03336703487001596 -0.01789092407452372 0.1299710723533261 -0.1591058157615167 -0.002958697205056374 0.08178283014925099 -0.02008012142503873 0.03728423747010835 0.05499233068591351 -0.02748014274770578 0.06922868331683758 0.1119138232427149 -0.02774123000084429 0.002065254605580266 -0.01464551226353834 -0.04134480125162151 -0.03147012927515531 0.003062488725925987 -0.1055817817049582 -0.02749533410361057 0.1214190698852385 -0.02365452899577594 0.06633266389706073 -0.08846623308935502 -0.06841979304813199 -0.02042720852448025 
-0.1406620063486402 -0.04560714942697333 -0.005715029669531234 0.09540669993520728 -0.142917406875596 -0.2712258938410284 -0.004121201899366193 -0.2160489843759427 -0.2163238369503895 -0.08186992800774397 -0.07134934494878355 0.09099356942567255 0.02739736149004689 0.2024971733720762 -0.02508135498047866 -0.1759689530071452 0.1650578327904222 -0.04437909258244645 -0.08616028310433231 -0.03455171630513281 0.1956030462676968 0.02423069470779729 0.08480790078760293 -0.05933697380706276 0.05625346921153664 0.1899343475447442 
-0.1341766351745253 -0.02273558210476523 0.01057206249713743 -0.003629312017465964 -0.01943618264841067 0.01017501728738041 0.02721559329865451 0.006706636952645143 -0.05910951844228654 0.004232273181756663 0.02103604952406088 0.06236556089252333 0.005264684100900081 0.04059166308723979 0.06237574877424418 0.02463587103396233 0.02158288001172412 0.03248625457052637 0.05888024500472154 -0.004384416184751872 -0.05234562546851779 -0.06590016641701106 -0.06947155532194579 0.01009279650428373 0.02510753543676277 0.03222400581183414 
0.07387670777189921 -0.2125413916954788 0.1191654537467586 -0.02071111946956739 0.01774419028948204 -0.1357950918447686 -0.07657656119634947 -0.09906246713252603 0.0119535850647463 0.04318139101856738 0.002475276996594544 -0.127936920750591 -0.02892972654359533 0.01602920589009941 -0.06402299021403252 0.1181067615686553 0.02748530628413448 0.01705922888908846 0.006544030896812317 -0.01240106402446079 0.009619207861812439 -0.04931911961946057 0.02998941528231791 -0.06973413385772631 0.01959742690807271 0.001798639480234203 
-0.02096375485410097 -0.03014946052482978 -0.02106986196864719 0.08070545904275478 0.08929896564471651 -0.03689288220160237 0.03943374697238238 0.04865914508293661 0.1584792800504058 -0.02185698063734788 0.004234091822091383 0.0231216356987749 0.00415043090342322 0.02908302966681778 -0.04871152895741836 -0.03759588454706507 0.08095803755302702 -0.06688647502467708 -0.01609289584887347 0.01444002160003012 0.06847427848849731 -0.1788328019982966 0.02062771886377462 -0.004884071602414246 -0.06760125978878483 -0.01703895697380347 
-0.0868700438804644 -0.07538305640085732 0.02307619951056434 0.2172778836609461 0.06428051947952365 -0.1850737790853564 -0.1272322087571587 0.08435810501747354 0.1158254716813159 0.02833192651872475 -0.2625033985810892 -0.06809065332868761 -0.03601876025221456 -0.06424372082076175 -0.01141229883217878 0.1006508694406383 -0.0688731697617443 -0.1169127203201546 -0.03105523521449529 0.01084528207821975 0.05022302961464618 0.02381938359793724 0.02971994534096448 -0.1240680728794334 -0.0005069531083376627 0.2245263956921662 
0.06181099452215652 0.001599997962934894 -0.03506938310043598 -0.0076093999778837 -0.1179663515659841 0.02211053805693622 0.01370019932908375 -0.06031979296630509 0.05200289738491609 -0.01615089609702367 0.04496913047895557 0.01750919890537553 0.00436563458390484 -0.03371733814453781 0.005577673057266975 -0.03070629481148959 0.057248188564393 0.05697801258177916 0.02851103323503574 0.01343214994748956 -0.02717339678718398 0.0001997893813464179 0.04147553848748431 0.03765602464699532 0.001377077473816186 0.02107774958618741 
0.1650954413924395 -0.08683329774917405 0.06760904955333305 -0.07217860584136054 0.05177404089922171 -0.191531703316381 -0.08842431216940898 0.1409078730900931 -0.06567376858336194 -0.07499588788099389 0.2199238482445803 -0.1395603105785071 -0.01178345209071012 0.1012463052858288 -0.1139256902352191 0.0472471465997678 -0.110222412103329 -0.1851743919722586 -0.08712328478659366 -0.02280089054688862 0.0213212667477011 0.09966885224912751 -0.1279680323654307 -0.08364564417128223 0.05486001845871465 0.08814594494194039 
0.03966044097223982 -0.0133421213740605 0.05356218604677313 -0.05063634873081931 0.002399182655900633 0.04370870650122358 0.02293995677835811 -0.01817080681720268 0.02411161558532995 -0.01486412533000122 0.0150580108323221 -0.02829569747735013 0.003981020473287493 -0.01759533729155551 0.01944436695240675 -0.02351996108089904 -0.01041171201886507 0.04800243431868175 -0.008426802602247959 -0.009100649877216637 0.03199870233620761 0.02625766929562989 -0.05201016542923436 -0.02579020368559748 -0.0561402511800549 0.01145668149007867 
-0.1306428207276547 -0.1408109246353706 -0.119991373283975 0.02052119192427122 0.07811855460193463 -0.04409762408547659 -0.01383557745926423 -0.2021874100588462 -0.128452106266729 0.0136877414009571 -0.05862576776941422 -0.03848760139808163 -0.03536799621599795 -0.05529819933207408 -0.0768955855956618 -0.1556459395839887 0.1219391185052241 0.0414357147625514 0.09899921191702732 -0.03406277187431892 -0.044649829658644 0.1294322390889767 0.09166980941545989 -0.0263405367518286 0.05949646622035817 0.09854703003641728 
0.01279498366809702 0.005811099193871037 0.004685473555880791 0.01419304786044371 -0.01027768356627418 0.01616888236125704 0.02147980838044563 -0.006210261422498867 0.03961590143991717 -0.02430092237337005 0.02873013122507298 0.002189521143198378 0.008558513823402822 -0.003250713519974849 0.01056899260815544 -0.01717194897831797 0.06453312763708895 0.01681004252702054 0.02133690707029178 0.007203083087739535 0.007395318855012894 -0.06388108212763775 -0.022872676310731 0.007678187952677169 -0.02591659012502661 0.007870967986926955 
0.06314317590158027 0.002396766147822341 -0.06588196499030105 -0.1198828666823715 -0.01343838462315073 -0.1297000291729907 -0.03891788351772997 -0.07347569570227942 0.03286187897735404 0.1089426251366827 0.01828708996929677 0.008765619657877238 -0.02431995979043409 -0.009745144411739249 -0.1550087091130086 -0.03699779973787919 -0.03621646704168401 0.0227931640103179 0.002325269902372101 0.03013768884967363 -0.00585310486889166 0.01695438826860846 -0.02703648198581705 0.08281651698108083 -0.1488916844872279 -0.03198718511319126 
0.01254450260922672 -0.02210825310976975 -0.006589700049443349 0.002120286501694591 -0.003495279407782798 0.00664478116780732 0.0327459625637211 0.01664779656509048 0.07032767261456746 -0.01428661952728086 0.03647557951156327 0.0208398816697245 0.01117928407447462 0.01465745469746854 0.001704469602644028 0.005476884621736482 0.04289575270344797 0.02154610659261359 0.020858718165384 0.0004680252601605135 -0.004501066607910345 -0.01593009932809075 1.452195649030612e-005 0.002255386325270916 -0.01796804699717982 -0.008256591520126044 
-0.02977471143557298 -0.09793320330212445 0.01801975695196935 0.202302163001758 -0.07701113126821424 -0.03955518646772412 -0.02179990275634227 0.03794877921035143 0.1421546019582034 0.09595713992399393 -0.05033832060163537 -0.07420092594002024 -0.0153509132805979 -0.07935604528493867 0.01922450999281822 0.0148230339034731 -0.1273849789278076 -0.05937745502122066 0.007613510588642222 0.01887495393318675 0.04125152257636538 0.1259850616845763 0.01628946213590411 -0.0312229185047356 -0.1287545937040739 0.1292071640106409 
0.01908574699881903 0.02979941006818386 -0.0294342577939673 0.03049324748722417 0.01085127358987984 -0.008081083930325715 0.02367868716357479 -0.04089715261709832 0.02241617696900888 -0.03576886985909641 0.02956741674660264 -0.001798394068622195 0.008748300868452248 -0.0545309684214172 0.01377962916873418 -0.02373823516785983 0.103401950735165 0.01488925140083473 -0.002010035922643502 0.01261817919234091 0.01359787725589819 -0.1344754506535134 -0.0285967134534042 0.03484652867034506 0.008396561228183955 0.03836775979673069 
-0.02432894478091121 -0.1370723983275105 0.1713629007332775 0.185964653273113 -0.07144490553281128 -0.1017518760265451 -0.173109624065378 0.01206666312757858 0.09112682331644159 0.1582477573899031 -0.01014971335306588 -0.1871247203904553 -0.03661647739201677 -0.1087640052178753 -0.1172891587963945 -0.1533539750317988 -0.1988830112614743 -0.05299422540253701 -0.06986604256268622 0.04875160311155669 -0.01333212897311319 0.01354361008699534 -0.02894717539668411 0.01053772251155643 -0.1694799645736226 0.1503116139789416 
-0.0177835518463221 -0.004652806283364314 0.004186087157189166 0.01917684905371302 -0.00999471913739515 0.02248231384090648 0.03058946948905767 0.05670740551508044 0.007272806193834816 -0.01260369086808051 0.009272888296128516 0.03014803393665035 -0.009193132241470262 0.02355683139393857 0.04558297173227874 0.001666762517668473 0.01999047453274588 0.002701597347191199 0.02052293170359316 0.0002969996292609488 0.002601293708077205 -0.04204835121370502 -0.03632225135206057 0.01207520881406192 -0.09942730367428597 0.00351920900245609 
-0.02642981181318023 -0.1819849702514938 0.06182340543321357 -0.1018233719740507 -0.0004551798374311707 -0.127795897954703 -0.003676281203977481 0.2024200178044931 -0.03020084087472883 0.04562695797860143 0.2426050148906093 -0.004512556379843134 -0.02441215548976786 -0.163584545913862 -0.01307755107893357 0.1624930817343197 -0.01347711281289977 0.0204932024421225 0.00436121844344244 -0.01169113315244906 -0.08084559518448717 -0.009945610866775267 -0.05739965746720391 0.1367118199476566 -0.153102011133799 0.01325099234042454 
0.05250703295096657 -0.02483306292732151 0.01409084795415095 0.01851298718357386 0.01375562129091827 0.01975661107745189 0.02015321751322927 -0.03039513010378014 0.01847734479613155 -0.02663247944531138 0.02856039064097667 0.003763411506573285 0.01246516673603948 -0.008071080504925242 0.03228771599552903 -0.03283859957791095 0.05358082897859307 0.03341565578642989 0.02081891897922727 0.005036870108122638 0.009501723924584482 -0.01837082817189339 0.02723638803719561 -0.01335898613640955 -0.04476813243607045 0.01309064852528377 
0.06876465675541317 -0.1700863591761678 -0.08221028656249287 -0.09137906377816758 0.01573080639567307 -0.05519242275117715 0.003245313309627365 0.04564481358327823 0.0005028419881374615 0.00126117068363459 0.2611987303777619 -0.01778766726743588 0.01594480010019372 -0.06787002840893834 -0.01004553351866312 -0.05980898979508679 -0.006873231828848567 -0.04596658313508636 -0.02999985404458074 -0.01681620025342379 -0.0382665829160592 0.07898876114121368 0.0006173177794472 -0.01166981953967956 0.001417073467103765 -0.01481161743202297 
-0.0021771935586923 0.02614224755463082 -0.01594431317247376 -0.008232620937307875 -0.02103964305092164 -0.006463106787160563 0.02196038241730394 -0.02012276915717822 0.06352977259911453 -0.05200191856193125 -0.007199619193783012 0.01374072464646556 -0.003919005132792438 -0.04711526492607202 0.04468689769491908 -0.0531806729064753 0.05916560803244633 -0.006905460261527479 0.02123086239017861 0.002600916893717354 0.03145495444132669 -0.09222364959150568 -0.0303877096304601 0.01762485164886119 -0.02693948041574901 0.02587495304407389 
-0.07045683643171112 -0.0005224640845394083 -0.02041240345553225 0.2996282051759003 -0.120327908150323 0.08236727604097165 -0.04729246661941058 -0.1120014133312313 0.1690471425802549 0.0827436762232705 -0.08631126509533746 -0.0228537379976787 -0.04602147052831372 -0.1321732257601049 0.02230168134594062 -0.1015047971291529 -0.04088204727188704 -0.06552640828058755 0.0428709628053324 0.006124839337131397 0.079009105022998 0.2059607685689606 -0.1071722163057448 -0.07754314758379105 -0.0793173078808876 0.07654327925245348 
0.01834570902107034 -0.05610230556853769 0.1049110131889875 0.04947983594640815 -7.413916774057558e-005 0.04538598890984577 0.03054169028840185 0.02901219510237721 0.04858466182532419 0.0205850657797798 0.02861403763494283 0.0005805048250957331 0.006891590505017548 0.03301109813507088 -0.04180471728992859 0.06230978830158011 0.05285104708387143 0.0354010174562233 -0.006984393596114222 0.007041669299676799 0.0003357592542786639 -0.06693087566364021 -0.02641173359444967 -0.02177431446319865 -0.06377942819964286 -0.02514212898916094 
-0.1140836485071805 -0.1419211212268377 0.1487376892355954 0.3204533007097547 -0.1080233144805729 -0.08538319828270338 -0.2220565527989702 -0.04687163192005257 -0.02586774704898458 0.1997136394632874 -0.07937732481912288 -0.1195528807911801 -0.01490802527031501 -0.2234548200173604 -0.09302473884561914 0.07403642229725309 -0.1370873187994733 -0.07493741873128101 -0.1283113219314264 -0.007297128521276288 0.01354729868688977 -0.05522077040917309 -0.07585862236254354 0.06251777842989782 -0.1111154886856663 0.1212255147240901 
0.01712260588183997 -0.03820930385511354 -0.0516338138169503 0.02039565025329641 0.01938915781285908 -0.02199053656736456 0.02932170755937459 -0.02779706708626739 0.0006384912297068551 -0.04181045172528936 0.02433770750447698 -0.006828831994583864 0.004835945648446345 -0.02738275167377994 0.01376308816524027 -0.05232207128696358 0.001711544043894327 0.01315817464954271 0.01780330576836012 -0.005804826299230625 -0.002034980071523697 -0.01553675148264565 0.05151024000788312 0.003207525526476061 -0.008560310537237739 0.0210326547096664 
0.1864386868827585 -0.2519843113700633 0.03734925479499947 -0.1648891095027295 -0.06896602297679443 -0.1780849598865253 -0.1039807729841086 0.07419894485500504 -0.04696216882718782 -0.008604227371919704 0.4164564950901936 -0.1294814488992554 -0.01152670106384299 -0.1068176689861124 -0.00345706077696298 0.1993834154866084 -0.09318377235435654 -0.1792185488139499 -0.091926699400874 -0.05048151394709668 -0.004374357858095293 -0.0855657959393952 0.004442201263436554 0.1476393456806073 -0.1487867023482565 0.1708896533476284 
0.0100484845694489 -0.009498552500297977 -0.02938919648976353 0.01047416168732565 -0.01312048477031468 -0.002750470442218302 0.0217832643450947 -0.006116798214054612 0.05591801510661119 -0.02300246434107328 0.07154212970098822 -0.005899422160671744 0.004138235220379379 0.02797182683781681 -0.00641341006474905 -0.02406906123022453 0.128818298972308 0.0146888979553669 -0.002996050348652722 0.007424174950634683 0.002939561443846863 -0.09803222699382987 -0.03452431195838582 0.02143154732359361 0.002278031309636007 0.02211395838080844 
0.1052891111173167 -0.06113404755578118 0.05213395551859325 -0.1214558567261969 -0.08514155413966221 -0.01300987174080451 0.01857894379376055 0.01835083280099096 -0.03736774509235533 -0.03835376061782379 0.1455054907636867 -0.1787798329007766 -0.005932194584150015 -0.1083307930366635 -0.039620107449544 0.04269936394079615 -0.0267539227099375 -0.02398723254746689 -0.03380575728208226 -0.01872797956453117 -0.009034573643479225 -0.01050292930287828 -0.007561325160223549 -0.1050503515118147 -0.0621398206797701 0.0641698567801839 
0.02769590495938853 -0.06327231308510542 0.03283415524622321 0.07444343947099222 0.008679480622428581 0.03184642679325951 0.04057434503696308 0.002394654523427048 0.01647465087626118 -0.006590961045166552 0.04209415848324154 -0.01503652220657287 0.005836094374677412 0.005199109603905472 -0.001749265963828115 -0.002255931861325171 0.1840965611283688 0.01097777387817907 -0.0007529765494327101 0.003020367479852391 -0.01405891654113657 -0.2017946171259011 -0.03307065097336787 0.004406396142118596 -0.05776208688028734 -0.004305099051173726 
-0.04470954780318538 -0.05179739587868867 0.02196194979857598 0.1931691247166893 -0.1424605823222693 0.117392885739568 0.03689857030391919 -0.1929770552256835 -0.08481049597675783 0.1234143306230521 -0.01169473572131505 -0.09328379563118212 -0.05887351439231194 -0.3176435679401425 0.08891381673942472 -0.05822575366378882 -0.03348089137789979 -0.1368455333013035 0.07629193060498252 -0.02010552228508766 0.04426310139420488 0.1072361418480409 -0.1851830373939249 -0.07790664425041406 -0.1496284139706843 -0.03213055626766469 
-0.00297712190112316 -0.01643439136589984 -0.009701401512844468 -0.06610255003812963 -0.0113763915884763 0.004020706624261625 -0.001372329111351639 -0.03169843311190546 7.88853840001599e-005 -0.02371584167848679 0.02783914255242667 -0.0005938110108753814 -0.001035461415877186 -0.03232140844094723 0.0621517078156258 -0.07178331475143063 -0.1167288704594587 0.05113047218579506 0.009512130687545119 0.001696584558955404 -0.01375890750193659 0.1025813836396295 0.01670812420152242 0.02446742955116416 -0.009996008425268894 0.04606662962286768 
-0.1118119130632455 -0.04128628182780847 0.04539553098238013 -0.03153021167166106 0.08364899508675894 -0.1144176815361556 -0.1148709112606355 -0.2190151567173655 -0.03356861031699548 0.2057901723868169 -0.008784467350552926 -0.02403532637196923 -0.01849061736573076 -0.1204893519409392 -0.1314025170097179 -0.1887469729447362 0.2945545315047521 -0.009315520149187094 0.03453346702185628 -0.01884690313697131 -0.04734299497761797 -0.1928490791951194 -0.02396191531190005 -0.02800337360288515 -0.2315383247120175 0.07583788189809658 
0.0635355050394751 0.01804933181426083 -0.00372765836073942 0.03463169415889659 -0.02988653783679469 0.002816847600503168 0.03798025441434318 0.03091014017308249 0.09345963554151679 -0.03573512834425187 0.02333596193718677 0.0186582806798046 0.01013232336960682 0.008097260877568143 0.01347394998102959 -0.005727030782279758 0.07336359709220355 -0.02552847980054404 0.008298316435493362 -0.009254650179343578 0.006793800163411344 -0.04499953252978299 -0.02196833840855007 -0.001481347793086003 -0.03369438800062563 0.007803762837956675 
0.08043984810741309 -0.1007412855143854 0.009335516207892402 -0.2458840322455607 -0.05412377714723071 -0.08394058183101083 -0.07530589875679544 -0.006752717562950104 0.1851763150285571 0.1347150874145201 0.09751137615103679 -0.05027484014644004 -0.008437828883239868 0.1832831581186169 -0.2850564059903303 -0.03893053791588287 -0.03386181203038503 -0.08387887475429712 0.03039726646460842 -0.03853387054014146 -0.06340261539357181 -0.05448976735613068 -0.07190252887829647 0.06151522406568861 -0.1743672202409875 0.1057583331873374 
-0.02482591243137676 -0.03486637882463937 0.02540833567161304 0.005195010354793336 -0.009372554627286018 0.005315152631451279 0.01246394919536224 -0.007468774955617481 0.0309234922929233 -0.001054431369971689 0.02690484957569244 -0.03871089228266812 0.007316984017178847 0.008780261064370938 0.009494580411840297 0.02610678520125943 0.02872626316611984 0.02461874371477772 0.03113394548227381 0.01614429197219061 0.01387839425740351 -0.03884331805584178 -0.02619338629200091 0.01503814569204752 -0.003924514127732335 -0.02241036185716793 
0.2057244069382988 0.01072904064162158 0.04015285322581376 -0.03487594997099439 -0.01220400572771272 -0.04748630100225038 0.03237078636624551 -0.02576487729639326 0.112151575090561 0.06848444142108445 -0.008792869029066758 0.02626384014481593 -0.009691569956004309 0.02629628539105537 -0.1759942306667675 0.05005946307981696 0.003007407696064162 -0.06978496945465701 -0.004921506411567635 0.003547493145951672 0.03337235311803204 -0.0364646882526663 -0.0001653307686768608 -0.04871471516191588 -0.09912323094355169 -0.005196173448068321 
0.01170942900233448 0.001401737500760253 0.02510917688162678 0.05936598674158092 0.02138254305176772 0.004186460825883406 0.003753564540100743 -0.01933732907755536 0.04007157195566949 -0.02306362473241658 0.01012821639850463 0.01999934656219747 0.009064679257006708 -0.03856401004624477 0.006734196995718522 0.01282061919711493 -0.1051765900560261 0.04436407169604784 0.03708365968872522 0.01236356948544976 0.02829185724418359 0.07869181981348535 0.0232174607847251 0.03010646946106049 -0.02998722983085567 0.006695281222287131 
0.06555312901581493 -0.2528832055832028 -0.06905297794995255 0.1283346425482179 0.003364029340449953 0.01323927019646103 0.06732263598308855 -0.1823992299268615 -0.04954926630814514 0.04302021483319281 0.04964306447213116 0.03148540175102754 -0.01404013858997699 -0.2898534033875228 -0.1371283876677729 0.005757934209896497 0.1906451371713189 0.06704100980159822 0.07808654249718339 -0.01896036132548156 -0.05706109863685938 -0.04476174121762432 0.02956808364673181 -0.02189201121760142 -0.0835483984389203 -0.01129122240485204 
-0.02779753113061598 -0.0494093788661889 -0.07450046083583145 -0.02256424129665101 -0.01466134369402286 0.01438343264968261 0.07509523902543686 0.02083246096536041 0.05226870651753986 0.01413802895402029 0.0338492690724163 -0.02347221618029072 0.001207497142047626 0.05278769629895107 0.02167307648455604 -0.01467591537333621 0.1744138682158148 -0.02626461926751957 0.01496432554481892 -0.007688461458664784 -0.007730762476245066 -0.08646005581815941 -0.01053599062215981 -0.0279675282702719 -0.04553555801986289 0.01865925823651305 
-0.06799738575337198 -0.07237791680766738 0.03180585759277419 0.007473881056893873 0.1150206563208973 0.06094107671471303 0.04490101273486165 -0.1211764258025137 -0.1745137555752546 0.1279438925254747 0.04332108071452338 -0.141116625238555 -0.0475865360391167 -0.1974766740386227 -0.06320468993763458 -0.1293837647244942 0.1665881790454434 0.1085315621015698 -0.02588783381842435 -0.02227468684166189 -0.1145583822611999 0.06302901019703157 0.008269420025119849 0.1737704568884219 -0.1494874862585632 0.05464895674046748 
0.005514830790560554 -0.002443737329137215 0.04062383691267518 -0.001049176298514263 -0.005932619678721542 0.01367831279143503 -0.004414661449896908 -0.01882374764062616 0.04058069446885475 -0.01668392167473237 0.05036529565805623 -0.04786208799077939 0.01425760907894897 -0.04143805082135868 -0.03224451152524177 -0.05201797332824904 0.07704831118308078 0.07444094990243753 0.0324035372149453 0.0160788116672258 0.003545894643917873 -0.1173386363478201 -0.05391545358573389 0.01400115215311335 -0.009355869870808048 -0.01252017076954049 
0.07151679488438612 0.137988989628964 0.009337332173516818 -0.1245453203494176 -0.05933262473891093 -0.1815640779778485 -0.07783506878537064 -0.08717257666082103 0.06794346729848674 0.08037630133124987 0.01172297020093154 -0.08634562745338049 -0.02751698337644402 -0.03933714836009501 -0.2635893288790312 0.008774437240680276 -0.2427721676938983 -0.002866710429976684 -0.05711344132783344 0.05010625240536987 -0.04722398491603445 0.1150061039826553 0.01157303626046441 0.2096061121797821 -0.2222744523031515 0.02748289170341603 
0.03347391307918288 0.02629096732792891 -0.002439013435265917 0.026264363197029 -0.003884703134864211 0.007483900731209408 0.04335603124505701 -0.01333624832327732 0.02036501111971271 -0.04168256141841645 -0.006879789176519871 0.02966880737538989 0.003354474901665364 0.007613207629211213 0.02359887201340897 -0.01288856473683456 0.02087797249097224 0.01419418079620115 0.008425666766119147 0.0006565791193601533 -0.00294834799028773 -0.03276752366567524 0.01717106949730374 0.01882323825312425 -0.05343508693772253 0.03901190336637507 
0.08291009618059278 -0.01703634753129922 -0.04872602749282492 -0.04454022702479332 -0.01508111503359308 -0.07986381834776744 0.007919055370996572 -0.02599340427146278 -0.01750197387938712 0.0643443536257433 -0.003167646119333729 0.02695364644353094 -0.02444826319261523 -0.06693760586595259 -0.07345723527191524 0.05657657503006158 0.1781870470584955 -0.07182277248125259 0.008663996154504552 0.02954485119343112 0.0277130594180827 -0.1756954545093625 -0.007889598958092246 0.06853031046284829 -0.1352770531528882 -0.008199537828134498 
0.01276962977311842 0.02895106995728135 0.003767379347413721 0.01864377542681209 -0.03020977809639521 -0.03667120293002128 0.03523306971128236 0.01304883643878313 0.03399794896893484 -0.02493043233079502 0.02583746453254982 -0.009175710644543662 0.004911294864965744 -0.0448133302650558 -0.009713584094717708 -0.01497616356259196 0.07337756290523628 -0.00161379051227656 0.03377365903172106 0.001710995907987316 0.02214885070992124 -0.07595717967875042 -0.02569027676522909 0.004601097716363308 -0.0766479375419727 -0.004624368281595545 
-0.0678147503013799 -0.04047263568533649 -0.1418528819334698 -0.05193365274247246 0.09893966530378201 0.00152711342927002 0.03619159714247261 0.01380467815098596 -0.04419593216730439 0.07630053990065439 -0.01859977695876499 -0.004841937104828572 -0.03826578130200647 0.04599954021001139 0.0063397941118449 0.01788848649498129 -0.1332467869075722 -0.01766090905249517 -0.05422544015488292 -0.05436880814170196 -0.1549874712472827 -0.1068352789268947 -0.1252405910737789 -0.02950685865526283 -0.2212112736194093 -0.05495217575024748 
-0.06386845619448493 0.1343119480593688 0.03534104455131364 -0.01749473254434169 0.02102834038103805 0.000687750153951905 0.05637713332318674 -0.005729098180229398 -0.02474242988590575 -0.04225372770433915 -0.1123231410542122 -0.04765830104444314 0.005469704697080463 -0.1386590524052852 0.09403616766939968 0.002768384132613606 0.1262597691268762 0.02376491142010411 0.02005147467947401 0.007872821015609793 -0.01357466754217344 -0.1473666170834682 0.02628511943066563 0.0132508907179669 -0.1556288022236822 0.0002836961127707987 
-0.04505414357092768 -0.04839049964121535 0.0867792314237754 -0.2980003327502518 0.2783998158219959 -0.127987302738293 0.005602195507935901 -0.1725779443623441 -0.05443626619055785 0.08482873238834783 0.07489944105468936 0.03044127941690228 -0.04958243398883482 0.2327846035503613 -0.322342037780626 -0.0772098689980624 0.01931997336486896 0.1283996666499634 -0.01575015454761882 -0.07014910906550485 -0.1900476492180695 0.02446111873626805 0.03752226711186601 -0.1095767636427125 -0.1157746299800832 -0.1245785937899352 
0.01593849123279027 0.1359917855588819 -0.009696395351422683 -0.05266948995523278 -0.05100506270969422 -0.04896241514392707 -0.02500057231495579 -0.06150729420522366 -0.03412218708097906 -0.01521498855721611 -0.1531024435436465 -0.04419335806161731 0.002745406592795147 -0.1485001431664775 0.1129217351142793 -0.01970763701283027 0.07981181596481543 0.1685540060263935 0.02979892088001585 0.001714115712272303 0.01332682112980533 -0.1509307559815034 -0.03226969655007835 0.02189743484791422 -0.1000209637717794 0.02626617748707134 
0.04664631498791911 0.05065925867918031 0.01778083571047924 0.0290398232293301 0.1003643055643274 0.1072280496661934 -0.1249935994050635 -0.04666548723451937 0.05115001161258814 0.08273989800337499 -0.06204560490299444 -0.008647230365429443 -0.04278838309870692 0.2333360848153968 -0.0941787179476505 -0.1272034672317925 -0.226519311367524 -0.003642919598637802 -0.03725775401016382 -0.059012834452464 0.0005757233191701933 -0.2137506579789686 -0.01702976861532875 0.1674938637635268 -0.2947268977484457 -0.1301374038960828 
-0.016601022961137 -0.118881759602143 0.009713391005156433 0.04993728760947134 -0.02141404742968084 0.01284998204147431 -0.02222712768944278 0.004624743321666397 -0.01003754274075515 -0.002976137819028151 0.1387298178772319 0.04260600187372216 0.00282715253413353 0.04496607969545206 -0.1176948761192271 -0.06528314679259645 -0.07827359714209359 -0.003465534240966232 0.03246846495934873 0.002992848324632031 0.05370462752501023 0.03695752256384134 -0.03459565003105292 -0.06513585668730128 0.1381348198589343 -0.01830858022480213 
0.02138748658658506 0.1166238179318077 -0.2574861172411718 -0.07468454765067292 -0.0001208040546125219 -0.2048099223223617 -0.1493869147779082 0.2549941820055987 -0.01643893265326041 0.1882591003824481 -0.2275649202823528 -0.03822959127357042 -0.003245145388437846 0.1041723691430965 0.09006574838972381 0.1136493053168427 -0.2554876531961658 -0.1675239162790698 -0.01832146461600008 -0.03096613639973265 -0.2033493133686457 -0.06075630058610856 -0.04664474138189903 -0.04262790044932318 -0.04907738281410008 0.002369778807703457 
0.003374790985230535 -0.08356788280861933 0.03701897861816239 0.1148911729530786 0.0369096181375287 -0.01614925121070121 0.01638178692998453 0.02932852571835533 0.09059418172505018 -0.02603118893305056 0.1452695874000467 0.004868836684379737 0.01383298371954804 0.08727624226329933 -0.1726443156589802 0.02313699766262312 0.04171374437652552 -0.05034351047613242 -0.02858986361648368 -0.005122921916442778 0.03151438375204892 -0.04377493740415482 0.02483843787107967 -0.06375943540166959 0.1184167520435938 -0.04471034646044762 
-0.04860634358657346 -0.09602581513811119 -0.2210975958769769 0.01299388405462345 0.07530901767759506 0.1936496790464148 -0.1959693062729295 0.08219696987746575 0.1627823058325048 -0.08921047536556619 -0.04924222932885077 0.004352194207495533 -0.06017425022706754 -0.08653184467985774 0.2162725977582616 0.0557591385486795 0.04061687038751639 0.09823052303631184 0.03384808517084157 -0.02892696338599434 -0.2113561123293982 0.005104623074687193 -0.1849418907621689 -0.1866951549515591 -0.3451693013244694 0.02186491732588351 
-0.005069068938273739 -0.008958837830397639 0.001694806462405697 -0.02382761176609776 -0.03419109367344125 0.008113654238013692 0.05387739731274855 0.06523405226608252 -0.09194215854908434 0.01068652145938935 -0.01373394706573689 -0.0707882549221479 -0.003458557029809422 0.0406285945524947 -0.1527032950616097 -0.05225992207248816 -0.1142368074211843 0.04571393203851096 0.06536840584080114 0.001351847717623204 -0.03129830984198399 0.08148716221121596 0.02607760131605141 0.03846014154050002 -0.1460447581879542 -0.03753075276343068 
-0.1308522080163876 -0.1651007895817964 0.288197369267536 -0.2553251421815383 0.08493125893349737 -0.05225072498406175 -0.07440201655308912 0.02545973267211843 -0.03603734196308225 -0.005373144139140434 0.1613253036132164 0.3321449065086007 0.07500675133108867 0.04374232045541204 -0.1878119622939071 0.09295828330628631 -0.04312434719866766 0.09476281007563304 0.111132647709146 -0.07555538534210315 -0.2039059514686976 0.05671406940189232 -0.0372026330751335 0.3085538846987194 -0.02432285080872305 -0.149056700481377 
-0.03868589277769325 -0.07832203133734497 -0.05144360595411942 0.07279627695106299 -0.07188009034275715 0.005264564385710265 0.08745855701827757 -0.03208665716771233 0.1673679693271686 -0.05507518882973676 0.00596333755526533 -0.08547070533310987 0.01923717276834528 0.03978674368758504 -0.1573423018829443 -0.105023396253859 -0.08094367856339001 0.01625528427783158 -0.002821694717155113 0.02250573115270788 0.01980858677458886 0.07281877187483081 0.03162372169267051 -0.02986435000758628 0.06949246325326941 -0.02004493539825573 
0.1193368082543016 0.2854619776349991 -0.1549062011523019 -0.1771165232629637 0.2380908894392838 -0.2640868842564034 -0.007347158080031002 -0.1432073505547596 0.2594704872797004 -0.03978001823311689 -0.1292627420087045 -0.1860422653095609 -0.09230365323501866 0.1879304555348825 -0.06767263322349396 -0.2096729197307165 0.1633614728462536 -0.02945644972569302 0.005676313912507195 -0.007431201334504291 -0.02430122222825927 0.1005428288376597 -0.1358513035303928 -0.1571521470468547 -0.2077788513073268 0.0329413063427414 
0.01751529790934834 -0.1010972796161964 0.08210395210171002 -6.704418355365234e-005 -0.1619514181398463 -0.0876420335188401 -0.02343231382390832 -0.09919025200014475 0.1848726813609766 0.01720581258186918 0.06584244809616331 -0.1005657077470298 0.001021206770792395 -0.3110443810983962 -0.05968128253607113 -0.04171389917059299 0.185817214464869 0.1223499151421445 -0.09729319912241938 0.004094041956266612 0.05069783943466254 -0.2449835857468233 0.02482847023142209 -0.07904664254119886 0.1473896653620901 -0.0514804786855784 
-0.04766205042397956 0.3449706194539548 -0.1519437836697562 -0.1671433673238775 0.2048400032354946 0.3127185550402673 0.07773437485474193 -0.1007202898599535 0.0815451205614996 -0.1291990076852054 -0.3870114433277068 -0.110515867472758 -0.06849160524880184 0.5771563883815107 -0.06750562758773913 -0.2496737464984628 0.03444595966649255 -0.03458445435217308 0.0933183898664737 0.01060720040399663 -0.03556880907760199 -0.2560980881913545 -0.1382838694277044 0.0273554475589312 -0.200672230141671 0.04852006301300817 
0.04190430085290839 0.001208221975284782 0.02527239703699362 0.004145918240043795 -0.09741022553458235 -0.1415632892628833 -0.01971626785498057 0.0135304031524726 0.04457819184466157 0.02449680251706421 0.02688357993955943 -0.09452044948098225 -0.02250301559715742 -0.1066438694227179 0.05102280291915303 -0.02026061129636012 0.186282693885774 0.1140692467694806 0.01116998184401355 0.004551028655284665 0.05724515534452624 -0.1681295458389339 0.07582643743871052 -0.1730662252561371 -0.06903340544280098 -0.01693976098404931 
0.2482730841692523 -0.2598008864248509 0.2104101000536012 0.1591049285211371 0.006421994286557498 0.06809709136090918 0.003612795063245826 0.08940863144194412 0.03602734784600107 -0.0994338807571455 0.0707520404950731 0.0836964314847756 0.07503816083806779 0.1596602796373118 0.12310832043102 -0.3817865271206598 -0.1392018818922795 0.07385399092759526 -0.05707282682866464 -0.1297985645513599 -0.1040946366983798 -0.08650346836396891 0.05485677272234028 0.3105617041905523 -0.09459813811907224 -0.07475060532957148 
0.01518955015306675 0.1114653307800195 0.007142101902988671 0.06196571970523868 -0.1070047150075209 -0.05656529755410213 -0.0103971164086311 -0.0118605495864007 0.08630428141683053 -0.05299322114109373 0.04753656182675141 0.01683328680891949 -0.002334489983831638 -0.2202813669812627 0.007840204093427878 0.04657605967434217 0.1482116763493972 -0.03253155622336654 0.0006612871878700057 0.008942768355731302 0.04484563149030842 -0.09419383991695689 -0.06128689503724418 0.1188008459992282 0.04842065165843746 0.03674922134550055 
-0.1683853031054771 -0.07194435445873586 0.2498867786350753 -0.1858452583619175 0.06854238843238564 0.1260260008980135 0.1351902030094524 -0.2456387178365901 -0.3566628888600313 0.1174802750347617 0.2567647336317916 0.05345163910937358 -0.08825748876823947 0.5094426299153765 -0.4767157687422253 -0.009422908332151887 -0.01524877653541528 0.1560583582427699 -0.1585143041496151 -0.0449734988722131 -0.2283436341538225 0.1826006267955822 0.1227122575165311 -0.07543704223801713 -0.4201003022330835 -0.2834603277592681 
-0.05813999049363233 0.1018207234297385 0.07656207491384401 0.006902331596988707 -0.07159552671695339 -0.09510557135259472 -0.06818560196135449 0.02230975171114526 -0.04203931968317247 0.04543850407724952 0.1604728825560592 0.1088651449713002 0.003969595299461104 -0.148738186674975 0.1055748429655211 0.09037070619923569 0.06096676871792912 -0.01403473162570734 -0.09966937046507575 0.01304429323753495 -0.01995726272062809 -0.2533472147162792 0.05560283327422697 -0.001054010965363671 -0.06186305480599804 0.003254000684916311 
0.07837652122473743 0.09050805897088761 -0.1331744094541524 -0.25751641324764 0.06175785928119403 0.06180973817350778 -0.03601757547528975 -0.008741123763370256 -0.1877863518473367 0.1125807384473584 -0.03437543129178632 0.008957969163985833 -0.1204285308741191 0.4206285297016746 -0.05759815630008461 -0.1458447407735931 -0.1244545605362239 -0.02289162469602082 -0.1624114731850683 -0.099288966008896 0.02223387119518963 -0.2476479136324264 0.08795468695456851 -0.2217453780632355 0.3046603050573231 -0.1370222709085951 
-0.0146259714783327 0.1330172737619219 0.02843453398516341 -0.02761647269537838 -0.03849073022809586 0.03100876301962808 0.07027827477028345 0.02828788815487482 -0.1818118448539682 -0.01399396671405281 -0.02543836510351128 -0.01858374297893143 -0.002470211627803871 0.3125105008941069 0.1801463308473084 -0.1140181094956977 -0.08423694707583833 -0.1086242289643358 0.08844050961686932 0.01790342581725117 -0.04784493381801083 -0.01568894937738715 0.02081554683564832 0.01059625648834863 -0.2205182713503506 0.03607689112991925 
0.1572781655000445 0.1793851076701037 -0.1363462342443816 0.1426160837922127 -0.01166970211430715 0.1654472411473743 -0.2637671476864095 0.1642198034354447 -0.04313656611275043 0.1497035850031785 -0.2060828019438503 0.02919186012932667 -0.128662953004992 0.09787746052080819 0.4412227732729024 -0.142917921571318 -0.2142836899090646 -0.1035534799710777 -0.1095586680285869 -0.1297494750100454 -0.06792227854022218 -0.4287926602854852 0.0725144649065952 0.1738848160899003 0.01167087153815482 -0.07841291910352478 
0.136333355468946 0.03125098527903483 0.051141775419244 -0.07585273512888552 0.004385271850105533 0.06044233393649647 0.06805942598704833 -0.07900617991717376 -0.1623913293605157 -0.0954004281167154 0.01371116642251661 -0.02211062390586482 0.02254130423206843 0.06940161173097273 -0.00300561317070421 -0.04924982787412092 -0.0388981019106873 -0.02911650216847273 0.102222913348702 0.01954516549043376 -0.0446170083567879 -0.04551958858764147 -0.09759315714629833 0.06868754580812268 0.1132825210733806 0.009287179069829744 
0.03385036676942382 -0.0132352158408295 -0.05449687485854167 0.2521852913993284 0.1125385912684773 0.04147358794267425 -0.1983659869987436 -0.02101026686788212 0.2518219763735023 0.05844413886351949 0.1466472566058528 -0.1527785795355404 -0.06884708591625258 0.04521495854879611 0.04121083339318131 -0.1645938124177073 -0.3650235028906552 -0.005689648711701608 -0.0865588847754717 -0.09518439612540836 -0.002136992072110802 -0.1520198907887171 -0.04750466453936703 -0.03764251897748834 -0.149740085634847 -0.1673882129581606 
0.002382520556738248 -0.01915669988123759 0.05603647048986966 0.02593952085032514 0.1279631056332608 -0.07356796526866587 0.001772378011441382 0.02871622448924998 -0.04877880164280323 0.03912542804014011 0.06815741874086749 0.0527849146321735 0.01936267822006565 0.1411794363775795 0.01720365854646121 0.007765333610161671 0.2059340263942939 0.0008804067346152071 -0.02873741069132555 -6.019937498728192e-005 -0.001178533716059053 -0.2705220419773537 0.06417864113193784 -0.005079628733201055 0.01388168810400807 0.05341801253102988 
-0.1975340685777906 0.2650698441680039 -0.02638853666517896 0.1118268920183586 0.2886262124425049 -0.071136640705924 -0.007319952102633308 0.283872384867384 -0.1037543910765993 0.1154154070643139 -0.208429299805713 0.2816918743056943 -0.08978012896673714 0.05050565976150353 -0.3124527671905918 -0.1046700247539738 0.02381262094302632 -0.2053098768880981 -0.07676396572981786 -0.07976310111426573 -0.0494594282590879 0.1019876799882711 0.005693231044928517 0.1901315929419009 -0.3613702642922846 -0.1344344851099815 
-0.1192677161689344 0.1560761252723836 -0.09154529610664185 0.06928337953392405 0.06761777787257943 -0.06655121160057982 0.05008666835818224 -0.01927273093162305 -0.1440829928511916 -0.002529607666071449 -0.08981608644920222 -0.1105987724543524 0.001282298600083495 0.05939083008162992 -0.03633720359287231 -0.0867249015712963 -0.002674978035863499 -0.03176006748839993 0.1021602955218106 -0.02867193164699797 0.02528566612630272 -0.01946322290129771 -0.1463364815699029 0.05610918652441102 0.1241366980039199 -0.06270533924731001 
0.1873733453962359 0.3845322482427835 -0.06755949694535283 -0.05410816234907256 0.1963694543868808 -0.2521127571692383 -0.03143603444034881 0.09022016455755125 0.02217785661399584 -0.06754077811721536 -0.01292509867707686 -0.2305104534620348 -0.1194198029219218 0.09893659530028502 -0.1407781371095302 -0.1293122585954643 -0.03714173599986119 -0.07156284459469331 -0.1588987444144977 -0.04543327521369078 -0.0706823341177184 -0.2847868530845029 -0.06401532162814118 -0.2365489589945553 0.4368561546680324 -0.1230812399665146 
-0.002804293398259713 0.1162548768761296 -0.2882647947892758 -0.1200703685657961 0.1030729988297999 -0.1029236278772217 -0.006346887826933518 -0.07686453821112331 0.1627924936951396 -0.04936004278204358 0.02417225919646807 -0.03641257453440842 0.01999562161348736 -0.02624284999124513 -0.1372930836249383 0.03058815249095365 -0.364415120637526 0.1180542358110189 0.03519411734980607 -0.03368780258638149 -1.420034650527519e-005 0.2085324325948031 -0.07077171397060005 0.02817248675941194 0.1257554873668373 -0.08378457561157407 
-0.2772250548786741 0.2037363290499299 -0.03354498918175777 0.1973944130096753 0.0515163149014921 0.3546479328489331 -0.153067913905641 0.01513154900088963 -0.2249637670479182 -0.1965891771663049 0.22499815573583 -0.1436464264398369 -0.08400428692266262 0.1100424934298559 0.5421780303100673 -0.2104342272791127 0.0008245550362857808 -0.05554029212933538 -0.06964155560655722 -0.03330434514340849 -0.2734436846346913 -0.3782232225997674 -0.05483880390578116 0.04245230356596795 -0.07974088739720588 -0.02849636839605395 
-0.01282048724481668 0.07957169869967189 -0.1845936173062792 -0.07057618803749488 -0.01669972250130989 0.06704750663925012 -0.04099729069722988 -0.03407050233752697 0.1589750365942927 -0.0065824287393898 0.05890478575294098 0.06042578696748838 0.008187430550500656 0.08800209015628706 0.1019127417629612 0.06284291762211434 -0.1266183134624458 0.03170921793378188 -0.04529634079992217 0.001920472697556632 -0.006143396708848276 0.01269492522575135 0.1420644915022549 0.01883806588501008 0.02043492218936782 0.02293659320909246 
0.1634430886176786 0.001098298591805154 0.07981159650579675 0.1610774199268095 0.07268842643498902 0.3895806254170272 -0.05085156452420621 0.2644426552224714 0.02196967277895857 0.02378108892447027 0.04103722199831509 -0.1886691849475339 -0.01999547220726497 -0.2173318807051668 -0.1090722628072413 0.001874075645852595 0.1349819957350005 -0.2726941099874335 0.1126929710251727 -0.06626365126961806 -0.03695032304244202 -0.2686061929875411 -0.2396551860475736 0.09706435903534387 -0.3567521498275723 -0.1108128000748572 
0.05773051571580745 -0.05317714421617975 0.1080396771810258 0.002463838179716373 -0.03931498548815634 0.1501735930178679 0.03721487543216938 -0.04307810248908714 -0.02307110116669608 -0.1053841848646713 -0.04303112686461025 -0.0311120880957903 -0.03606573597734454 -0.04293044975378388 0.06050055242076195 -0.09991304559937042 -0.2671381576756661 0.09906612767298086 -0.009368123092096501 0.01905579768580549 0.0535394997890863 0.2556840270491269 -0.1293486027319443 -0.09968869911825742 -0.05807611587730961 -0.01148913600297424 
-0.09571928757416641 -0.3425362503917725 -0.01656949352196948 0.1601866006039578 -0.08298927341128397 0.236483597299399 -0.0570495714143567 0.278058700114684 -0.2595577353577111 0.3076538186677163 0.106138222681707 0.102414447995178 0.08179874305001568 0.01045259867556491 -0.1335534268067923 0.07871930042853845 -0.3156132344182711 -0.03631447366282884 -0.127475476706621 -0.08788688948451712 -0.2487527531998937 0.2561653572404922 0.1034319519990789 0.1808773956204602 0.1029321472202274 -0.1383542088521471 
0.1204018746999222 -0.05259422394983608 0.07456195924575894 -0.01764633552763147 -0.1374675099541287 0.1457961517976738 0.06065200798343351 -0.05110929704293367 -0.1080138116919755 -0.08961670059159696 -0.004656808802467975 0.06988213289293704 -0.01990767455323427 0.01212591089590897 0.03124483408632863 -0.01001663276249518 -0.05694675075192135 0.05590559592746457 0.02788574398793729 -0.008024396645672033 -0.01054707201128142 -0.02505021130991198 -0.001355532269500399 -0.1593548197263441 0.07964818715547792 0.03299700549016188 
0.2076517392537376 0.3119735992559091 -0.2425328311564065 -0.4819638387890246 -0.1307140924365796 -0.5704867799879929 -0.07577278575193473 0.1664452160394372 0.04895756141300762 0.04040191041754094 0.1053967714726968 -0.2227467536904521 -0.02299364171916932 0.2456762918717775 0.1621148144039827 0.1000597087035043 -0.2453496114655409 -0.1682623952410732 0.05632031900239095 -0.03878833394835219 -0.430622388611802 0.06921895819872956 -0.002602796234413716 -0.1265682717653477 0.2936524156619842 0.05837552606358032 
0.03050336610001449 -0.09714930023490166 0.08455336425564253 0.1970337333648194 -0.05686474018288995 0.1757543352957873 -0.009879898705311224 0.05080157468278296 -0.2751953742558153 -0.02706687243334634 0.1230169358585939 0.05452104303465601 0.01028925415937243 -0.007335371131566014 -0.03275336467943916 0.06004888253656366 0.119966508855636 -0.06926631360355963 -0.000429085259076604 -0.02490172374062138 -0.01088911979990272 -0.03123140320928885 0.03785213950838284 -0.05907019302175685 0.1409282625818132 0.06180685189028392 
0.07115743407033449 -0.04447111282238887 -0.09225703920869258 0.01326021520905307 -0.07901569000810803 -0.1802907500372976 -0.09452290809273171 -0.004968806199217623 -0.150454831167998 -0.1452685309615079 0.1089059599320086 0.08127898348643653 -0.09540315473488518 0.181170464406036 0.4512578110363615 0.2982587938038349 -0.05109229970497256 0.07543862557261326 0.01485714966979968 0.0003332947655713748 -0.1513404044823095 -0.06018556003834039 -0.2478141968565953 -0.1101250543135141 -0.1746680771841583 0.1946988634394968 
0.0008198331680051874 -0.05701080051904651 0.08387480141964029 0.1275823744388804 0.1101890698693942 -0.1903405046203322 0.005240877393587886 0.1216662029421518 -0.1158010323505026 -0.03518768408568655 0.1688697969449355 -0.04501963530009346 0.0001865592147302816 -0.04767459481894774 -0.1132176834388887 0.04168418335565923 0.1283135202776177 -0.008573304918282197 0.01868444013395513 0.01066266870694439 0.06049259795115903 -0.14340202935992 -0.07266536794913855 -0.001214556990400186 -0.05766244070065038 -0.02770212787472719 
-0.1426138491816265 -0.251463718032531 -0.01394715275508376 0.005498698126596819 -0.02545880476180797 0.2642954926295278 -0.03640902728670953 0.1434027693611591 0.3187605417989407 -0.07983574341320207 0.0171927741869088 0.03388515016259394 -0.01747311353061183 -0.1781769471916485 -0.09210525963223221 0.01133793734086715 0.2201383499386874 0.068602236825198 -0.03955012140556533 -0.1057864316657231 -0.04392549525744607 -0.2491694604471268 0.02431314303764891 0.1050521893906204 -0.1122597844651483 0.01759012518830749 
0.02883594320772047 0.001746670463384821 -0.0912438013516147 -0.05212118216213887 -0.001729136256407294 0.02277242091305983 -0.03576384086521166 0.05334276907416023 -0.02134758920035557 0.03937583015705175 0.001326153958888264 0.04288916305678141 0.004036398123627617 0.03316139713780886 -0.004261957936654812 0.06569079397753758 -0.04175286103271649 -0.005931979599186421 0.007013095141860676 0.005376474828177544 0.009338361181987779 -0.03179020969042332 0.10137932485826 0.01776108516185947 -0.05632949720161105 -0.03113507802196533 
-0.06620197991152149 0.1690611997639591 -0.07742262656609707 0.01106576187543384 0.1029462731347121 -0.1014088992919309 0.01429700939610129 -0.06976378047095738 -0.1204745015666185 0.1594826878350825 -0.04310211673762911 0.1380811331037806 -0.01551056278070097 -0.1398700118904406 -0.1364722696999872 0.130687783893767 -0.03764247600838464 -0.08148326231026025 -0.07219267859576242 -0.01563113073488527 -0.08677149346828816 0.1011697936857173 0.1005346529863707 -0.05895935618150689 -0.159653060993865 -0.1082033933983544 
0.02065984839291912 0.01814595204596964 -0.05217303917594191 0.01550349778156815 -0.01894901601705772 -0.1264069393452169 -0.04056216709106997 0.0769925978481661 -0.1243076879409621 0.03124100505413598 -0.02834029721904587 0.06065079423358089 0.007094844932499057 0.08490150106297079 0.1190853064356442 0.02569869556325276 0.03046052141967779 -0.03427856318118939 0.009747493568053605 0.005081345569868811 0.03136611234445409 -0.06341870087326586 0.02618473278134435 -0.07003102858082763 -0.004362685939261563 -0.02273350707693758 
0.0009287798477227432 0.2140545689253331 -0.1199860032949955 -0.04568974357348281 0.0379827755859669 -0.02998921792407092 -0.05178935056494578 0.09039283072158751 -0.2471584697251138 -0.02748838601105971 -0.1077707821391557 0.0381008747692555 0.001744372365860278 -0.1311301670587681 -0.1101020498656002 0.0761723618154689 -0.09016485158307257 -0.1013001960573302 0.03537116634093074 -0.07283881071678446 -0.06226955804578812 0.07220590773184665 0.02031609764083903 -0.2196301787427139 0.1249134935374476 0.01100491931794258 
-0.006832022266938525 -0.01540045805671525 0.04764778754651482 0.1262955546835255 0.04642074470627418 -0.1824174466648295 -0.05668896045888374 0.01078400842830695 -0.06658530215314715 -0.01400994578492104 -0.2054203550175502 -0.006048118672167967 0.0008453663526988571 0.02533473099579518 0.2596440926965472 0.02697004013780893 0.08351173957852594 0.05277451074122659 -0.04440609997290363 0.009681676597698915 0.03454026747106174 -0.05120735383590327 -0.02487443784663332 -0.04348968806988007 0.0308946669308395 0.05607582504039013 
-0.02602040218591569 0.06789257560021648 -0.1090531794767292 0.1388577473731087 0.009123743803285437 -0.06370167191388142 -0.03064256598836444 -0.0794487092254909 -0.3085804580937645 -0.07800613022455082 0.2277918321914807 -0.1907884520751458 -0.0264794755913975 -0.01419513836690773 0.1137913411761506 0.116642923835327 -0.1962376186740684 -0.03054445573099118 -0.03679639093789087 -0.02112656685077767 -0.05664510483112439 -0.09243954707184386 -0.01535785140990547 -0.1454780463471793 0.01523988123764507 0.005488228619472121 
-0.01055648616726352 -0.0448648996380658 0.02220069721637714 0.1233421741195081 0.03438209475104306 -0.03113650058568109 -0.04181356947997093 -0.04452556764762109 0.03591057420929695 0.02286914351241857 -0.1193666122707534 -0.01636623236055221 0.002064839178937113 -0.001800718291633291 0.07691140687505271 0.01060201167656559 0.07639697112911428 0.09691028381531808 -0.01768838226645844 0.009253977347786947 0.01466894371796288 -0.03722566285702433 -0.001825649715594306 -0.01340487119106424 -0.03126797350849667 0.03964494939520619 
0.06509879330105625 0.02985175552225582 -0.09303715018816908 0.01598279900969741 -0.02005025871173627 0.1280809231817091 0.07176043511186001 -0.08761418905877544 -0.1997391874611017 0.1198723773874716 0.1071030624788484 0.0138599681460341 -0.02452999686323906 -0.1000281351626 -0.2229199406221033 0.02397868772201761 0.06961669727614107 -0.09639845745511552 0.1507280038174328 0.00421115235130019 -0.0283256362537025 -0.05855136571015373 -0.07374420790972928 -0.03500164885042841 -0.2064754653159696 -0.05204864167612194 
0.01580708191315493 0.0248577041643307 -0.04938737218524344 0.1652067796675213 0.01593990871238252 -0.08305878129443807 0.05934458338548072 -0.0847125994017057 0.03053230614596588 -0.008285924342238099 0.07312420497005233 -0.000558189992556214 0.01070394869686059 -0.04745799309583049 0.0753933203665525 -0.001923228664992969 0.1181025490765116 0.0002361848532377592 0.04272446858283176 -0.0002167630795565878 0.02084132476074578 -0.04752871459945685 -0.005899686520131882 -0.01582698556509316 -0.1205016059947113 0.05268382032924781 
-0.0448193726950899 -0.167069128831999 -0.1604844737480338 0.0318593054367954 0.04227885255216746 0.007736031204917841 0.04550860636505236 0.1551387071806831 -0.1787221345411037 0.1104475510782754 0.0564985922067959 -0.119832375947913 -0.01231298064947839 -0.1382385192244577 -0.1258015428524615 -0.06962539302234473 0.05216291125521468 -0.1831634510830667 0.02425704866177266 -0.03348621741562375 -0.03343987875431007 -0.06008302305041609 -0.07738688268986865 0.2030423541316777 -0.1580132933414522 -0.0697517904006414 
0.009431742516805319 0.002077420062970323 0.05525345939815732 0.1252652467492789 0.08423027650544818 0.129783204956353 0.005400490524113333 -0.1374885455118232 0.03389069862144117 -0.01836108781430855 0.07063978527865789 0.01099142843645554 0.008982508700590643 -0.04720914970405268 -0.1366438372027298 0.06598865618392394 0.01430507534762362 0.1383485059262636 -0.009491906215954972 -0.0005287274728874701 0.02859177848593363 0.01109052758368993 0.05734482148258333 0.01870810664188845 -0.2228971809500645 0.0168934639858639 
0.0393030720970762 0.01831097574373043 -0.08029720368972693 -0.01674380100795172 -0.1865655058512365 -0.1849733645482714 -0.03683836991171139 0.3176513045319841 -0.04187920547266956 -0.04201563348862349 0.1429604032624359 -0.0940658649562343 -0.007602135736312828 -0.03680715935120299 0.1779667928537676 -0.06064291962797787 -0.02458588040514793 -0.09543458202739025 0.2580137957017114 -0.03127541183342276 -0.1488167805774629 0.1840869581812434 0.1398372620114662 -0.1485567623728457 0.009206150343268658 -0.01017904618065824 
0.02005870139007461 -0.04867834845112208 -0.0205583019898255 -0.04386622462531964 0.08810364362695293 0.06506874684467917 0.04612456541525266 -0.01839389935881091 0.02307975314019236 -0.02716755800707474 0.1356766717538225 -0.02567630348450624 -0.00205552248996733 0.03920281669425874 -0.09209888209226076 0.1115815655204493 0.09110148952191123 0.09040055996584014 0.03964075717158921 -0.004329887209061839 0.02633307289118277 -0.05714307249413078 -0.03426261167350067 0.07626637760193945 -0.2779544408617535 -0.04440044893294459 
-0.1115005218619771 -0.173483384469994 -0.05947867051190826 0.000500740557356035 -0.1155770028354289 -0.01536591769423057 -0.1386113638166772 0.378482157365709 0.1765458090070197 -0.04529074777079641 0.2412467615934748 0.1247316368999478 0.01858474271301045 0.07346535345460899 0.09268252832832453 -0.003619765137750808 -0.137585626099866 -0.003090580790156811 0.07269486345855258 -0.02908842958016607 -0.1205542707334739 0.1608350670772698 0.007034731826453766 -0.1626970304462326 -0.05168591497592252 0.05703732437744592 
0.06537971844205825 0.006419465576018193 -0.01306923781761778 0.00203870967314934 -0.01170452093984434 -0.07806735319301457 0.03646205817709384 -0.01101650368863158 0.1011207086604623 -0.025748139499862 0.003693426823549282 -0.03145223212714218 0.009882657553114588 -0.06925722333051658 -0.1311481169044523 -0.01900176476098305 0.01838728824904871 0.06840175789550515 0.0181798169457425 0.02350406189315541 -0.01826186525334026 -0.1172747439642027 -0.03206114554759757 0.002315833654710929 -0.0483338148599013 -0.03899845421245428 
0.04044207008847176 -0.2769551195549183 -0.08127734333555604 -0.08066455441391311 0.02609026926686503 -0.04773965773855019 -0.1123327386644813 0.193549664558181 0.1894649023445623 0.162995676712163 0.08302107948703676 0.009946652533590542 -0.05341383324059304 -0.09765902454055386 -0.168270320238328 0.09147935409670999 -0.1111902263151602 0.01835595648956986 -0.1029559760640238 0.04448976197474367 -0.03204103781319264 0.02161624000597927 -0.0174517689149167 -0.02426650572223322 -0.1802658889027929 -0.1257696614315515 
-0.05168437427006974 0.04067028263663237 0.02202422689270029 0.02995143916801105 0.007104690513870506 0.07115332304667293 0.02119120460661926 0.03833771444655992 0.107405117049548 -0.126662252856948 0.05356054844841029 -0.005102964306830962 0.006298466904941471 0.0457432508510928 -0.00527826896503531 -0.02600642498254962 0.08043027836517934 0.0151851694993515 0.01445903261650831 0.002133288129916173 0.005748521914521751 -0.1035310309185037 -0.0001719886299331596 0.03702394869538166 0.007390870279631262 0.004903376416173252 
0.08830448997111957 -0.2713771184635668 -0.1135181417964508 0.02763415687722156 0.01826067139528234 0.07280901977688933 -0.003281670449059972 0.0004939649148896542 -0.1158001500236363 0.2903168026699582 0.03171285924252213 -0.0657611804228606 -0.0136322009007296 0.01063456723166962 0.1140708783812793 0.0259002682584119 -0.0008797157931162003 0.05347532887586297 -0.07859792373542572 0.004823852350159533 -0.0294432724190955 0.1022775022468521 0.05012293029882001 -0.07528543123574033 -0.04335820019612563 -0.08827936312092485 
-0.1010227784752023 0.05033978996221886 0.004500268304335336 -0.02434483007925946 -0.04512231165432558 -0.063621259066564 0.07739499775392578 0.01573489046082599 0.2208280507209831 -0.1361119648159882 -0.01562296454535351 0.01955061624117586 0.003661623462940071 0.02073865693663852 0.07530919462658076 -0.1328259970424927 -0.004066174298520528 -0.02364307104207575 0.01348597267437597 -0.0008573911170637212 -0.02185760906090077 -0.08373696687186695 -0.03979062209249001 0.05247702205340147 -0.03266372293881595 0.01811809871975218 
-0.02384026671485802 0.001114242282512875 -0.04855821454094529 -0.1990459303779008 -0.1585232091068861 -0.08105240614977326 0.02336473560534893 -0.02750825079837858 0.1030287197184205 0.1743201064995987 -0.0110952639686108 0.3307608577165214 -0.05093003297775542 -0.09983351235235867 -0.03863317024793005 0.2927904197044951 0.03934398819325163 -0.08081155192801037 0.274270651246451 0.02970914175472188 -0.1427223889481384 0.1761298826138855 -0.06397567228621018 -0.1010265872046321 -0.006883296934503625 0.001620277307938504 
-0.1011463024431501 0.06091113358657765 -0.01371827450197371 0.001021919580283964 -0.07067072191614865 0.01855629679806447 0.04362752110757934 0.008685602178692617 0.106263687454188 -0.008948017566155308 -0.1363175562150638 0.1736937236109531 0.02864589057258217 -0.003070381906874698 0.04694806576501018 -0.2002846225037132 0.1043081075662769 0.04102634889947722 -0.01693659360594039 -0.02060273809378951 -0.03480970014419891 -0.1304357335082668 -0.06570573900093862 -0.0264644847027027 -0.0757715962610083 0.07555213668267191 
0.05884106123931381 0.03237615686239721 0.0973727218425644 -0.08300863792462163 -0.1057025104883026 0.03973850840042161 -0.1748990067937361 0.02095644475269495 -0.106379240151615 -0.04127827790488972 -0.04050092061580405 0.1823386697350076 0.03495932961719738 -0.09873706885058708 0.1320919553944812 0.2829698570286626 0.02518697400267462 -0.02467514814984335 -0.01469393734744899 0.0199869090601215 -0.1561062551623809 0.1191669581950462 -0.006593991395327669 -0.1412013370297344 -0.02652370342401673 0.138409071886126 
0.03750111828413742 0.009011067246809742 0.05126449592398823 0.01686566745567431 -0.03067977534355182 0.1119247059226066 -0.002827577254174409 0.0367868434432928 -0.03110131716232275 -0.02907906290499557 0.01541206090040646 0.05574026505546265 -0.02288695759050097 -0.01119301687015305 0.1697508078020094 -0.103756815038646 0.1179954358553464 -0.01638112514997688 0.0577882590345962 -0.006509200701883359 0.008172242376253639 -0.0525431759228809 -0.0967338306848565 0.05492530670937105 -0.054174840915013 0.01657796511995929 
-0.02369342218470883 -0.1608082870533323 -0.07357351770639764 -0.171493582412519 0.0419698339765304 0.004171393623498894 -0.09442265827510121 0.007214667607952557 -0.07464013605922598 0.04920385757303131 -0.1280811950869586 0.07708848184048525 -0.009012678215452711 0.03748691330459667 0.07475084172761415 0.3274057707428326 -0.06501580448076423 -0.06984822621607097 -0.09859824750236323 0.00664795047454048 -0.03648572238040336 0.07404910427498794 0.1857565176828863 -0.002324021776356623 -0.1229013465279562 -0.02450870405052523 
0.002673094537413814 -0.009805372827896506 -0.003429452212787655 0.00698816471098633 -0.01132458657797646 0.02058420352428693 0.03598134533994336 -0.004263304694646471 0.00933887661777571 -0.03032082593825896 0.02308571277514053 0.03296267749004637 0.00524506114452496 -0.01010192051579203 0.03423128098425209 -0.005172533795167673 0.04766600186623893 0.004214635356028858 0.01104414830948407 0.01570739691435972 0.01771638439848869 -0.05106605022166928 -0.006661222497915001 -0.009666571077365892 -0.0001482464272110483 0.0004625574196998441 
0.05802682775923011 -0.02531347740760412 -0.04574764596931477 -0.06873064939294864 -0.08483639892061794 -0.035241142011418 -0.001634437642738831 -0.04855320483259923 -0.005151469219553213 0.05420058540448575 0.1074495790738475 -0.09807649177576405 -0.0212657363883161 -0.08345781208684483 -0.07323602296987138 0.2624468305283606 -0.08618438714878239 0.006425939724902112 -0.05944410072164916 0.02059151258652353 0.02659509309310123 0.02969208505185515 0.03750830305816768 0.02079446790001972 -0.0898437863244478 -0.05485838328058868 
-0.006746720316643658 -0.0279592685738221 0.02127058104965673 0.006048518176258017 0.0008694828659436176 0.04160994457116356 0.01499017087003828 -0.007327744435764037 0.01922599912519243 -0.02212304274526163 0.0201996969804456 0.03834043707111674 0.001657637480865041 -0.02890196232709073 0.0442152386190148 -0.01537911830742406 0.08513010137605991 0.008307137217947781 0.005121450048385475 0.004028671613743837 0.02375999173805003 -0.04067893617386184 0.006068591799165183 0.001457098340851012 -0.0266795374630205 0.02264824458381105 
0.009162146243994153 0.006412076641224577 -0.04488763762688467 -0.06800447461799038 -0.1189660108823942 0.1736249147561649 -0.01325810503761628 -0.05521534735971685 -0.07792146912803083 0.03280009075451149 -0.01440471499347578 0.3657981775783352 -0.05023453318337032 -0.1800377971173588 -0.0777286485948846 0.08055125115920818 0.1103433220099651 -0.04557803989987299 0.03451764283337426 -0.01295925221078942 -0.03366829373759972 0.2464103463613678 -0.05374875785705167 -0.05442102911989262 -0.06704911422444528 0.005082359841475525 
0.02037126050085861 0.02594581472542246 0.03641386527155673 0.04595557333916137 -0.001501152315085506 -0.01338713515309965 0.02580969270633171 -0.007368963987371469 0.05470512402405951 -0.01391628242499056 0.03645813432555504 0.004253891384972563 -0.01842868200872456 0.008541096972709326 0.06456691213211813 -0.01855801269442209 0.03221341641273956 -0.02592514192263766 0.01523423985082329 0.007300659111398799 0.002274047330967194 0.006596013837804512 -0.008654811018298 0.02366583227594026 -0.02206960106359864 -0.008995493096952323 
0.01418072373448573 0.01411679603310842 -0.021792230658575 -0.04420050985717945 -0.04228461932442061 0.05449972158558498 0.03637997675648585 -0.08107609805412223 0.07178126756061221 0.1593839045686266 -0.04552402248701704 0.1178473178026221 -0.005587597572725859 -0.06413833223929284 -0.3110142646572954 0.2043499896938009 0.3112593107165468 -0.01528378895008309 -0.1432990875052671 -0.005876667988097285 -0.08866133197012337 -0.1015638112982591 0.09338967651902498 -0.1089181398520652 -0.1231344222946463 -0.09518314868576849 
-0.009252713518522918 -0.03694724106010874 0.005202958151667427 -0.005781030792795674 -0.007332547229117688 -0.003163495983979357 0.02605854499900376 -0.009335535555368651 0.04338323643909346 -0.0261990221692332 0.03440186526924183 -0.01980680428009371 0.02952074337079015 -0.004650858053799103 0.001347458244018612 -0.02104566521773923 -0.01687859396714106 0.02890801537154191 0.01697545168703385 -0.006250442224198615 0.002138702115535984 -0.0515649215765335 -0.03501752669901619 -0.01255319866508497 -0.05415979469750304 0.01824595657941136 
-0.02565297145971645 -0.05872581312001569 -0.1905195035254378 -0.1881606093673618 0.08700328918317343 -0.06922987633962184 0.07215436335528894 -0.1448287558766274 -0.08430686034422456 0.2307734906514965 -0.1324059198782903 -0.1032299780996176 0.01247345295533139 -0.07587321192218723 -0.1482984792133483 0.1119075882611915 0.05808428728748413 -0.1183928688674583 -0.04342826144158615 -0.02769841482835484 0.02872156667298458 0.04843250955974241 -0.01539495818708981 -0.05782843050718346 -0.117199604849317 -0.1106559308519191 
0.03581673295956126 -0.01253039687900335 -0.002075931883429539 0.02397191161137829 -0.01495697312199834 -0.0150080382961105 0.03621791299623033 -0.005404754849412217 -0.002422970984839784 -0.02898480894181629 0.01711693416761839 -0.01931439481594009 0.005776755659264587 -0.0172316086815225 0.01322176150197828 -0.01212167538414943 0.06099423867368276 0.04320570931025284 -0.004009935533730027 0.00883002808624775 -0.003370681212174252 -0.05575574080149799 -0.000388827467942992 -0.002164129143445044 -0.02824392398737496 0.03127316785690444 
0.05462369180390415 -0.01392890515701379 0.2431444328144989 -0.2052497821680314 -0.00881408070443775 -0.07244755431135493 0.2061297557470729 -0.05331417280877781 -0.02940218908224561 0.1486600688816443 -0.03346032486135459 -0.06779131063803885 -0.002425143138692285 -0.1614322921962821 -0.1205151088572796 0.07090838733948425 0.006684931439995608 -0.1519226888059116 0.05183479565599822 -0.01642104170218314 0.04359298710797203 -0.1405094019580724 -0.0669779901307675 -0.0295930769504436 -0.07124237903516338 -0.05523573606112733 
0.04830692721291022 -0.02071259889646908 -0.03123314675590769 -0.01335362252355906 0.005297066709149762 0.005094817894670273 0.03637005790888522 -0.02261846788432841 0.02730357056447766 -0.009804919726419876 0.02185490100164826 -0.01115375775203674 0.01220565769246325 0.03750315601068385 0.03155077007784686 0.0007633613365689749 -0.004297737487064821 0.0383242018325641 0.01414591943407875 -0.00348007790061641 -0.006590919128473857 -0.01946272932741726 -0.006834250840183654 0.01117248065067295 -0.03563943544256517 -0.003069024555256199 
0.0318207491194976 -0.1493896264041158 -0.08245260464864493 -0.006461314686821197 -0.002988690030311061 0.198215545054294 -0.02994317943944122 -0.05938372977778764 -0.02008703058765466 0.05224858263534468 -0.01249923388283343 0.1026062711955164 -0.007897985129856542 -0.1603898904373586 -0.1748988368403811 -0.002131252340750098 0.2422535897955041 0.05209524769417048 0.05144312681166393 0.01629665829500466 -0.07813924763737892 -0.04757332948361362 0.02918736470865353 0.01137215634457854 -0.02509047675453368 -0.03876532357463361 
-0.01414156106908371 -0.03189472395474084 0.008402124741210004 -0.003351320945094958 0.00820923377663161 -0.01451046040644197 0.02335351965903774 0.02761267216036738 0.02666079097919017 -0.01959258522012241 0.01980425962158742 0.01041164256855339 0.007823598422702287 -0.06456234653815571 -0.01421125725938582 -0.03438291790955964 0.09192611401826369 0.03958017558651493 0.02978577906870808 0.01447994787249602 0.01308548323646152 -0.1249061606351272 -0.02500633010620352 0.01534271600661778 -0.0219377896958391 0.03200000256942896 
0.0632333327926992 0.02730877965349164 -0.1068738692303632 -0.05577339768351026 -0.07834796168952014 0.1035416002774137 0.02319042799520961 0.05956990414730187 -0.0190391805046382 0.07539125164476881 0.01363440551326623 -0.005028924348544065 -0.02478350300667699 -0.1424857726874172 -0.1648405579677554 -0.05023231377103195 0.05178353020812543 0.09015730149736581 -0.07373868981778152 0.08631019753897447 -0.09863056911699807 0.1802271820051119 0.01573712715709507 0.03216078801309465 -0.2120543457384308 -0.0802360900974074 
0.004474701687833079 -0.01550592485032564 -0.02549262837863729 0.05430794591728386 0.01917820394005059 0.04086259333786933 0.02899233865202757 -0.02293957293275917 0.02326886030514118 -0.03394606980605271 0.03901883518715066 0.004039104244455378 0.005186544290093996 0.003712758324806646 0.04612328158362777 0.002687624948693497 0.009755337168122559 0.01486370059363138 -0.02294103710485548 0.002749379707508199 -0.003765763907764935 -0.04873531464039941 0.04450496057982384 0.06443930244367145 -0.007588914615471508 0.009674531369821129 
0.0003056778193961663 0.0007420910151141377 -0.1122228994392893 -0.1201127893687599 0.1247631206993558 -0.1639565168180198 -0.03802586323440124 -0.06993531278859519 -0.1160295329662498 0.0800002941164419 -0.004586965649128819 -0.1255746348329832 -0.006331115327210038 -0.1091244077680347 -0.1466143208274596 -0.04739259181355251 -0.1057923685907627 -0.006339023187589757 -0.09116611818291664 0.006141672768019618 0.1604176238897364 0.1161268850774532 0.07063942690128275 0.2260694696340028 -0.1134063936556943 -0.1145412572736433 
0.002285026614130629 0.007407372361411548 0.02099437625602128 0.01201863243722945 -0.02532739245895016 0.01124885302768024 0.02148088963263765 -0.01623428241707167 0.07531832694805649 -0.0203924955065022 0.01393349877347438 -0.0006763733185983372 0.003717427809818068 0.004139835277279725 -0.03341158432691531 -0.02538674183576047 0.1314338401113711 0.0007247709082021576 0.0493985161522849 0.003390954931862337 0.0018013219004099 -0.1159275746693407 -0.02860362367976254 0.007274616758651319 -0.03855300353287561 0.002135160846483836 
-0.005117804600285883 -0.08029873154866023 -0.006578622787819399 -0.1512585678409338 0.04000611206619125 -0.1283977393641522 0.06610996289172913 -0.06326784180590259 -0.1191157668004194 0.01851059841584924 0.01313512434708079 -0.2141858132509798 -0.01655646079090494 -0.1076490610641241 0.1315090512079381 0.03447046063703971 0.3221355268595568 -0.1015775251512528 0.09154044699883442 0.003675047490360278 0.08616136231883505 -0.3044244656675073 0.08057523967545975 0.194293834650971 -0.04834931962217833 -0.02290521079398436 
-0.02117729122829085 0.02206098334777883 0.002154878248408082 -0.02103023762002734 -0.03028939679876719 0.002047012756863368 -0.01156985552473673 0.01040837184178184 -0.004940872289215726 -0.01910423298396812 -0.02060877877663065 -0.007807363496635475 -0.005860641234254094 0.01266587268928454 -0.02746289878596059 -0.007772097479090384 -0.01491095333274393 0.003795491120084431 -0.01663504053704341 -0.00187210221371551 0.02454798775851791 0.01026547856458088 -0.04354645015735659 0.008450023088178502 0.01276228730097113 0.01105467762856825 
-0.02411531498875373 -0.1001142199650733 -0.04735645202839525 -0.07635385176274241 -0.0803222296501605 0.003192779397735649 -0.01606643437349507 -0.09728759511643703 0.01183759498918637 -0.08133719485276408 -0.06310846412024068 0.01811706151299143 0.01767729133986322 -0.156488285969702 -0.05333982906561783 -0.04238884924369173 0.1287277173458468 -0.04492043638350779 0.05071999768764225 -0.02180955772196437 -0.07833571910842502 0.03966764037662589 0.003023297636313515 -0.1003035400757167 0.05118113885367579 -0.03039535571995115 
-0.04367217924165592 0.000170652993421419 -0.01810395977310295 -0.005490799400854796 -0.003110147459219269 -0.006500431512771938 -0.02771840890118239 -0.009150358650052645 -0.02088564329819857 -0.01006793877685893 0.06185219454713274 0.007375885919111932 0.01292470939136975 0.06464879033955821 -0.03097657934150676 -0.01243828809125071 -0.008783753708859157 -0.001694343354435523 -0.06193313852428389 -0.0120826758785427 0.000903937289672392 0.05458189173127333 -0.04558644573850477 -0.0317290387744185 0.0639790664054111 0.02560987598574644 
0.2036525374164661 0.01606688226789669 -0.08056324942189901 -0.1047304373783604 -0.00389484850710487 0.1308444177844462 -0.1732150670600225 -0.009211504558091407 0.06910097688013124 -0.03566882636785587 -0.02856291294370157 -0.142943504807721 0.009927594170240304 -0.1581378105143419 -0.02759697146606271 0.03346894241274273 -0.03226225485206189 -0.000164460208650097 -0.02894377329088553 -0.00822015764499903 -0.05055492872841354 0.09055396818538655 0.09349748505458951 0.001560064106238379 -0.01854874372109519 -0.02514392510759109 
0.06157371101552982 0.08238614584561288 -0.0277294900457345 -0.0253368758429331 -0.03777037994098545 -0.03580010091104347 -0.007474715036294119 0.03503583769147002 -0.0004994457143216552 -0.033837821938658 -0.05898015304785365 -0.05200213792844272 -0.02886621490901994 -0.06852813719668149 0.004488270882405126 0.02030009647141898 0.006984313746320578 0.0007513687773038603 0.03617185175265985 -0.002060613422415141 0.00682502419060946 -0.01850058836306011 -0.01350804978698972 0.005641373675251559 0.004812666587334428 -0.01010986153098982 
-0.2018387636882602 0.05215416717181867 -0.006033241804722929 -0.04011982598667988 0.006737650280998148 -0.1312017038942122 -0.1555642033671159 -0.02650740027542588 -0.08495911702738873 0.008930914710348323 -0.07091285537198415 -0.01984876259065506 0.0391658679913986 -0.1078200129268226 -0.03585560187875948 0.1056903662364207 0.05472690572929354 -0.07417210965746311 -0.03494635041083782 -0.004301014674927939 -0.04612071586984261 -0.03135128126527799 -0.07642368118732421 -0.06234782344734818 0.2209694264649721 -0.1229980204559284 
-0.07769317886206086 -0.03944558342720123 0.01142452098515189 -0.02867070957562884 0.01521572698171508 -0.06466577152764208 0.002588280387547927 -0.001331168609205707 0.06486984834913455 0.005966079287825623 -0.04453927902467415 0.02511502569997157 -0.01547859363962812 0.06154801240879209 -0.07958351677802167 -0.06731722543169871 -0.1029604400213585 0.01801131972182427 -0.02508357860884787 0.008312731808442858 -0.03647022064728465 0.1292832881443655 0.03344678443035769 -0.02556241120186072 0.04370247869818147 0.04014891417089121 
-0.1027491951372925 -0.3350854862507585 0.05808943856743098 -0.07203335452630599 -0.07109631712060228 -0.0178286085544841 0.09821904646727622 -0.07892204570011178 0.03031595912528456 -0.1039953864160959 -0.09485312291502814 0.0616698318350628 0.05279317550896544 -0.08713890954473413 0.1347147568971004 0.01558894904183704 0.2116237905981134 -0.1159702740090326 0.01257992533416726 -0.01598625857581401 0.02321762115508527 -0.1961713551394419 -0.0127059963590547 -0.1213733979291285 -0.04543038839269957 -0.03901004549988085 
0.04582668307901501 0.05723623390511742 -0.005670163708545892 -0.005708264919166282 -0.04182390608036816 0.0881448230359648 -0.008370849244354226 -0.06039889589112332 -0.07265033699232945 -0.02346964902518597 -0.005724287369925143 -0.01760616604124297 0.008668836009553784 -0.001695537370001257 0.01298988926969145 -0.01135652221826586 0.03552161154696485 0.006879742381340638 -0.01111200606142349 -0.004188998494355757 0.074475483082282 -0.02542115993225393 -0.02201470312048964 -0.006024189366027437 -0.03506393901382562 0.01775153257422575 
0.03493129121470765 -0.03307590332787257 0.1060233853354186 0.0530029087685118 -0.1591221654224815 -0.06833450978182198 0.01379884523557033 -0.1331269438799538 0.0007078618884333832 -0.09720602641973511 -0.02639386435002696 0.1333184586194548 0.0008256227565099413 -0.0356420807081404 -0.0755705638705159 -0.1157516999362763 0.2535644905800688 0.01602667981968188 -0.1298921928533816 -0.02798932625754464 -0.04762253234239031 -0.1521130084927093 -0.03398072497336443 -0.05262885259875704 0.1679408650114253 0.02990392390695953 
-0.09250228466165386 -0.006054549899568338 0.00281818813194529 -0.01739930172979548 0.11258761815319 0.06891492183028634 -0.07022504112526135 -0.05885349067964029 -0.06011373843059315 -0.08000623878930471 0.06620699198355075 0.00513759060303403 -0.02137406259437507 -0.0291426435192227 0.03188878186667 0.05827330315919823 -0.07695711842516376 0.04248356393997372 0.09650262524545654 -0.02727921758648459 0.0426188683754441 0.1835806380772638 -0.1156221167552688 0.05004480816257304 0.1649313456559906 -0.04105427809113472 
0.1312516776683965 0.05976469610376459 -0.1185204749856158 0.07478401758410708 0.1157346156733101 0.2507452328597505 -0.03318202934953951 -0.2135288075058391 -0.01847061178388269 0.02746244934883407 -0.1320251401501998 -0.02519631311287782 -0.005376891604456204 -0.04216494520159598 -0.0665085712893202 0.4012634248038908 -0.01589277740414991 -0.09071639618692827 -0.0392420921445768 -0.04925655476351369 -0.1596444039237842 0.004714371271527898 0.1328703872285148 -0.1723045763753494 -0.2163421369171205 -0.03007831567927348 
-0.0384732421622155 0.01072391600602635 -0.05600123681103125 0.03429545423455573 -0.05607588034963922 -0.08412146976596849 0.01207286617018904 0.05920042022166812 -0.04924357630000299 0.06214970430190678 0.09599603207617155 0.02053097364771069 0.02748208119055002 0.1883365377889439 0.01618949387122539 -0.1192027255475949 -0.1004134727172736 -0.08661112979609602 -0.157203808027176 0.01189923216116336 0.007391019893769724 0.0965125125617136 -0.07593610001991827 -0.08159974617332233 0.03740244084416763 0.1182680639665717 
0.07716714970235523 -0.0461955045681683 0.2084838860337137 -0.04955123707523781 0.05314640407952245 0.2867439527536465 -0.2119391541572362 -0.08008166216888193 -0.1558203225978863 0.06033156369067243 0.2130401669210679 0.1694430886261982 -0.08016488967174988 0.1099219293586816 -0.01750298706298878 0.233854068210891 0.01042195106811904 -0.09869269222713362 -0.03204270083546156 -0.02825373244255711 0.1708516170087555 -0.01716113204084339 -0.09572478917794461 -0.1011255129123808 0.03896499944368289 -0.04328452109287139 
0.08350962133496706 0.1268013417288268 -0.04859302745227743 0.00740585958279395 -0.04317628263267181 0.02337947456511831 0.01429144561429043 0.09099552937880258 -0.03236787480431208 -0.04329915897542697 -0.1445424532013847 0.06395716416331791 -0.05473164148422249 -0.1064367483399863 -0.04803901558433811 0.07258775887685201 0.0591270541658732 -0.08350150976607795 0.06163752795474503 0.03636896395324837 -0.01122488735033786 -0.05783637046578823 0.07635720688410128 0.02132431864849695 -0.04556372753317056 -0.08615612821637536 
-0.08227118392629733 0.178628150035406 0.2064297933033895 0.2185660266429498 0.03644061073540801 0.07473299493611844 -0.2251072702378605 0.002041288071101456 0.08631235067305107 0.04206646943803551 -0.02461774212011076 0.1027673591575838 0.01198571261840545 -0.2218279084991702 0.05101535063865429 -0.03422474475511311 -0.180095236861756 -0.05196046492278006 0.06498055604422193 -0.0570412435128874 -0.03355582206633662 0.1268282773566219 0.1888946845396126 -0.1126775643729939 -0.233555697509184 -0.110432038890618 
0.08729895428390416 0.02724033223884269 0.06260920660385007 -0.06333737154801419 -0.04180312244518505 -0.05380256433239178 -0.04293904626635683 -0.01095398839671634 0.1075511548786585 -0.05387511135306263 -0.01273544566899695 -0.05983902705069379 0.006975279986237946 -0.04886128867750748 0.01817052085193252 -0.02226447980099911 -0.04413742269282295 0.149187043419549 -0.02213895188823855 -0.03373450061564477 0.00666638093497455 -0.05588366831839434 -0.02678420219408746 0.009609980094583255 -0.02573866171858717 0.03234706923044668 
-0.05848262590318522 0.06594724692040931 -0.1193247836592067 -0.01450903268812485 0.1468655461316878 0.2219577917944259 0.0008580001228250692 -0.1068692571181579 -0.1718774693209392 0.03705536253666393 -0.00599297678529181 0.02628903943987739 0.02755245366441796 -0.06065754051037849 -0.2286363947297885 -0.1295093993713009 -0.2110265782676874 -0.1803653489737818 -0.08744978830326619 -0.04868629903994835 -0.008101718751940426 0.436521736368498 0.08727851065084882 -0.1384436947413278 -0.09764457410521631 -0.01903066596219189 
-0.1394880577702249 0.03466153674582488 0.008985416009966735 0.02801911850816165 0.01656469356951422 0.01162522189894494 0.01452569100815489 -0.07021213900272258 0.105246563917892 -0.04451182299923871 0.020258858478755 0.0884788336753579 -0.008248407623342786 0.0257262727278352 -0.05132875718458201 -0.0340979868888119 -0.03894915028882603 0.01339288598614104 -0.0907604109720891 0.004219981666141678 0.0317201246526918 0.007863319808897901 0.01133010960113597 0.03017860901048972 0.04354596459533995 0.02443001611592854 
0.1847627465064845 -0.06978770738522878 -0.08782908202042203 -0.01856992226635934 0.06976962847270266 -0.01143602142666176 -0.1111109417936244 0.006456583158501579 -0.01778978646961327 -0.06764110256248876 -0.07391437342019794 -0.162363032747275 0.07881324221487999 -0.09410999451052658 -0.03387449601666347 -0.05755242804554874 -0.1047468923295895 0.005607949993573318 -0.06609512291465529 0.02248464126246852 -0.1064244678914573 0.2415864510379212 0.02703884545104842 0.07946975430333204 -0.0569626953354813 -0.1346782729633315 
